É -0.319238 -0.232506 -0.049879 -0.049045 -0.454698 -0.042567 0.709653 0.344805 -0.049418 0.208975 0.250024 0.106508 0.62171 0.003292 -0.196981 -0.302765 -0.046122 0.301356 0.539556 0.428416 -0.226085 -0.51308 0.106872 0.255673 0.392381 0.788041 0.20737 0.190659 -0.180868 -0.153061 -1.057033 -0.279438 0.236966 0.119398 -0.425106 0.156463 0.002589 -0.158138 -0.052109 0.169652 0.189331 -0.284631 -0.100039 -0.305131 -0.330163 -0.221304 0.292578 0.033275 0.174252 -0.047549
á -0.367401 -0.432523 0.084059 -0.109293 -0.21081 -0.04551 0.553588 0.369805 -0.500317 0.254251 0.451196 0.043867 0.09235 -0.123729 -0.045878 -0.081463 -0.351528 0.07259 0.700934 0.404458 -0.313035 -0.154633 -0.013057 0.205072 0.152683 0.957299 0.333737 -0.068009 -0.046198 0.151232 -1.135595 -0.224185 0.244072 0.089276 -0.033702 0.365924 0.102975 0.122189 -0.20241 0.202902 0.360123 -0.069817 -0.342149 -0.384933 -0.162305 -0.150483 0.219687 -0.045109 -0.100713 -0.039413
ã -0.77045 -0.048743 -0.146022 -0.304756 -0.65137 -0.000334 1.246311 0.165755 -0.176723 0.032074 0.057014 0.511467 0.446852 -0.244007 -0.236642 -0.064763 0.078505 0.486572 0.769848 0.896811 -0.412728 -0.521847 0.255837 0.526568 0.41361 0.466965 0.562943 -0.122505 -0.142354 -0.279262 -0.685437 -0.199526 0.068612 0.538362 -0.199188 0.328167 0.359724 -0.036074 -0.33537 -0.076087 0.334898 -0.320644 0.071503 -0.302368 -0.150626 -0.011939 0.28712 0.09527 0.437841 0.448813
è -0.579305 0.331607 0.231097 -0.107194 -0.43949 -0.541953 1.32913 -0.259886 0.120277 0.216205 -0.088664 -0.005487 0.544416 0.065433 -0.254896 -0.219572 0.164597 0.729269 0.610961 0.93174 -0.312002 -0.527783 0.180608 0.846665 -0.023357 0.518819 -0.197849 -0.383371 -0.283409 0.106533 -0.797633 -0.262314 0.037053 0.809032 0.047928 0.014438 -0.002438 -0.044332 -0.254206 0.254853 0.603915 -0.097998 0.513695 0.025354 -0.408151 0.200241 0.477062 0.516997 -0.029892 0.537552
ì -0.28278 -0.067958 -0.28694 -0.342598 -0.616871 -0.386304 0.762697 0.32909 0.083265 0.123527 0.115242 0.319753 0.453797 -0.134137 -0.292524 -0.409637 -0.02445 0.181328 0.534667 0.445878 -0.237622 -0.375824 0.063398 0.389162 0.216598 0.904048 -0.182402 -0.124077 -0.145185 0.06517 -0.712137 -0.206042 0.213566 0.457663 -0.232843 0.145272 0.19307 -0.361588 -0.032317 0.182882 0.220865 -0.499602 0.038916 -0.087116 -0.133929 -0.351384 0.294004 -0.175026 0.330477 0.190197
ó -0.629687 -0.577707 -0.376856 0.273045 -0.526282 -0.432917 0.837634 0.350443 -0.043567 0.207969 0.246611 -0.873202 1.102454 -0.366426 -0.119516 0.053359 -0.092986 0.629644 0.549226 0.684008 -0.399193 -0.812135 -0.340129 0.838616 -0.095768 0.56407 0.061077 0.184938 -0.108412 -0.156284 -1.087917 -0.538611 0.014757 -0.076515 0.162925 0.183232 -0.22636 0.205009 0.304168 0.352966 0.063019 0.050021 0.089624 -0.300504 -0.695603 0.25746 0.497296 -0.078175 0.278274 0.217007
õ -0.479673 -0.123988 -0.115043 0.119326 -0.021301 0.00715 1.319244 0.518802 0.428418 -0.109599 0.082774 -0.357861 0.668798 -0.420365 -0.491324 0.085874 0.279031 0.357664 0.574146 0.543985 -0.105463 -0.395533 0.078001 0.539002 0.147276 0.733975 0.391651 0.14303 0.008792 0.075892 -0.861376 -0.288966 0.603575 -0.05766 -0.362497 -0.158436 -0.261576 -0.178148 0.007436 0.305562 0.207413 -0.194042 0.096578 -0.119863 -0.576199 0.170692 0.271381 0.016771 -0.188555 0.219178
ü -0.284104 -0.328621 -0.260559 -0.057246 -0.325585 -0.168977 0.774238 0.424997 -0.01278 0.195976 0.270901 -0.196223 0.519478 -0.199603 -0.311748 -0.077139 0.038551 0.479064 0.425176 0.752864 -0.077497 -0.512143 0.063699 0.484419 0.116228 0.626538 0.193689 0.205022 -0.169826 -0.129235 -1.040206 -0.154739 0.273616 0.277739 -0.13065 0.125793 0.0351 0.028092 -0.065419 0.287108 0.168062 -0.326218 -0.206242 -0.292143 -0.160991 -0.166525 0.206985 0.141388 0.206723 -0.019108
£ -0.159555 -0.426483 -0.265961 -0.163626 -0.642987 -0.747606 0.567374 0.462766 -0.156868 0.489213 0.366019 0.195691 0.63146 -0.277081 -0.252514 -0.356077 0.015482 0.334075 0.552095 0.286179 -0.514157 -0.429754 0.090289 0.523032 0.21855 0.893062 0.033429 0.030701 -0.196575 -0.115851 -0.826362 -0.215883 -0.147612 0.066413 -0.145526 0.028868 0.026022 -0.124545 0.164807 0.110475 0.125839 -0.368875 -0.128299 -0.244047 -0.365568 -0.186544 0.292996 -0.165864 0.501304 0.190721
$ 0.026389 0.142971 0.920142 -0.224127 0.012166 0.028026 0.750109 -0.150404 0.155751 0.42173 -0.405795 -0.612926 1.074619 -0.759602 0.580064 -0.516543 0.028211 0.650669 -0.531542 0.202946 0.719294 -0.49239 -0.041341 -0.429039 -0.038019 0.848989 0.788909 -0.279986 -0.072957 0.251335 -0.416758 0.444645 0.415163 0.757146 -0.135098 -0.043708 0.427887 0.227734 -0.212434 -0.599488 0.509365 -0.445564 0.51249 0.315655 -0.835385 -0.379961 -0.155279 0.313184 -0.099803 0.074648
ß -0.165082 -0.263298 -0.233971 -0.145277 -0.493938 -0.557831 0.619676 0.415088 -0.088103 0.251768 0.306155 0.038583 0.508487 -0.246298 -0.239246 -0.173025 0.023384 0.278562 0.465652 0.32208 -0.279189 -0.312204 0.013126 0.491358 0.150569 0.827239 -0.040498 0.0522 -0.146252 0.154329 -0.985976 -0.160662 -0.095889 0.188508 -0.118181 0.002194 -0.022977 -0.058625 -0.033034 0.156353 0.36391 -0.3062 -0.039235 -0.24239 -0.294881 -0.233269 0.201858 0.000158 0.437579 0.130368
( -0.491096 0.557207 0.297042 0.229891 -0.291354 -0.531844 0.153553 0.219638 -0.574071 0.018897 -1.029078 0.168175 1.250084 -0.339428 -0.42204 -0.166651 -0.645059 -0.778046 0.500099 -0.103054 0.22774 0.189774 -0.180215 0.686963 0.505629 0.510802 0.43939 -0.225719 1.007367 -0.62803 -0.735513 0.042779 -0.006372 -0.488137 -0.104472 -0.388362 0.206804 -0.679261 0.486821 0.473368 0.825145 0.036338 0.722306 0.793547 0.238785 0.752483 0.33613 0.113826 0.586028 0.907949
´ -0.176164 -0.190875 -0.085016 -0.381714 -0.408538 -0.215496 0.383373 0.103636 -0.131203 0.197861 0.27069 0.404176 0.674432 -0.155376 -0.397032 -0.047562 0.09172 0.278292 0.420716 0.411665 -0.23089 -0.420491 0.007101 0.571678 0.13453 0.786445 -0.120855 -0.268854 -0.156903 0.071778 -0.762642 -0.242542 0.352427 0.04289 0.030291 0.299301 0.231608 -0.312924 -0.35644 0.102574 0.351382 -0.295702 -0.128841 0.062747 -0.043586 -0.088121 -0.042368 -0.10395 0.252748 0.144676
, 0.076099 -0.371079 0.548903 -0.229351 -0.116184 -0.077975 0.49608 -0.021267 0.035636 0.159395 -0.302999 -0.781561 0.759139 -0.145979 0.305049 -0.379402 -0.295964 0.322282 0.108021 -0.052391 -0.054827 -0.057552 0.073261 -0.10854 0.00652 1.171451 0.426951 -0.217774 -0.033506 0.169165 -0.868691 0.243356 0.348899 0.387899 0.059684 0.169734 0.148322 -0.052589 -0.22941 0.063824 0.077109 -0.311243 0.426373 0.545093 -0.260163 -0.206871 0.165569 0.404281 -0.504491 -0.209776
Ø -0.38119 -0.305587 -0.254132 -0.120503 -0.400465 -0.417795 0.590533 0.316825 0.142418 0.19097 0.251478 -0.012822 0.644045 -0.208739 -0.126553 -0.078446 -0.132258 0.356166 0.505071 0.647651 -0.183477 -0.184447 0.169689 0.576232 0.300848 0.769232 -0.144336 0.032875 0.018573 0.275675 -1.040694 -0.309391 0.091874 0.250034 -0.06631 0.151506 -0.177367 -0.088275 -0.257149 0.015546 0.363303 -0.279691 -0.023636 -0.324505 -0.206702 -0.037493 0.347793 0.169678 0.273686 0.121843
0 -0.139788 -0.213257 0.419114 -0.204042 -0.175271 -0.242984 0.41103 0.023387 -0.114248 0.187469 -0.26121 -0.60991 0.635588 -0.016797 0.10031 -0.150789 -0.304434 0.145123 -0.062829 0.127075 0.093413 -0.076132 -0.118948 -0.119647 0.055581 0.88912 0.496985 -0.099439 0.087677 0.203511 -0.750288 0.178591 0.117314 0.526229 0.001168 0.010197 0.05264 -0.074114 -0.135885 -0.148392 0.21144 -0.342373 0.23226 0.387855 -0.252779 -0.155939 0.448827 0.265642 -0.282765 -0.161514
≥ -0.139253 -0.197158 -0.233407 0.195646 -0.148055 -0.188032 0.890252 0.489104 0.202122 0.21087 0.212925 -0.108857 0.506979 -0.359426 -0.425715 -0.188893 0.111035 0.208268 0.576078 0.314587 -0.250945 -0.308784 -0.03102 0.384652 0.096056 0.896863 0.26537 0.087647 -0.02237 0.062142 -0.857863 -0.352299 0.33079 -0.109997 -0.203857 -0.137052 -0.284253 -0.065024 0.028505 0.327082 0.16734 -0.224641 0.025054 -0.168925 -0.538463 -0.034839 0.185325 -0.137348 0.057482 0.159434
4 -0.271857 -0.309262 0.417378 -0.142024 -0.05934 -0.146146 0.441755 0.035869 -0.169185 0.261271 -0.282833 -0.580828 0.655184 -0.029569 -0.043919 -0.173678 -0.359673 -0.070695 -0.107938 0.283909 0.168886 0.018977 -0.040161 -0.195266 0.143247 0.955463 0.614527 -0.174322 0.176841 0.112041 -0.888411 0.210716 0.119101 0.46585 0.051534 -0.047026 0.073206 -0.019763 -0.007526 -0.105635 0.212708 -0.402734 0.276529 0.348428 -0.28247 -0.022517 0.418746 0.168517 0.007614 -0.164719
∑ -0.6905 0.074 0.014694 -0.178239 -0.452323 -0.673225 1.197637 -0.261987 -0.136913 0.090511 0.089591 -0.095592 0.788277 0.062242 -0.074785 -0.235414 0.025091 0.787199 0.415188 0.593406 -0.563242 -0.338413 -0.127118 0.880095 0.409313 0.819352 -0.184165 -0.071674 0.092668 0.005532 -0.949126 -0.39729 -0.094485 0.637765 -0.304336 0.082318 0.153357 -0.314618 -0.018112 0.46901 0.659522 -0.123169 0.633485 -0.198693 -0.166007 0.426405 0.595597 0.243338 0.232918 0.582522
8 -0.312309 -0.269684 0.404364 -0.192672 -0.121496 -0.174211 0.405702 0.034262 -0.260915 0.258938 -0.277007 -0.543257 0.71918 -0.079891 -0.044504 -0.136003 -0.392471 -0.022506 -0.144656 0.333858 0.205256 0.051441 -0.021089 -0.265623 0.154856 0.903429 0.64291 -0.138268 0.171913 0.130815 -0.901876 0.173654 0.128826 0.405372 0.070862 -0.042515 0.101224 -0.050941 -0.038774 -0.120254 0.191686 -0.38368 0.266557 0.330657 -0.293648 -0.065122 0.368226 0.187047 4.3e-05 -0.179592
ª -0.253737 -0.21131 -0.234272 -0.172237 -0.37016 -0.4902 1.011835 0.350124 -0.148981 0.041571 -0.032139 0.108757 0.544068 -0.17448 -0.195076 -0.216648 -0.182273 0.301011 0.63746 0.804102 -0.376236 -0.536123 0.217735 0.449769 0.16931 0.713393 -0.037283 -0.049243 -0.051288 0.101537 -1.00149 -0.245733 0.089068 0.555356 -0.084987 0.160918 0.036471 -0.125136 -0.264278 0.201381 0.117008 -0.291246 -0.013523 -0.271268 0.078605 -0.155438 0.258291 -0.028291 0.337779 0.298194
< -0.60292 1.1734 0.81599 0.086194 0.36068 -0.064082 1.4942 -1.1903 -1.1872 -0.54148 0.57654 0.60091 0.77565 -0.80284 0.001209 0.38546 -0.10898 0.51757 -0.81487 -0.02306 -1.1795 -0.9481 1.3664 0.96261 -0.028653 0.69662 -0.1773 -0.072403 0.83599 0.70704 1.1316 0.41566 -0.3806 1.2744 0.33244 -0.86378 0.40199 -1.0978 0.51057 0.63694 0.93841 -0.004206 0.30094 0.41878 -0.35986 -0.20247 0.77569 0.056714 0.88472 1.1363
ø -0.446896 0.106855 -0.043845 -0.40102 -0.264151 -0.375472 0.834118 0.107082 -0.168224 0.140772 0.1145 0.393495 0.658121 -0.055318 -0.233493 -0.270573 -0.089586 0.261338 0.619153 0.494959 -0.326423 -0.483795 -0.108021 0.382449 0.363885 0.865136 -0.07873 -0.235153 0.069467 -0.005125 -0.851708 0.035948 0.133875 0.450177 -0.187534 0.185632 0.242047 -0.354286 -0.130459 0.291581 0.451257 -0.321868 0.128375 -0.173742 -0.107064 0.066547 0.242365 0.238189 0.276893 0.436332
@ -0.115733 0.658415 0.842839 -0.031728 -0.281909 -0.914118 -0.00889 0.340941 0.300847 -0.22662 -0.599069 0.311915 0.292656 0.172926 0.466531 0.353369 0.120673 -0.468465 0.183079 -0.159562 0.137194 0.077664 0.359048 0.478585 0.341575 0.44333 0.450803 -0.084048 0.209135 0.06033 -0.632413 0.028052 0.006189 -0.08905 -0.21864 -0.242857 0.464075 -0.146092 -0.168924 -0.51337 0.510591 -0.262551 0.375306 0.70435 -0.097652 0.144208 0.327895 0.313461 0.077619 0.562807
√ -0.12473 -0.28869 -0.298952 -0.141924 -0.454036 -0.224037 0.555438 0.451431 -0.082551 0.225938 0.356449 0.063152 0.357565 -0.206586 -0.240649 -0.272233 -0.043938 0.205145 0.376627 0.332446 -0.188775 -0.352888 -0.02933 0.325401 0.14461 0.842186 -0.004435 0.054662 -0.101155 0.087442 -1.041649 -0.174783 0.101675 0.092593 -0.182355 0.017892 -0.013875 -0.022345 -0.028696 0.20932 0.25926 -0.386963 -0.10579 -0.258838 -0.297065 -0.242687 0.210163 -0.079611 0.244238 0.035892
« -0.650473 0.66209 -0.498306 -0.2556 -0.52748 -0.881493 1.14524 0.008254 -0.296066 -0.240903 -0.066007 1.019213 0.881723 0.000582 0.467271 -0.606193 -0.166066 0.39213 0.751357 0.558224 -0.526777 -0.54988 0.293113 0.74239 1.127093 0.93068 -0.071649 -0.195883 0.283749 -0.020032 -0.854137 -0.371318 -0.096973 0.879453 -0.622703 0.014776 0.21891 -0.63659 -0.705707 0.263753 0.395243 -0.761557 1.1331 -0.463153 0.52181 0.220103 0.310121 -0.02891 0.932783 0.556467
À -0.0303 0.29907 0.531315 -0.791675 -0.034278 -0.54935 1.2055 -0.22708 0.274665 0.284395 -0.28953 -0.512575 0.57165 -0.174672 -0.474203 0.38258 0.029595 0.117985 -0.589335 0.304313 0.51779 0.280745 0.96257 0.42325 -0.10399 1.6998 0.961005 0.158705 0.476315 0.510525 -0.91907 0.46954 0.222522 0.436782 0.54827 -0.65767 0.336345 0.2033 0.078315 0.340795 0.277435 -0.393736 0.298546 0.453039 -0.817775 -0.32976 1.021155 -0.28884 -0.13428 0.81473
œ -0.54517 0.341262 0.323575 -0.289513 0.123052 -0.26712 1.233928 -0.056995 -0.048287 0.023844 0.182646 0.492544 0.596476 0.049695 -0.025596 -0.316663 0.346563 0.252917 0.503099 0.290761 -0.595428 -0.418248 0.368982 0.681215 0.495422 1.194036 0.016551 -0.074832 0.160742 -0.037881 -0.588878 0.229574 0.134783 0.452335 -0.521158 0.141962 0.44234 -0.994573 -0.123988 0.15914 0.703951 -0.574312 0.110355 0.19631 -0.39928 -0.051033 0.376975 0.533605 0.39379 0.33397
◊ -0.897301 0.643351 0.095043 -0.820362 -0.105784 -0.332247 0.553641 -0.43033 -0.659964 -0.078503 -0.287709 0.601815 1.046314 0.260789 -0.075545 -0.083548 -0.05287 -0.147026 0.662775 1.027371 -0.55467 -0.40203 0.666145 0.724186 0.519587 1.11257 -0.142382 -0.079095 0.184971 -0.147397 -0.802491 -0.502553 -0.191867 0.879412 -0.330286 0.024373 0.560132 -0.92483 -0.038472 0.220839 0.81393 -0.678673 0.185973 0.00785 0.418112 0.490722 0.527138 0.900236 0.33174 0.636837
€ -0.295148 0.268458 0.288623 0.114278 -0.005677 -1.316125 0.612983 0.85048 0.556795 -0.277063 -0.212822 -0.353443 1.160862 -0.474008 0.644303 0.842162 0.697456 0.742869 -0.290543 0.940783 -0.166424 -0.553672 -0.023487 1.460205 0.716432 0.407664 0.099002 0.430423 0.062892 0.456526 -1.2101 -0.601783 0.414578 0.328052 0.013164 -0.418533 -0.048938 -0.62532 -0.700587 -0.67637 0.190293 -0.218092 0.102908 0.038427 -1.235337 0.252019 0.826025 0.562552 0.123117 0.353956
\ -0.56888 0.92558 0.72886 0.49299 0.018528 -0.99899 0.45897 0.53309 -0.69731 -0.13726 -0.65431 1.1011 -0.62995 -0.61862 -0.389 -0.59244 -0.67199 0.95106 0.065679 -0.20711 -1.3982 -0.020197 1.4834 0.078576 0.2963 0.26236 -0.60204 0.56499 0.81979 -0.68553 1.6077 -0.017203 0.11643 1.7121 0.55242 -0.4538 0.25179 -0.61592 1.6335 -0.29288 0.38008 -1.2285 -0.26997 0.4803 -0.50296 0.64868 0.83182 0.71013 -0.22866 1.4826
` -0.235719 -0.095018 -0.225613 -0.332642 0.207288 -0.249565 0.1832 -0.013864 -0.031139 0.390936 -0.211188 0.646132 -0.186218 0.027416 0.727018 0.185288 0.291614 0.495524 0.137981 -0.142746 -0.32492 0.400283 0.225809 0.123244 0.572454 -1.312858 -1.222669 0.29709 0.644732 -0.862912 1.394848 0.177473 -0.332738 0.029175 -0.44015 -0.271666 0.145604 -0.583416 0.333789 -0.274448 -0.369498 -0.05675 -0.008037 0.238519 -0.159835 -0.053542 0.151526 0.116242 -0.154524 0.909714
„ -0.800715 0.17817 -0.54515 -0.709575 -0.12388 -0.400554 1.9277 -0.96136 0.202685 -0.797215 -0.191962 -0.253973 0.663535 -0.6156 -0.322548 0.137268 0.91639 0.86744 0.97194 1.159895 0.058931 0.77287 0.30982 1.03548 1.412275 1.57935 -0.084955 -1.1605 0.26737 0.3961 -0.03242 -0.16939 -0.50883 1.136595 -0.34448 0.882155 0.90207 -0.173294 0.666115 1.053915 0.65322 -0.92018 0.992245 -0.187236 0.53189 0.616615 0.332725 -0.907625 1.25555 0.207955
d -0.091431 -0.342626 -0.057256 -0.106993 -0.182229 -0.042608 0.279579 0.190088 0.08033 0.172429 0.066355 0.031734 0.253571 0.081392 -0.222558 -0.040162 -0.047129 0.083797 0.362572 0.1335 -0.134417 -0.093798 -0.071485 0.098556 0.143374 0.542666 0.126714 0.109847 0.021485 0.056489 -0.749488 -0.0786 0.230936 0.123016 -0.030344 0.127943 -0.017072 -0.004871 -0.133922 0.098497 0.109953 -0.180469 -0.139471 0.127215 -0.001248 -0.14976 0.157982 0.099026 -0.001643 -0.012931
Á -1.26498 -0.151465 0.304903 0.043205 -0.585252 -0.560428 1.263696 -0.512712 0.077909 0.023779 0.299134 0.201506 0.882544 0.438761 -0.553683 -0.142668 0.224731 0.729813 0.663842 0.323491 -0.182731 -0.482396 -0.523774 0.393183 0.166815 0.690666 0.377007 -0.61647 -0.467483 0.021784 -0.580923 -0.318669 -0.075372 0.366646 -0.622649 0.174365 0.135543 -0.155621 0.224367 0.432877 0.597691 0.11902 0.680571 -0.075756 -0.395127 0.271354 0.114459 0.286963 0.453854 0.903243
h -0.161026 -0.277764 -0.056471 -0.063275 -0.194834 -0.086759 0.333846 0.205543 0.08772 0.149837 0.050109 0.045362 0.262903 0.053281 -0.268514 -0.022935 -0.020881 0.082078 0.382204 0.234935 -0.127866 -0.111021 -0.087919 0.091441 0.169804 0.560793 0.115634 0.056084 -0.066376 0.040264 -0.907454 -0.089729 0.262017 0.191351 -0.014241 0.098785 -0.020455 -0.008653 -0.074219 0.187383 0.103722 -0.120813 -0.162381 0.056297 0.082199 -0.140694 0.170395 0.07543 0.003051 0.029757
Î 0.082127 -0.318073 0.501477 -0.443337 -1.13199 -1.444833 1.557833 -0.272323 0.869583 -0.01412 0.378933 0.438663 0.813413 -0.607393 -0.4739 0.32857 0.113967 0.41784 0.690307 1.185533 -0.208163 -0.586383 -0.396737 -0.772187 -0.634913 -0.188417 0.966873 -0.803673 -1.5998 0.91994 -0.15061 -0.332871 -0.33312 1.446767 -0.786307 -0.06134 0.13779 0.117567 0.147727 -0.686123 0.739213 -0.13626 0.73895 1.074847 -1.3332 -1.148433 -0.045142 0.912667 -0.171677 -0.228293
l -0.092003 -0.296817 -0.097203 -0.080795 -0.201102 -0.020964 0.303225 0.189652 0.072742 0.187261 0.066396 0.046942 0.26793 0.057868 -0.238844 -0.05796 -0.015208 0.080043 0.354996 0.117972 -0.14764 -0.109846 -0.102728 0.098696 0.14347 0.588787 0.138498 0.113868 0.012431 0.038335 -0.825023 -0.101437 0.235758 0.115211 -0.032826 0.094328 -0.041 0.003565 -0.093881 0.116283 0.136328 -0.164166 -0.126362 0.093214 0.012878 -0.139756 0.196674 0.084937 -0.019499 0.036037
Ô -0.177028 -0.20074 -0.08627 -0.522092 -0.189954 0.166534 0.506652 -0.00698 0.325469 0.224483 -0.071851 -0.429808 0.55614 0.101935 0.048982 0.017882 -0.213728 -0.145684 0.452367 0.411862 -0.297986 -0.280304 -0.084278 -0.078896 0.137316 0.843934 -0.358512 0.396638 0.136396 -0.16068 -0.793764 0.073545 0.862662 0.081674 -0.420091 0.641474 0.230872 -0.237218 -0.364532 0.124468 0.038208 -0.565799 -0.028492 0.800782 -0.151498 -0.12363 0.297532 0.658484 -0.347194 -0.838526
p -0.061634 -0.299121 -0.090071 -0.068939 -0.216287 -0.035892 0.363893 0.13766 0.092629 0.216749 0.075054 0.048447 0.329545 0.125055 -0.226585 -0.078585 -0.06738 0.113311 0.351672 0.094053 -0.139653 -0.168359 -0.077809 0.114904 0.128273 0.579022 0.066534 0.094019 0.035459 0.042568 -0.68374 -0.057872 0.173581 0.118341 -0.075631 0.131218 -0.025805 -0.057207 -0.136289 0.062205 0.130225 -0.242669 -0.115927 0.181171 -0.00259 -0.131952 0.230146 0.157707 0.014509 -0.003727
t -0.07856 -0.297894 -0.09703 -0.091368 -0.211625 -0.026434 0.334066 0.170385 0.097103 0.206331 0.069699 0.032036 0.285823 0.121486 -0.248542 -0.079295 -0.04549 0.085357 0.34019 0.109074 -0.107245 -0.138275 -0.114629 0.10699 0.136138 0.558307 0.077272 0.079817 0.037287 0.06284 -0.713346 -0.06032 0.201506 0.095904 -0.06107 0.114473 -0.027449 -0.031221 -0.144786 0.093606 0.124803 -0.224169 -0.118019 0.153747 -0.001278 -0.138124 0.218402 0.150867 -0.004169 0.010908
x -0.074208 -0.248235 -0.016217 0.050043 -0.260158 -0.063869 0.390495 0.098936 0.130032 0.281851 0.133884 0.065604 0.319146 0.101169 -0.230495 -0.064195 -0.167878 0.154062 0.341301 0.088725 -0.103333 -0.192978 -0.090392 0.117242 0.092052 0.587346 0.036419 0.065679 0.066982 0.017277 -0.718841 -0.063628 0.178832 0.10534 -0.06236 0.073652 -0.02155 -0.096737 -0.172585 0.047105 0.189298 -0.292029 -0.067738 0.139356 0.020046 -0.104266 0.233579 0.126885 0.010464 0.033509
| -1.81595 0.380525 0.894445 0.50398 0.767395 -0.352396 1.281895 -0.346899 -0.196695 -0.58559 0.072015 -0.222143 0.410215 -0.360825 0.03802 0.492205 -0.299124 0.301338 0.18047 1.14014 -0.24594 -0.682565 1.09057 1.32066 0.17804 0.43996 -1.19643 -0.384674 -0.198115 0.13783 0.27136 0.30751 0.574105 -0.149355 0.08118 0.33278 0.99317 -0.137494 0.52314 -0.03857 0.325295 -0.180094 -0.73626 0.253 -0.713228 1.1525 0.15087 0.317955 1.55495 0.67015
Ä -0.441057 0.127931 -0.180581 -0.32935 -0.27497 -0.326173 0.694652 0.131514 0.000215 0.191047 0.052481 0.38418 0.363262 0.01517 -0.280179 -0.331451 0.090168 0.155409 0.377566 0.280447 -0.142134 -0.178216 0.179076 0.289284 0.34153 0.816014 -0.297772 -0.148326 0.109355 0.129304 -0.679958 -0.11101 -0.018621 0.05889 -0.340351 0.124282 0.232505 -0.240834 -0.050222 0.075968 0.353986 -0.637111 -0.04982 0.067505 -0.164025 -0.064866 0.207915 -0.087866 0.447313 0.233433
Ñ -0.485993 0.006001 0.075403 0.066553 0.263055 0.03685 1.189977 0.376661 0.453762 -0.17422 0.061692 -0.215963 0.530143 -0.411678 -0.350749 0.145177 0.315532 0.238163 0.578912 0.467665 -0.045035 -0.223165 0.232564 0.515264 0.317822 0.850288 0.355161 -0.001384 0.094137 0.130016 -0.904651 -0.243324 0.58482 -0.056375 -0.285353 -0.062265 -0.25929 -0.092992 -0.108215 0.431682 0.404416 -0.192769 0.111246 0.024903 -0.552215 0.312536 0.259043 0.182533 -0.260515 0.07237
à -0.568533 -0.117669 -0.179364 -0.115222 -0.465341 -0.461266 0.924746 0.289732 -0.022049 -0.260817 0.122725 -0.28521 0.614366 0.071816 -0.12945 -0.198689 0.01756 0.482584 0.420004 0.98264 -0.347713 -0.514827 0.201324 0.988934 -0.105425 0.840685 0.07988 0.102422 -0.27348 0.101734 -0.797353 -0.405456 0.324303 0.106631 -0.204655 0.426164 0.229915 -0.16438 -0.040518 0.168417 0.509492 -0.129665 0.052294 -0.340437 -0.609989 0.342686 0.306632 0.366109 0.186283 0.351442
å -0.46499 0.304949 0.243672 -0.253829 -0.345511 -0.612507 0.55135 0.240385 0.01266 -0.109557 -0.021965 0.301938 0.888515 -0.262604 0.298848 0.606094 0.482558 0.68521 0.262284 0.728881 -0.244106 -0.524578 -0.162639 1.003705 0.405612 0.55318 0.478152 0.260662 0.169252 0.092976 -0.764039 -0.278962 0.179058 0.472945 -0.27449 -0.029753 0.058991 -0.684442 -0.59151 -0.58028 0.381688 -0.456488 0.274622 0.008508 -0.838602 0.082404 0.446585 0.489442 0.205211 0.40833
ê -0.916929 0.161961 0.124948 -0.593771 -0.504511 -0.106415 0.82791 -0.348036 -0.422102 -0.364378 -0.154629 0.843248 0.587592 0.134389 -0.169146 -0.286088 -0.019894 0.428921 0.653841 0.414026 -0.473586 -0.340243 0.152811 0.864961 0.501905 0.394606 -0.046445 -0.020399 0.211436 -0.229368 -0.663044 -0.218689 -0.086806 0.585334 -0.296327 0.088677 0.607246 -0.524217 -0.45935 0.024196 0.672543 -0.423887 0.849987 -0.152318 -0.14731 0.479191 -0.019903 0.292114 0.911597 0.782231
î -0.843705 -0.036287 -0.053789 -0.29577 -0.571497 -0.455693 0.899257 -0.185012 -0.128794 0.178854 -0.006319 0.134993 0.722404 0.052493 -0.347472 -0.455069 -0.24625 0.306548 0.487518 0.43377 -0.404891 -0.149778 0.148649 0.49439 0.410705 1.0004 0.057219 -0.329792 0.196558 -0.119183 -0.372609 -0.155483 0.025224 0.327836 -0.368965 0.205113 0.478151 -0.482756 -0.131916 0.300386 0.703329 -0.579787 0.277469 -0.016618 0.086135 0.472524 0.431531 0.268776 0.074242 0.654307
ò -0.515087 0.204076 -0.139494 -0.262027 -0.262674 -0.495199 0.642828 -0.255066 0.216162 0.147735 -0.061452 0.420515 0.676008 -0.095637 -0.505235 -0.131357 0.118242 0.22824 0.415748 0.463544 -0.281086 -0.301502 0.303945 0.4387 0.50308 0.667801 -0.593671 -0.333273 -0.000641 0.081055 -0.671955 -0.327277 0.105033 -0.107595 -0.344675 0.090999 0.340639 -0.220957 -0.158682 0.179323 0.340411 -0.617914 -0.094001 0.460822 0.08366 0.250951 -0.051245 -0.351382 0.628228 0.23473
ú -0.813111 0.13162 0.065274 -0.471586 -0.277836 -0.42391 1.047219 -0.391962 0.100324 0.152019 -0.049977 0.314823 0.935535 0.180296 -0.18505 -0.3578 0.079347 0.231762 0.632177 0.596758 -0.299718 -0.368534 0.430432 0.142893 0.564222 0.872697 -0.285478 0.013487 0.013908 -0.131214 -0.552104 -0.211581 -0.203154 0.374941 -0.717561 0.120842 0.201394 -0.666595 0.267471 0.164067 0.200084 -0.504313 0.186284 -0.081421 -0.269933 -0.100247 0.478079 0.493443 0.636334 0.33073
† -0.126544 -0.210221 -0.350285 -0.130094 -0.569877 -0.695367 0.766533 0.331047 -0.041935 0.254501 0.108704 0.133787 0.474858 -0.321977 -0.115161 -0.41699 -0.030315 0.40543 0.52459 0.514006 -0.37546 -0.553923 -0.024121 0.435976 0.317274 0.834411 -0.022353 0.082703 -0.184476 -0.056311 -0.927376 -0.137722 0.051555 0.463314 -0.335952 0.025571 0.082973 -0.042753 -0.083989 0.216485 0.249458 -0.430615 -0.112152 -0.095813 -0.21211 -0.368737 0.277494 -0.019706 0.387588 0.226333
# -1.156523 0.468472 0.126834 0.004703 0.11165 -0.514837 0.737177 0.005907 -0.326863 -0.187253 -0.45302 -0.119612 0.287266 0.659637 -0.261708 -0.202325 -0.129576 -0.477708 0.351709 -0.126588 -0.036334 -0.016596 -0.021337 0.443086 0.059312 1.082902 -0.474201 0.217193 0.80316 0.30093 -0.35379 -0.15691 0.290872 0.298942 -0.228266 0.252988 0.419955 -0.611341 -0.157689 -0.161864 0.457893 -0.457099 0.378355 0.034777 0.061506 0.45062 0.700257 0.324008 0.485935 0.530857
§ -0.2978 -0.322173 -0.183518 -0.252243 -0.417475 0.043584 0.517934 0.480379 -0.036343 0.086943 0.474709 -0.10711 0.317078 -0.050432 -0.14207 -0.050977 -0.022513 0.287712 0.32941 0.543227 -0.04091 -0.483459 -0.035664 0.513216 0.192992 0.73075 -0.073203 0.090606 -0.085511 -0.023692 -1.1233 -0.071486 0.395551 0.251648 -0.240116 0.052149 0.120986 0.07034 -0.005871 0.207379 0.293955 -0.483401 -0.111918 -0.246875 -0.196095 -0.08558 0.308268 0.156019 -0.00631 0.020992
' -0.1118 -0.250045 -0.251761 -0.180172 -0.398778 -0.364813 0.315172 0.223211 -0.013433 0.192519 0.074371 0.177778 0.068616 -0.031904 -0.113882 -0.236933 -0.040732 0.039675 0.266024 0.157816 -0.20291 -0.081413 -0.021345 0.151507 0.045668 0.722314 -0.077333 0.115574 -0.063908 0.0983 -1.008973 0.020228 0.000116 0.29055 -0.124542 -0.033643 -0.008945 -0.093124 0.020584 0.156526 0.185972 -0.235367 -0.069181 -0.115325 -0.103729 -0.159209 0.185351 -0.026034 0.206835 0.138477
® -0.000203 -0.165301 -0.582191 -0.321739 -0.62358 -0.292108 0.539674 0.450275 -0.050302 0.224608 0.285127 0.130387 0.236433 -0.231717 -0.240282 -0.473736 -0.095296 0.119715 0.303785 0.150467 -0.236835 -0.218435 -0.027704 0.262837 0.028671 0.860376 -0.284063 0.240394 -0.031301 0.208464 -1.061953 -0.288282 -0.010247 0.15282 -0.142108 -0.07515 -0.012764 -0.002585 -0.017685 0.190483 0.396646 -0.478645 0.172587 -0.352474 -0.258294 -0.243687 0.204057 -0.046291 0.376546 0.087576
+ -0.520338 0.063866 0.351631 0.082997 -0.217211 -0.124785 0.85952 -0.070244 0.033447 0.298085 0.004664 -0.068253 0.849799 0.104204 -0.255102 -0.028108 -0.095817 0.165899 0.060399 0.05217 0.06344 0.011863 0.393361 0.334129 0.21802 1.10829 0.280401 -0.184957 0.166401 0.426245 -0.803511 0.286891 -0.079581 0.467473 -0.006976 -0.261392 0.081917 -0.368952 0.009117 -0.090246 0.473791 -0.377377 0.30275 0.081049 -0.147884 0.316557 0.429692 0.207036 0.30429 0.345033
¨ -0.105373 0.004278 -0.33267 -0.082803 -0.355222 -0.439059 1.005359 -0.079615 -0.361244 0.21587 0.000276 0.152443 0.625894 -0.282071 0.084239 -0.232842 -0.203575 0.406239 0.380685 0.745243 -0.531729 -0.65576 -0.049672 0.641978 0.21873 0.757842 -0.0681 0.021821 -0.047572 -0.094217 -0.761438 -0.026602 0.288918 0.375249 -0.309957 0.303515 0.161077 -0.341675 -0.250478 0.107766 0.367629 -0.299454 0.068504 0.082674 -0.001843 0.070657 0.341735 0.192729 0.504912 0.171467
/ -0.461209 0.165138 0.227582 0.069606 -0.319625 -0.41759 0.398022 -0.083401 0.112004 0.007251 -0.324566 0.085196 0.289638 0.26505 0.099555 -0.222477 -0.048535 -0.003577 0.140578 0.138947 -0.024303 -0.143308 0.065811 0.38923 0.117862 0.911258 -0.038058 -0.096211 0.223332 0.23874 -0.768295 0.12012 0.049021 0.220016 -0.103708 0.087678 0.102077 -0.280359 -0.122592 -0.286236 0.295113 -0.443251 0.317762 0.136132 -0.124561 0.404494 0.542454 0.512592 0.280193 0.396227
∞ -0.388384 -0.015388 -0.021005 -0.217842 -0.410555 -0.243291 0.702932 0.405639 -0.251837 0.255107 0.207238 0.330662 0.516899 0.13188 -0.000748 -0.176715 -0.218161 0.186501 0.670328 0.696609 -0.34484 -0.299036 0.098286 0.520227 0.318405 0.832758 0.108982 -0.063984 0.146533 0.192556 -1.187994 -0.206903 0.150813 0.538251 -0.180105 0.14707 0.06431 -0.303055 -0.136015 0.156535 0.362772 -0.266495 0.07973 -0.302071 0.008317 -0.114128 0.276565 0.168867 0.237414 0.301844
3 -0.255399 -0.307133 0.433782 -0.131038 -0.057713 -0.153849 0.435699 0.011317 -0.156703 0.260976 -0.291331 -0.557842 0.641165 -0.039991 -0.038496 -0.167751 -0.365618 -0.063578 -0.097696 0.277231 0.147177 0.017019 -0.027961 -0.194579 0.124261 0.962938 0.608374 -0.18089 0.183302 0.119952 -0.876607 0.217283 0.134897 0.470715 0.084661 -0.040016 0.086136 -0.035077 -0.026717 -0.097499 0.202602 -0.392163 0.282135 0.366254 -0.288078 -0.006747 0.392438 0.187011 0.002559 -0.156733
¥ -0.322255 -0.152981 -0.348199 -0.177622 -0.581438 -0.529585 0.717388 0.36808 0.00396 0.025442 0.210017 0.01499 0.444833 -0.18729 -0.170308 -0.391585 0.116666 0.157677 0.336138 0.369316 -0.321894 -0.508549 -0.011756 0.527105 0.072168 0.750272 -0.188123 0.134639 -0.067 0.139032 -0.984988 -0.198483 -0.036581 0.146814 -0.245839 0.021034 -0.030194 -0.195053 0.042414 0.166427 0.384038 -0.357928 0.228989 -0.338129 -0.230409 -0.19339 0.402427 0.218461 0.525858 0.249019
7 -0.303468 -0.303228 0.429508 -0.152252 -0.070804 -0.152324 0.404278 0.026065 -0.18322 0.244253 -0.298434 -0.556329 0.710536 -0.057154 -0.055978 -0.141358 -0.384932 -0.042308 -0.129459 0.315311 0.207225 0.049727 -0.027575 -0.261785 0.138939 0.902041 0.666215 -0.158441 0.189086 0.097976 -0.918495 0.180697 0.098479 0.46027 0.09093 -0.076981 0.076703 -0.04302 -0.041013 -0.121426 0.184249 -0.385155 0.30384 0.311619 -0.296735 -0.028729 0.369173 0.173898 -0.017095 -0.156396
∏ -0.27351 -0.17117 -0.176187 -0.263774 -0.340859 0.094452 0.359499 0.283673 -0.119392 -0.009059 0.326991 -0.033168 0.566701 -0.116928 -0.194358 0.119347 0.185734 0.271873 0.313389 0.600626 0.066933 -0.433225 0.007462 0.629711 0.138659 0.756253 0.158123 0.10622 -0.064465 -0.013368 -1.024074 -0.120703 0.202935 0.156461 -0.152041 0.101581 0.21557 -0.11279 -0.108298 0.225015 0.373344 -0.384577 -0.165901 -0.174344 -0.395722 0.00177 0.127417 0.185302 0.142315 -0.022251
; -0.425045 0.060311 0.495415 0.186726 -0.214771 -0.162783 0.337138 -0.116972 0.25608 0.019598 -0.375135 0.191144 0.058844 -0.15446 0.068207 0.027418 -0.201074 0.00418 0.183435 -0.155888 0.348989 0.138496 0.109354 0.025591 -0.200501 0.626738 -0.126469 -0.379649 0.215292 0.105073 -0.285258 0.137839 0.149418 0.398077 -0.009443 -0.042816 0.094262 -0.612434 0.301569 -0.571007 0.332938 -0.623074 0.180029 0.541542 0.017266 0.193246 0.442542 0.053809 -0.057713 0.253165
º -0.130591 -0.293031 -0.139824 -0.249828 -0.21582 -0.040538 0.749166 0.377829 -0.039447 -0.010357 0.290499 -0.092308 0.258922 -0.240821 -0.251075 -0.068783 0.039697 0.269569 0.253946 0.531515 0.017033 -0.491412 -0.022385 0.345898 0.163932 0.696513 0.014515 -0.016961 -0.094733 0.125255 -1.107093 -0.171371 0.281795 0.10166 -0.217921 0.011768 0.024862 0.042238 -0.099962 0.299703 0.273703 -0.425952 -0.151332 -0.175325 -0.170561 -0.189304 0.316192 0.01799 -0.000102 0.048172
? -0.307058 -0.124093 0.114911 -0.391433 -0.202867 -0.065373 0.459076 0.115101 -0.11748 0.279003 -0.362318 0.320213 0.407989 0.224565 0.557824 -0.168228 -0.095152 0.188259 0.357196 0.443917 -0.529286 -0.446212 0.476498 0.236152 0.326038 0.388764 -0.206387 0.150353 1.013484 -0.303876 -1.040015 0.362709 -0.432283 0.554301 -0.308529 0.030697 0.148805 0.171872 0.385039 -0.098204 -0.066249 -0.535371 0.159669 0.388267 -0.232736 0.191095 0.332374 0.155645 0.285411 0.774867
ƒ -0.236328 -0.267618 -0.048789 -0.150956 -0.236192 -0.069249 0.60367 0.263301 -0.16628 0.152611 0.317651 0.060665 0.55966 -0.21157 -0.259908 0.015557 0.037915 0.295533 0.575653 0.442015 -0.225149 -0.364178 0.023928 0.451137 0.122573 0.853283 0.138433 -0.10726 -0.181149 0.129434 -0.833645 -0.341868 0.396268 -0.005335 -0.040125 0.272841 0.105757 -0.085594 -0.249273 0.157353 0.284057 -0.183742 -0.174687 -0.131438 -0.202 -0.036358 0.027036 -0.029542 0.004268 0.059479
» -0.274982 -0.327247 -0.22519 0.044268 -0.992968 -0.262062 0.671076 0.520506 -0.022286 0.281592 0.260062 0.01578 0.74577 -0.311303 -0.402922 -0.408257 -0.143754 0.506654 0.312436 0.599585 -0.27124 -0.673475 0.083701 0.344428 0.108628 0.637947 0.37969 0.168212 -0.218754 -0.415551 -0.998958 -0.152028 0.257088 0.033514 -0.428754 0.072581 -0.138877 -0.079348 0.259068 0.011199 0.264343 -0.472198 0.03768 -0.176211 -0.48432 -0.13503 0.361885 -0.107264 0.137398 -0.016679
Ã -0.170219 -0.292242 -0.121008 0.206931 -0.38332 -0.034879 0.571436 0.343908 -0.043262 0.114819 0.621092 -0.067603 0.469625 0.020008 -0.282534 0.232052 -0.08884 0.745875 0.044515 0.922755 -0.029908 -0.403633 0.096777 0.553095 0.216184 0.601906 0.355456 -0.110132 -0.090955 0.044243 -1.112397 0.196807 0.154178 0.398884 -0.221257 0.195993 -0.029862 0.037262 -0.251755 0.494451 0.303093 -0.301878 -0.366272 -0.058435 -0.152996 -0.064278 0.139183 0.270555 -0.065643 -0.132244
– -0.878628 0.778118 0.24051 -0.233938 -0.565208 -0.367089 0.858833 0.393861 -0.852141 -0.157792 0.144356 0.281172 0.829702 0.652232 0.642752 -0.348785 -0.187992 0.223576 0.301104 0.781064 -0.365042 -0.392543 0.116003 1.0888 0.440121 0.704656 -0.162164 -0.307905 0.700168 0.56121 -1.176455 -0.548052 -0.39955 0.525196 -0.421421 0.087511 0.183498 -0.573119 0.006581 -0.023543 0.919759 -0.382909 1.237378 -0.716234 0.258611 0.51682 0.514357 0.687255 0.540452 0.8028
ÿ -0.6518 0.614581 0.133537 -0.166734 0.170332 -1.301739 0.38316 0.075299 0.008931 0.01831 0.080952 0.172718 1.329886 -0.145118 0.501988 0.604404 -0.310793 0.431498 0.068996 1.218276 -0.207403 -0.101169 0.688673 1.519668 0.544466 0.601716 -0.150749 0.042575 0.242921 0.520527 -0.82369 -0.662075 0.051205 0.533605 0.332038 0.033877 0.085338 -0.494784 -0.747851 -0.140268 0.994984 -0.088004 0.088969 0.016091 -0.455292 0.509155 0.822102 0.746795 0.173421 0.409865
[ -0.07495 0.517351 0.694745 -0.249504 -0.234445 -0.355212 -0.06741 -0.09344 0.080035 0.036505 -0.408726 0.333718 0.274426 -0.05878 0.195635 -0.139475 -0.367475 -0.25261 0.15149 0.11424 0.202895 -0.349885 0.649465 0.461785 0.06979 -0.34454 -0.550455 -0.215861 0.187255 -0.345285 0.7163 -0.02995 -0.39849 -0.395805 -0.378345 -0.01646 0.56437 -0.591485 -0.11408 -0.351384 0.824595 -0.511295 -0.36668 0.382381 -0.27339 0.03583 0.108724 0.477235 0.270785 0.344405
_ -0.305418 0.540762 0.219758 0.241727 0.125014 -0.595234 0.416164 0.12968 0.18806 -0.126537 -0.416415 0.353071 0.175748 0.099187 0.287197 0.084693 -0.089416 -0.263297 0.461547 -0.079126 0.004342 -0.20905 0.029782 0.676556 0.206836 0.382833 -0.365051 0.015912 0.364221 -0.073262 -0.62905 0.253058 -0.209937 -0.033002 -0.208384 0.190361 0.146647 -0.33885 -0.15866 -0.277486 0.598887 -0.075773 -0.073082 0.376854 -0.233237 0.560777 0.51974 0.466234 0.397657 0.268474
‡ -1.013833 0.300157 -0.029484 -0.238946 -0.415746 -0.627849 0.955747 -0.34994 -0.212333 0.505372 -0.483103 -0.033619 1.11819 0.475282 0.646307 -0.323154 0.236639 0.252481 0.538781 0.986205 -0.793205 -0.12441 0.22121 1.549763 0.668438 1.008958 -0.078515 -0.396471 0.256245 0.284421 -1.122804 -0.24704 -0.230921 0.650501 -0.216827 0.302689 -0.034779 -0.486281 -0.314036 -0.193442 0.585274 0.104037 0.643477 0.211112 -0.158446 0.917424 0.832766 0.616893 0.505788 0.533621
c -0.061809 -0.288133 -0.102524 -0.046893 -0.215328 -0.040382 0.338105 0.148584 0.085361 0.196224 0.085338 0.065956 0.288495 0.09366 -0.227063 -0.084169 -0.058617 0.088698 0.35108 0.082116 -0.137078 -0.146346 -0.102882 0.107005 0.110934 0.590688 0.099572 0.074345 0.012052 0.052351 -0.720695 -0.091782 0.192674 0.068175 -0.07947 0.102927 -0.038484 -0.041222 -0.099654 0.088849 0.15336 -0.219973 -0.098984 0.154095 -0.003236 -0.121211 0.214666 0.136156 -0.007757 0.040086
‰ -1.380825 0.372781 0.097361 -0.203452 -0.766207 0.067814 1.277363 -0.071499 0.09733 -0.482067 0.10071 0.692272 0.683437 0.716062 -0.396065 0.003521 0.502378 0.397018 0.598144 0.524482 -0.433938 -0.61265 0.197743 0.465989 0.366058 0.649938 0.255023 0.273675 -0.498785 -0.030282 -0.71162 -0.187948 0.031083 0.569741 -0.855667 0.274449 0.580099 -0.595166 0.24249 -0.000968 0.505006 0.074072 -0.033988 -0.151058 -0.905645 -0.118129 0.229402 0.486936 0.846758 0.683302
g -0.109522 -0.314951 -0.099952 -0.062892 -0.218413 -0.055946 0.326179 0.202708 0.089785 0.173226 0.049753 0.026146 0.2548 0.055227 -0.240083 -0.075452 -0.038123 0.098048 0.358813 0.136595 -0.095298 -0.110907 -0.10358 0.084358 0.174826 0.54051 0.121324 0.086714 -0.003341 0.019541 -0.781448 -0.039916 0.231422 0.116464 -0.062257 0.116818 -0.069908 -0.004336 -0.107968 0.13258 0.091186 -0.17483 -0.125367 0.094696 0.033352 -0.159001 0.210667 0.103331 0.008803 -0.01215
Ë -1.314614 -0.3881 -0.006392 0.626975 -0.856574 -0.778863 1.105094 -0.333668 0.22453 -0.330995 -0.066598 -0.762447 1.45965 0.136468 -0.772908 -0.308336 -0.311815 0.999004 0.395948 0.123116 -0.640452 -0.973882 -0.575107 1.089834 0.39506 0.656788 -0.143678 -0.172003 -0.222873 -0.019701 -0.813751 -0.993228 -0.038362 0.00584 0.005004 0.170988 -0.0593 0.316086 0.151734 0.777152 0.704112 0.667156 0.335386 -0.475171 -0.480762 0.991526 0.784208 0.009635 0.539722 1.318618
k -0.229958 -0.313022 0.001217 0.002508 -0.19059 -0.074747 0.307048 0.258037 0.046899 0.101618 0.086808 0.01712 0.241393 0.059722 -0.241164 0.003726 0.004119 0.093705 0.392896 0.247729 -0.107677 -0.103192 -0.117328 0.087122 0.191333 0.599745 0.200489 0.077457 -0.064217 -0.015285 -1.004338 -0.08462 0.299202 0.212214 -0.059224 0.094845 -0.032958 -0.00276 -0.044391 0.21069 0.125842 -0.082231 -0.14904 -0.045301 0.048165 -0.136421 0.162539 0.108673 -0.041165 0.050289
Ï 0.00337 -0.309215 0.48936 -0.40922 -1.072385 -1.52465 1.6901 -0.3357 0.820235 -0.09254 0.477325 0.45438 0.735825 -0.565765 -0.613625 0.35114 0.042015 0.517835 0.833055 1.2164 -0.222575 -0.603315 -0.491555 -0.804605 -0.670335 -0.056565 1.012405 -0.69886 -1.55795 0.94443 -0.1579 -0.265727 -0.224445 1.4797 -0.82826 -0.00824 0.13492 0.11657 0.13015 -0.55913 0.747015 -0.13183 0.71409 0.87132 -1.30405 -1.1274 -0.047336 0.87739 -0.16931 -0.13089
o -0.088223 -0.27941 -0.087442 -0.045354 -0.212633 -0.062646 0.319716 0.188642 0.070748 0.210197 0.076388 0.038177 0.294648 0.085231 -0.229799 -0.085596 -0.043012 0.088968 0.357404 0.132155 -0.141023 -0.127697 -0.124645 0.096713 0.128738 0.598508 0.128248 0.086573 0.014826 0.039704 -0.803395 -0.090305 0.204346 0.109007 -0.054378 0.103472 -0.03503 -0.027419 -0.090085 0.121829 0.132244 -0.184751 -0.107345 0.097964 0.015468 -0.139785 0.197292 0.119088 0.001832 0.034961
s -0.082814 -0.297992 -0.069064 -0.114364 -0.223961 -0.039493 0.31344 0.179442 0.042612 0.18504 0.07005 0.060104 0.286238 0.110188 -0.225456 -0.068088 -0.030985 0.061916 0.355828 0.099704 -0.134518 -0.127445 -0.055915 0.102925 0.132356 0.582611 0.060876 0.061323 0.025242 0.018336 -0.755102 -0.009448 0.224308 0.1121 -0.047056 0.120027 -0.053128 -0.046464 -0.129791 0.133039 0.098726 -0.208233 -0.073669 0.165399 0.031518 -0.136238 0.179959 0.139799 -0.03693 -0.024538
w -0.208893 -0.220594 -0.022987 -0.036526 -0.23657 -0.120456 0.227247 0.161124 0.147423 0.072952 -0.045588 0.032421 0.259116 0.044489 -0.265673 0.022838 0.000838 0.096248 0.314685 0.157095 -0.047394 -0.066047 -0.116581 0.14804 0.161517 0.564684 0.132459 0.093184 0.006925 0.008744 -0.860838 -0.047403 0.276822 0.129525 -0.040558 0.069956 -0.042339 -0.080309 -0.08826 0.084162 0.136738 -0.183583 -0.120775 0.110808 0.04429 -0.041825 0.219535 0.102545 -0.025784 0.077242
{ -0.42855 1.0551 0.60421 0.53086 1.0873 -0.27428 1.0124 -0.27053 -0.68565 -0.41064 -0.68583 -0.044923 -0.36873 -0.33098 0.27742 -0.77139 -0.55224 0.40432 -0.67443 0.14401 -0.84078 -0.39425 1.9806 0.25795 -0.76139 0.3231 0.14664 0.5108 1.2996 -0.16187 1.8992 0.013185 -0.35427 1.3383 0.062622 -0.33935 -0.084399 -0.055773 1.0741 -0.16327 0.71859 -0.9531 -0.081052 0.46512 -0.48189 0.72531 0.6216 -0.075322 -0.13569 0.6105
Å -0.054001 0.004289 0.011579 -0.613572 -0.387797 -0.167289 0.216602 -0.224827 -0.293498 0.069368 0.308809 0.705921 1.084297 -0.05734 -0.324567 0.057647 0.277636 0.425541 0.275035 0.325384 -0.304897 -0.577097 0.140343 0.746343 0.157235 0.836083 -0.255456 -0.564793 -0.362312 0.31791 -0.245483 -0.541564 0.493663 -0.16159 0.020918 0.48202 0.535966 -0.565156 -0.629077 -0.106379 0.454427 -0.349679 -0.005307 0.289248 0.1178 0.140079 -0.397327 0.004642 0.23257 0.324382
Ö -0.488443 0.14515 -0.066944 0.130175 0.30278 0.03252 1.429248 0.34502 0.48571 -0.126344 0.036205 -0.323122 0.641547 -0.476016 -0.536802 0.102002 0.261199 0.333763 0.656849 0.50705 -0.142228 -0.229851 0.274232 0.548668 0.038056 0.822926 0.459743 0.20244 0.227398 0.203148 -0.64115 -0.479291 0.493958 0.084092 -0.164797 -0.17502 -0.325247 -0.161729 -0.023821 0.401652 0.415626 -0.183333 0.228182 -0.080973 -0.581278 0.286732 0.318322 0.165113 -0.235148 0.230471
â -0.444679 0.128241 0.666489 -0.227955 0.025108 -0.305254 1.586962 -0.234119 0.219069 -0.05419 0.159091 0.177061 0.451703 -0.001076 -0.178932 0.145934 0.495677 0.353198 0.421631 0.376247 -0.348296 -0.598349 0.165949 0.5122 0.103555 1.013096 0.591769 0.177638 0.353674 0.301388 -0.518046 -0.079588 0.373765 0.488111 -0.521483 0.313788 0.687129 -0.835352 -0.288215 0.300107 1.004731 -0.245093 0.090062 0.229522 -0.553285 -0.036905 0.326131 0.551164 -0.072765 0.38008
ç -0.305652 -0.329921 -0.103362 -0.106028 -0.374548 -0.162323 0.628733 0.353188 -0.277042 0.077767 0.309066 0.074431 0.353421 -0.017359 -0.335487 -0.025165 -0.115785 0.257213 0.484325 0.541549 -0.086823 -0.470493 -0.189552 0.293741 0.251674 0.774013 -0.042095 0.05478 -0.060549 -0.029791 -1.025035 -0.143733 0.361169 0.253288 -0.141661 0.180034 0.077448 -0.215953 -0.328734 0.257006 0.137672 -0.337205 -0.232921 -0.237824 -0.255563 -0.268834 0.285032 0.087723 0.083019 -0.055147
ë -0.271605 -0.320655 -0.120043 -0.08951 -0.259024 -0.181532 0.725083 0.363705 -0.389531 0.162255 0.223534 0.021639 0.437209 -0.334556 -0.093911 -0.061927 -0.123922 0.331571 0.615056 0.588429 -0.1409 -0.458761 -0.07819 0.235055 0.240076 0.872879 0.080539 -0.136486 -0.108699 0.019552 -1.109978 -0.258699 0.176514 0.312636 -0.027688 0.278103 0.094455 -0.038193 -0.186816 0.257975 0.214782 -0.282788 -0.280336 -0.300568 -0.079805 -0.209594 0.18491 -0.009739 0.091166 -0.039764
ï -0.507005 0.047926 0.176541 -0.400101 -0.646561 -0.69937 1.003891 -0.133133 -0.095475 0.238411 -0.091881 0.2684 0.829795 0.078745 0.076735 -0.165207 0.035183 0.525656 0.564701 0.821481 -0.483306 -0.368342 0.193312 0.713146 0.256074 0.879232 0.158368 -0.404672 -0.265714 0.26099 -0.878503 -0.153482 0.044975 0.677207 -0.264432 0.250854 0.195615 -0.432017 -0.188885 -0.075554 0.510503 -0.248474 0.262916 0.302914 -0.268624 0.042747 0.406209 0.346367 0.094194 0.476122
ô -0.30815 -0.128117 -0.209522 0.053493 -0.149655 -0.124416 0.967186 0.449458 0.296 0.0819 0.063975 -0.156061 0.483113 -0.316376 -0.472898 -0.072248 0.219384 0.265308 0.518907 0.394937 -0.076008 -0.258128 0.082973 0.364974 0.134623 0.773961 0.176905 0.070203 -0.014327 0.046915 -0.819487 -0.273947 0.389282 -0.075489 -0.270148 -0.06606 -0.199102 0.000654 0.057272 0.233479 0.198267 -0.354303 0.012451 -0.005764 -0.43154 0.087864 0.239546 -0.05046 -0.048578 0.117575
ù -0.424855 -0.028417 -0.121046 -0.225644 -0.201395 -0.444975 1.156734 0.076761 -0.013753 0.04069 0.046551 0.118378 0.529246 -0.050111 -0.275437 -0.351146 -0.192182 0.34423 0.567789 0.553491 -0.376458 -0.570106 0.195224 0.408818 0.293459 0.838202 -0.137126 -0.144289 0.097851 0.056996 -0.799937 -0.436225 0.063696 0.168376 -0.306782 0.086562 0.186517 -0.115647 -0.132655 0.375699 0.352195 -0.509704 0.177164 -0.255998 -0.009909 0.026238 0.336853 -0.185729 0.33806 0.602092
° -0.220912 -0.351922 -0.176556 -0.021934 -0.466759 -0.198502 0.531858 0.465706 -0.253236 0.265962 0.362671 0.015512 0.476257 -0.2612 -0.162478 -0.241122 -0.175782 0.220903 0.50639 0.455859 -0.334852 -0.423179 -0.041269 0.317482 0.202219 0.861829 0.088785 -0.083561 -0.114333 0.037072 -1.050448 -0.182203 0.070992 0.050712 -0.087518 0.159518 -0.021946 -0.012339 -0.037099 0.159763 0.154919 -0.277139 -0.235193 -0.287211 -0.324816 -0.186287 0.205911 -0.141337 0.225147 -0.017988
" 0.25769 0.45629 -0.76974 -0.37679 0.59272 -0.063527 0.20545 -0.57385 -0.29009 -0.13662 0.32728 1.4719 -0.73681 -0.12036 0.71354 -0.46098 0.65248 0.48887 -0.51558 0.039951 -0.34307 -0.014087 0.86488 0.3546 0.7999 -1.4995 -1.8153 0.41128 0.23921 -0.43139 3.6623 -0.79834 -0.54538 0.16943 -0.82017 -0.3461 0.69495 -1.2256 -0.17992 -0.057474 0.030498 -0.39543 -0.38515 -1.0002 0.087599 -0.31009 -0.34677 -0.31438 0.75004 0.97065
• -0.30085 -0.341808 -0.280881 -0.206208 -0.339381 -0.008924 0.556459 0.453343 -0.08752 0.200185 0.482492 -0.112409 0.446235 -0.140729 -0.166009 0.182739 0.027984 0.314535 0.391663 0.68378 -0.002566 -0.338442 0.06039 0.613935 0.093899 0.751658 0.086126 0.198994 -0.051971 -0.098627 -1.162623 0.012625 0.275037 0.371235 -0.048165 0.024385 0.165321 0.018204 -0.005194 0.200962 0.264164 -0.432771 -0.178807 -0.125121 -0.36588 -0.10163 0.246322 0.159683 0.102964 -0.105112
& -0.423849 -0.436683 0.130022 0.080904 -0.702191 -0.166636 0.093434 0.031654 0.08852 -0.126575 0.319398 0.188306 0.079274 0.117225 -0.610834 -0.047647 -0.30923 0.302941 0.258914 0.20407 0.171496 -0.4421 -0.353755 0.268191 -0.157889 0.723561 -0.004198 -0.150987 -0.145558 -0.103621 -0.764623 -0.113055 0.295165 0.361445 -0.219971 0.083146 0.045758 -0.361347 -0.219041 0.01719 0.49168 -0.727616 -0.109254 0.204109 -0.352763 -0.038326 0.244812 0.141744 -0.091271 -0.19062
© -0.083536 -0.208196 -0.448848 -0.270032 -0.581786 -0.314256 0.472764 0.413892 -0.0952 0.229422 0.369042 0.215163 0.288994 -0.132575 -0.290711 -0.457722 -0.057777 0.146059 0.27713 0.07843 -0.172559 -0.215711 -0.040326 0.235949 0.064161 0.912635 -0.136144 0.07721 -0.126992 0.263821 -1.006687 -0.18754 -0.032798 0.068046 -0.211098 -0.006776 0.003746 -0.050136 -0.07577 0.141879 0.39142 -0.446436 0.030641 -0.305956 -0.273567 -0.322628 0.130825 -0.128451 0.393566 0.079877
* -0.062495 0.456652 1.037445 0.694978 -0.444851 -0.630432 1.78262 0.438002 0.635777 -0.470373 -0.180918 0.206947 0.148619 0.913368 -0.353387 -0.135106 -0.443913 -0.007058 0.341172 0.377992 -0.871228 -0.188265 0.270334 0.226628 0.376431 0.367744 -0.377593 -0.200799 -0.051402 0.542485 -0.430645 0.193477 -0.21081 0.911052 -0.153917 -0.043471 0.76124 -1.143913 0.579975 -0.013923 0.153095 -0.116598 0.556863 -0.035465 0.106865 0.625347 0.902923 0.630182 0.547874 0.62311
≠ -0.191262 -0.27504 -0.2067 0.007449 -0.541848 -0.476816 0.529998 0.490316 -0.176209 0.416519 0.402583 0.129652 0.496311 -0.126007 -0.205098 -0.397043 -0.132569 0.217337 0.520483 0.426138 -0.42719 -0.391088 0.058896 0.357047 0.169192 0.90039 0.072202 -0.02009 -0.091058 0.040147 -0.962418 -0.255985 -0.007172 -0.007343 -0.21322 0.068052 -0.098709 -0.081216 -0.022972 0.197362 0.183183 -0.293688 -0.132096 -0.331299 -0.398144 -0.250066 0.200359 -0.133349 0.285003 0.091686
. -0.404011 -0.236007 0.461829 -0.089767 0.032507 -0.210703 0.380687 -0.186173 -0.259122 0.321891 -0.241119 -0.44032 0.763967 -0.186031 -0.020062 0.017312 -0.358873 -0.064259 -0.116736 0.359559 0.384799 0.201338 -0.087722 -0.329041 0.185488 0.869146 0.706775 -0.129741 0.180886 0.001363 -0.974708 0.185331 0.095489 0.48446 0.081439 -0.183131 0.034071 -0.110032 0.061364 -0.170975 0.258012 -0.318539 0.387604 0.253035 -0.263921 -0.159025 0.38545 0.158245 0.199897 -0.113478
± -0.106309 -0.257263 -0.303327 0.05156 -0.292525 -0.356983 0.638513 0.406896 -0.085821 0.397743 0.330576 -0.001287 0.541758 -0.215955 -0.217771 -0.317749 -0.107642 0.27963 0.503497 0.379141 -0.373739 -0.314 0.042298 0.27377 0.099281 0.905537 0.180984 0.077484 -0.092372 -0.005089 -0.95793 -0.23019 0.01014 0.064472 -0.097346 0.072093 -0.024418 -0.075953 -0.083232 0.278531 0.125921 -0.280093 -0.161031 -0.280777 -0.228243 -0.306802 0.11641 -0.116685 0.262545 0.09794
2 -0.247471 -0.273847 0.412594 -0.134487 -0.1282 -0.176189 0.434881 -0.025046 -0.138697 0.22786 -0.292286 -0.534126 0.612015 -0.026714 -0.01298 -0.139756 -0.339059 -0.027685 -0.105956 0.295954 0.147786 -0.017956 -0.013869 -0.167833 0.127592 0.948284 0.583223 -0.163949 0.145768 0.138979 -0.839428 0.20066 0.123147 0.477591 0.080167 -0.026497 0.107584 -0.046425 -0.055014 -0.103555 0.177106 -0.39282 0.262631 0.346636 -0.297617 2.4e-05 0.418883 0.189755 -0.014698 -0.152633
µ -0.671233 0.019654 -0.080997 -0.341461 -0.464406 -0.420339 0.706272 0.421114 -0.133578 0.009521 0.206004 0.045877 0.748113 -0.108206 -0.035849 -0.200962 0.023001 0.338534 0.498868 0.711302 -0.486307 -0.395947 0.054102 0.815917 0.441745 0.696142 0.147695 -0.025377 0.078102 0.173694 -0.970986 -0.288411 0.068388 0.281925 -0.296187 0.193407 0.086594 -0.319599 0.05974 0.1453 0.584335 -0.339833 0.181135 -0.196933 -0.162458 0.258313 0.443792 0.444692 0.23634 0.246833
6 -0.296907 -0.304524 0.436639 -0.164128 -0.072123 -0.15441 0.41973 0.014803 -0.197464 0.247847 -0.302512 -0.566711 0.702753 -0.055902 -0.041803 -0.146948 -0.372275 -0.043889 -0.101504 0.305243 0.191102 0.036428 -0.029265 -0.244113 0.158092 0.939208 0.65352 -0.163468 0.184421 0.113656 -0.912374 0.176553 0.09058 0.470773 0.089315 -0.053991 0.071861 -0.028305 -0.031573 -0.122459 0.188643 -0.397085 0.296204 0.32322 -0.310902 -0.035665 0.398262 0.167347 0.000791 -0.171886
π -0.498887 0.136695 -0.074082 -0.309022 -0.21944 -0.462935 0.86468 0.183723 -0.088151 0.107633 0.066569 0.28359 0.668038 -0.022265 -0.043258 -0.273549 -0.004432 0.325137 0.59266 0.444964 -0.318044 -0.377786 0.176598 0.671566 0.390887 0.920649 -0.090002 -0.164703 -0.043145 0.026428 -0.925743 -0.019487 0.144546 0.540635 -0.235403 0.079693 0.058255 -0.373178 -0.195021 0.122455 0.412113 -0.460346 0.143312 0.060102 -0.038371 -0.123944 0.403507 0.275024 0.228408 0.298419
: -0.294668 0.252489 0.205257 0.181927 0.021469 -0.660424 0.672419 0.345039 -0.54242 -0.219293 -0.54084 -0.303069 0.076663 0.522831 -0.065089 -0.182098 -0.237447 -0.148253 -0.278719 0.348291 0.182634 0.129211 0.154624 0.530695 0.30352 1.167778 0.505702 -0.187532 0.349645 0.390822 -0.555527 0.20379 0.111797 0.241903 -0.45782 0.087149 0.04637 -0.198365 0.682889 0.276003 0.629873 -0.515141 0.047353 0.675345 -0.084548 0.621955 0.980701 0.348789 0.155159 0.264305
Ω -0.768172 0.173332 0.13732 -0.181328 -0.41139 -0.228056 0.689187 0.1948 -0.333506 0.106629 0.00516 -0.049947 0.72518 0.130222 0.231581 -0.16055 0.148246 0.175568 0.560239 0.700377 -0.432811 -0.415161 0.035152 0.814312 0.498965 0.90183 0.118699 -0.129145 0.269901 0.037218 -1.084732 -0.379746 -0.005977 0.344091 -0.330172 0.259718 0.235915 -0.283169 -0.100456 0.171938 0.495022 -0.245703 0.287988 -0.250861 0.03116 0.306117 0.414348 0.298875 0.208469 0.295371
> -0.60885 1.0596 0.93257 0.47133 -0.22134 -0.001014 1.476 -0.8897 -0.84182 -0.18855 0.13302 0.61165 0.52111 -1.2008 0.010792 0.18241 0.059783 -0.006449 -0.57684 -0.078064 -0.78423 -1.2988 1.3044 0.9139 -0.12896 0.61352 -0.61954 -0.5856 0.21124 -0.15894 1.2726 0.55268 -0.13582 0.5202 0.63426 -0.13056 0.67863 -0.84515 1.0497 0.47853 0.83901 0.051798 0.071248 0.39189 -0.45218 0.44446 0.9738 0.028828 0.97097 0.59603
≈ -0.315011 -0.274324 -0.139382 0.033484 -0.115403 0.00305 0.90077 0.460085 0.121156 0.014093 0.230567 -0.213356 0.482585 -0.290625 -0.406696 0.069129 0.082581 0.284105 0.550035 0.538387 -0.089264 -0.373881 -0.050686 0.403858 0.158662 0.748797 0.180319 0.091154 -0.026669 0.024781 -0.969386 -0.249133 0.471175 0.028974 -0.158996 0.040683 -0.142436 -0.08784 -0.134907 0.310315 0.152403 -0.24291 -0.10384 -0.172725 -0.388031 0.004059 0.240578 0.040386 -0.098893 -0.013183
… -0.551142 0.115996 0.189207 -0.115056 -0.78682 -0.460165 0.824483 -0.050292 -0.037359 0.027709 0.232724 0.068199 0.581996 -0.389453 -0.456984 -0.019617 -0.019735 0.367893 0.891942 0.645494 -0.963341 0.085039 0.424643 0.578661 0.487286 1.313667 0.045646 0.107936 -0.160251 -0.126998 -0.615879 0.046259 0.587558 0.211793 -0.578799 0.313035 0.512233 -0.745592 0.352389 0.218836 0.738943 -0.426837 -0.250419 -0.116599 0.204908 -0.049812 0.217639 0.176348 0.092096 0.636646
— -0.950143 0.729308 0.189479 -0.225642 -0.637075 -0.442293 1.011617 0.336291 -0.497203 -0.308753 0.103023 0.375961 0.96779 0.567931 0.268714 -0.345199 0.033107 0.423967 0.387485 0.614072 -0.319242 -0.345262 0.134827 0.780411 0.453584 0.629474 -0.068123 -0.197491 0.275616 0.217669 -1.074299 -0.548528 -0.338105 0.489803 -0.612476 0.162686 0.23406 -0.664816 0.036606 -0.047865 0.973583 -0.443091 1.19153 -0.569166 0.247921 0.399858 0.423116 0.796538 0.330256 0.676304
Ÿ -0.837478 0.846998 0.157715 -0.382741 0.160772 -1.25722 0.548614 -0.11798 -0.140047 0.174598 0.259977 0.307301 1.371551 -0.019505 0.463592 0.414096 -0.620949 0.441593 0.001708 1.38822 -0.416347 -0.087368 1.044337 1.529521 0.508705 0.538736 -0.278051 -0.044926 0.363269 0.403937 -0.763485 -0.656943 -0.219887 0.696297 0.345845 0.11946 0.161482 -0.492631 -0.721851 0.040433 1.289036 -0.130694 0.206142 0.02321 -0.175645 0.521852 0.937962 0.750755 0.148964 0.332153
^ -0.42022 1.128 0.75598 0.96246 0.041526 -0.10654 0.76271 -0.47191 -0.35392 -0.25999 -0.27142 0.44903 -0.054534 -0.42509 -0.014297 -0.14909 -0.32741 0.011888 -0.093466 0.24008 -0.88197 -0.53251 1.4996 0.37609 -0.11412 1.1531 -0.26221 -0.063797 0.24082 0.081565 0.24716 -0.17293 -0.48877 1.1017 -0.16125 -0.8406 0.71055 -0.45152 0.53033 -0.096145 0.81459 -1.2253 -0.12003 0.34096 -0.14971 0.80952 0.1168 -0.053203 0.40627 0.88878
· -0.130701 -0.342421 -0.182506 -0.331648 -0.420018 -0.43584 0.870834 0.271348 -0.069824 0.031542 -0.037159 0.240199 0.661257 -0.233865 -0.279326 -0.147233 -0.083935 0.346734 0.713174 0.761552 -0.357943 -0.593967 0.194764 0.41027 0.191323 0.757496 0.104956 -0.158354 -0.192575 0.11478 -0.861635 -0.416846 0.308359 0.429474 -0.031106 0.296777 0.108135 -0.113389 -0.330221 0.18882 0.073576 -0.238433 -0.069861 -0.145543 0.121254 -0.173063 0.109111 -0.105691 0.196367 0.335241
b -0.124808 -0.308925 -0.062367 -0.056321 -0.206135 -0.069617 0.298989 0.192369 0.081564 0.160354 0.068767 0.032902 0.255753 0.047949 -0.239851 -0.032525 -0.006009 0.091885 0.362275 0.162026 -0.135157 -0.107507 -0.096886 0.111401 0.116658 0.592093 0.13648 0.101077 -0.02798 0.026425 -0.870542 -0.091612 0.237621 0.161336 -0.029009 0.0944 -0.033881 -0.024031 -0.06265 0.14121 0.134228 -0.143244 -0.129669 0.061567 0.018582 -0.128144 0.168544 0.093737 -0.006683 0.024481
Â -0.974492 -0.005538 0.269033 0.166041 -0.539773 -0.607359 1.226979 -0.553637 0.076356 0.07722 0.188192 -0.144667 0.993857 0.179086 -0.381704 0.022685 0.145802 1.115823 0.545295 0.42048 -0.36637 -0.624556 -0.739057 1.02892 0.115679 0.646552 0.193765 -0.494209 -0.313408 -0.151594 -0.738978 -0.343736 0.043531 0.472407 -0.070045 0.148513 0.096376 0.085732 0.064424 0.447436 0.781298 0.343935 0.651541 -0.079986 -0.660135 0.583399 0.495343 0.139865 0.190036 1.114027
f -0.108064 -0.303379 -0.064419 -0.098337 -0.194555 -0.032507 0.301291 0.153097 0.092022 0.183447 0.080169 0.062283 0.235455 0.128534 -0.21675 -0.07078 -0.036618 0.081922 0.32558 0.088467 -0.120742 -0.109957 -0.096504 0.078909 0.115319 0.575484 0.126286 0.084219 0.034249 0.070447 -0.751843 -0.04714 0.200202 0.127056 -0.064903 0.12119 -0.006366 -0.023658 -0.124778 0.089046 0.154071 -0.202983 -0.127119 0.142786 0.008787 -0.166179 0.202022 0.147558 -0.02011 0.045537
È -1.248757 -0.340747 0.120698 -0.073605 -0.628066 -0.563689 1.271916 -0.297441 0.206785 -0.448849 0.120509 0.004924 0.873746 0.080436 -0.44754 -0.115004 0.361378 0.572433 0.72663 0.510135 -0.301141 -0.362027 -0.195674 0.742036 0.431922 0.754593 0.070387 -0.354986 -0.397558 0.047352 -0.736065 -0.435839 0.016204 0.487363 -0.463179 0.300502 0.389178 -0.165478 0.005938 0.513161 0.690799 0.256031 0.665865 -0.487837 -0.379551 0.531828 0.110148 0.390629 0.657126 0.824312
j -0.234488 -0.307411 -0.014131 0.042696 -0.221855 -0.18531 0.375402 0.26024 0.042469 0.149525 0.123769 0.013426 0.234257 0.007391 -0.233471 -0.042897 -0.054685 0.074909 0.46071 0.302799 -0.192887 -0.078978 -0.061285 0.117423 0.169446 0.615588 0.196842 0.013268 -0.13755 0.022965 -0.985973 -0.083306 0.217881 0.25097 -0.039363 0.07337 -0.020515 -0.009358 -0.04543 0.259261 0.125717 -0.057839 -0.130429 -0.08574 0.044313 -0.153628 0.126383 0.065563 0.046442 0.033469
Ì -0.2329 -0.28264 0.45301 -0.30687 -0.89357 -1.7641 2.0869 -0.52583 0.67219 -0.3278 0.7725 0.50153 0.50306 -0.44088 -1.0328 0.41885 -0.17384 0.81782 1.2613 1.309 -0.26581 -0.65411 -0.77601 -0.90186 -0.7766 0.33899 1.149 -0.38442 -1.4324 1.0179 -0.17977 -0.064294 0.10158 1.5785 -0.95412 0.15106 0.12631 0.11358 0.077421 -0.17815 0.77042 -0.11854 0.63951 0.26074 -1.2166 -1.0643 -0.053917 0.77156 -0.16221 0.16132
n -0.099768 -0.299781 -0.104708 -0.057463 -0.209187 -0.03765 0.329843 0.20698 0.084108 0.185787 0.076846 0.029826 0.273323 0.053856 -0.243987 -0.074851 -0.03387 0.076728 0.36846 0.152157 -0.119472 -0.116813 -0.114533 0.08847 0.154342 0.560275 0.123977 0.070594 -0.008993 0.050012 -0.788548 -0.067385 0.221868 0.10196 -0.056951 0.096693 -0.051873 -0.016782 -0.111863 0.139557 0.108446 -0.172898 -0.123764 0.086084 0.006197 -0.152575 0.184012 0.120384 -0.000603 0.008223
r -0.089266 -0.305236 -0.08228 -0.083354 -0.204667 -0.037057 0.301281 0.191565 0.079312 0.175108 0.077731 0.047262 0.254562 0.071458 -0.229721 -0.07545 -0.025794 0.081955 0.347356 0.129245 -0.131256 -0.119783 -0.122116 0.099827 0.132939 0.575416 0.115422 0.075158 0.002701 0.052069 -0.802714 -0.086199 0.216004 0.124045 -0.043697 0.103656 -0.032419 -0.015904 -0.092634 0.120051 0.138036 -0.170905 -0.121304 0.087452 0.001449 -0.142958 0.190875 0.104483 -0.015073 0.032573
v -0.100712 -0.290925 -0.044342 -0.04314 -0.231766 -0.053839 0.36203 0.245945 0.009351 0.210768 0.1376 0.018073 0.267546 0.081761 -0.218991 -0.085709 -0.071213 0.086244 0.401368 0.177689 -0.162732 -0.125514 -0.117481 0.103299 0.149505 0.587225 0.157382 0.08127 0.009701 0.051551 -0.834507 -0.062294 0.205545 0.100885 -0.09163 0.094761 -0.028769 0.031423 -0.090649 0.152648 0.169845 -0.155488 -0.071386 0.005395 -0.049836 -0.115801 0.153708 0.130724 -0.002099 0.041915
z -0.148872 -0.341666 0.003254 0.007104 -0.168478 -0.105781 0.372134 0.240962 0.045054 0.196132 0.12222 0.016344 0.22243 0.01909 -0.188691 -0.072907 -0.028635 0.049961 0.489481 0.235141 -0.1963 -0.12263 -0.093582 0.073885 0.171989 0.614878 0.214229 0.056676 -0.053086 0.035175 -1.007542 -0.097902 0.245759 0.158564 -0.115176 0.072997 -0.077123 0.073262 -0.030215 0.267512 0.137685 -0.031069 -0.110975 -0.075261 0.049239 -0.157805 0.116814 0.083233 -0.009083 0.087894
~ -0.35974 0.94839 1.0537 -0.046985 0.41969 0.063421 1.3793 -0.94921 -0.3331 0.24266 0.31988 -0.25937 0.18134 -0.52812 0.5287 -0.083691 -0.14416 0.76036 -0.99198 0.017798 -0.13585 -0.24684 1.2516 0.18319 -0.14066 1.0662 -0.80727 -0.22267 0.38443 0.021641 1.4013 -0.24161 0.11391 0.90836 -0.13271 -1.0249 0.6464 -1.4115 0.85492 0.18411 0.070086 -0.76722 0.22164 -0.36053 -0.63142 0.18967 0.88215 -0.62171 -0.75066 0.84411
Ç -0.393936 -0.113124 -0.057553 0.241679 0.352453 0.21631 1.340328 0.50364 0.621483 -0.246418 0.041529 -0.522906 0.564629 -0.615412 -0.533888 0.240948 0.425083 0.27434 0.679492 0.406105 -0.035712 -0.204862 -0.013292 0.508026 0.118231 0.722865 0.415415 0.122609 0.073713 0.131276 -0.883214 -0.440867 0.633015 -0.218707 -0.227449 -0.225909 -0.484161 -0.040072 0.090375 0.47934 0.221738 -0.054745 0.185288 -0.031227 -0.661792 0.372288 0.262676 0.06179 -0.386782 0.10721
Ü -0.458402 0.27522 0.259668 -0.107111 -0.058275 -0.682766 0.695958 0.293512 0.01961 0.031863 0.315361 0.222324 0.988923 0.08457 0.051426 0.232267 0.000527 0.215877 0.291515 0.677031 -0.519675 -0.353954 0.611933 0.998095 0.463843 0.990714 0.136335 0.041621 0.070982 0.332275 -0.796353 -0.235328 0.02719 0.412264 0.017601 -0.008918 0.18837 -0.422359 -0.271568 0.010795 0.653192 -0.285723 -0.072027 0.150557 -0.653998 0.006412 0.629157 0.387241 0.272727 0.29786
ä -0.86414 0.536667 0.15462 -0.120018 -0.427207 -0.966895 0.97777 -0.342782 -0.033392 0.185983 0.281329 -0.037808 1.267408 -0.030279 -0.145504 -0.032372 -0.608075 0.729905 0.557627 0.655228 -0.628238 -0.378812 0.357223 1.224958 0.364633 0.673587 -0.436658 -0.11213 -0.025271 -0.14483 -0.630231 -0.552262 0.003205 0.487417 0.093617 0.460497 0.034128 -0.022472 -0.250045 0.430392 1.373457 0.196814 0.472218 -0.298539 0.264955 0.607115 0.877987 0.251261 0.070233 0.558085
é -0.95327 0.26273 0.062051 0.100046 -0.010852 -0.07601 1.166495 0.014972 0.000782 -0.788492 0.21528 0.62047 0.718722 0.432538 0.14038 -0.296679 -0.012847 0.376175 0.533519 0.210481 -0.52821 -0.541454 0.365053 0.381402 0.494512 1.159188 0.320494 -0.268066 -0.084838 0.414543 -0.97206 -0.427651 -0.088207 0.703055 -0.732047 0.288078 0.408555 -0.574073 -0.330792 0.196292 0.750157 -0.299705 0.431732 -0.41693 0.11805 0.308753 0.006088 0.370091 0.31905 0.61664
í 0.32973 0.359365 0.449232 -0.135475 0.343935 -1.21755 1.93925 -0.110385 -0.12265 0.32326 0.333415 0.869195 -0.424455 -0.391258 0.244488 -0.443949 0.431265 0.27116 0.502035 0.142656 -0.878865 -0.657595 0.665445 0.476995 0.18537 1.49395 -0.145655 0.34076 0.47348 -0.009958 -0.380265 -0.368752 -0.313735 0.26469 -0.955685 -0.375078 0.744964 -0.448075 0.0794 0.137445 1.0736 -1.175 -0.082 0.334425 -0.742705 -0.43722 0.58253 -0.10023 0.475425 1.03502
ñ -1.126057 0.392146 0.483441 -0.441196 -0.679698 -0.599737 1.172436 -0.209727 0.186594 0.007779 -0.024592 0.515815 0.857033 0.417402 0.038035 -0.325354 0.24495 0.208407 0.799243 0.594943 -0.030593 -0.241904 0.203285 0.468941 0.199234 0.700184 0.362242 -0.260962 -0.225817 -0.293325 -0.470034 0.328434 -0.220768 1.014731 -0.685214 0.203603 0.544044 -0.804977 0.221574 -0.03183 0.486379 -0.148431 0.838886 -0.213335 -0.228126 -0.193983 0.278379 1.130144 0.747001 0.691758
ö -0.607888 -0.17612 0.274043 -0.147612 -0.127005 -0.7566 1.206938 -0.636517 0.08997 0.23212 -0.01177 -0.243646 0.88295 -0.035744 -0.187514 0.035678 0.162058 0.712969 0.230904 0.628338 -0.213315 -0.142756 0.045467 0.709071 0.205494 1.166814 0.166404 -0.268238 -0.083195 0.187355 -0.970391 -0.26473 0.027741 0.558089 -0.157769 -0.162839 0.006261 -0.286908 0.160167 0.561801 0.313462 0.004883 0.439235 0.26814 -0.677465 0.281459 0.567096 0.109691 0.194208 0.498871
û -0.513191 0.158504 0.369757 -0.27065 -0.332632 -0.778641 1.524855 -0.235206 -0.260961 0.341957 0.101101 -0.076412 0.863705 0.246362 0.370735 -0.102395 0.208695 0.846398 0.470541 0.760174 -0.758329 -0.507075 0.290528 0.861865 0.511278 0.981362 -0.179233 -0.298151 0.291319 0.012815 -0.818849 -0.578706 -0.204735 0.560978 -0.52499 0.188579 0.030601 -0.150303 0.070921 0.215865 0.422204 -0.323129 0.701867 0.117357 -0.319228 0.120772 0.902146 0.047313 -0.110589 0.60238
! -0.288867 -0.138451 0.669311 -0.566531 0.036919 -0.557273 0.803617 -0.189258 -0.092754 0.647984 -0.21383 0.162766 0.233453 0.245408 0.418972 -0.129844 0.561978 0.98265 0.020891 0.226826 -0.293633 0.122063 0.313434 0.039992 1.020038 0.567297 -0.835363 0.405377 0.912307 -0.695655 -0.643863 0.445759 -0.400017 0.844098 -0.677297 0.167536 0.664248 -0.334673 0.243423 0.005588 0.344779 -0.655599 0.04916 -0.183792 -0.20416 0.016756 0.266737 0.31032 0.355164 0.716955
¢ -0.081958 -0.172311 -0.382753 -0.113966 -0.566677 -0.324389 0.72761 0.483324 0.099448 0.148099 0.197574 0.075109 0.567023 -0.228411 -0.324426 -0.319984 0.072458 0.331907 0.333343 0.47088 -0.231037 -0.535559 0.076609 0.346611 0.190849 0.748679 -0.062538 0.214352 -0.11715 -0.00787 -0.970226 -0.22814 0.114464 0.380136 -0.217961 0.058607 -0.097018 -0.084514 0.076199 0.207352 0.233902 -0.402888 -0.00116 -0.226832 -0.273142 -0.321806 0.325315 -0.084095 0.345861 -0.043619
% -0.9208 0.60392 1.1053 -0.39188 1.0204 2.1945 -0.49508 -1.9547 -1.0751 0.1454 1.2495 -1.4208 1.894 -1.3024 -0.1751 0.33084 -0.17029 0.169 -0.87306 0.22944 0.027846 0.33347 1.2866 0.23098 -0.12257 0.38349 0.24163 -0.67453 0.08332 0.76547 3.2612 0.62834 -0.016612 -0.12178 0.85848 -1.1687 -0.10173 0.070155 0.99368 0.029438 -0.065403 -0.50471 1.1739 -0.28263 -1.381 -0.43341 -0.58927 -0.19344 1.6497 -0.10516
¶ -0.053866 -0.308414 -0.202082 -0.272863 -0.214024 0.163237 0.420145 0.394638 0.110059 0.202171 0.286784 0.301876 0.289116 -0.208736 -0.231843 0.015602 -0.180251 0.075014 0.373808 0.579522 0.07674 -0.197868 -0.134994 0.222702 0.437859 0.553439 -0.077195 -0.119121 -0.028255 0.057669 -1.211997 -0.01532 0.32028 0.232374 0.009279 0.034485 0.139879 -0.095716 -0.20233 0.361485 0.172935 -0.23925 -0.301864 -0.079177 -0.284098 0.022245 0.119004 0.097975 0.101007 -0.145933
) -0.498963 0.565395 0.277349 0.227416 -0.295742 -0.515009 0.152527 0.225042 -0.587267 0.012287 -1.012573 0.166346 1.250075 -0.33763 -0.419569 -0.162668 -0.656994 -0.780009 0.499101 -0.093021 0.199666 0.17222 -0.187811 0.681422 0.503989 0.502949 0.433967 -0.211711 1.014554 -0.625678 -0.723189 0.043127 0.002593 -0.485804 -0.106208 -0.383844 0.201628 -0.678295 0.477891 0.476542 0.813446 0.033973 0.715497 0.803432 0.223928 0.73296 0.341887 0.129468 0.579395 0.898277
™ -0.096503 -0.261614 -0.37502 -0.219616 -0.707209 -0.647849 0.702715 0.433857 -0.024387 0.225982 0.036065 0.201741 0.393284 -0.157799 -0.274785 -0.41924 -0.007615 0.304145 0.541304 0.303183 -0.303616 -0.341893 0.084837 0.376658 0.083383 0.862732 -0.180492 0.169365 -0.096425 0.060591 -0.943097 -0.189538 -0.032502 0.393917 -0.144488 0.03499 0.060256 -0.119727 0.006819 0.131934 0.201076 -0.402869 0.018946 -0.219271 -0.287193 -0.358326 0.20051 -0.027842 0.505874 0.359142
- -0.254758 -0.246381 -0.047705 -0.138548 -0.260296 0.015244 0.312716 0.228626 0.160026 0.23339 -0.084594 -0.272702 0.416852 0.441778 -0.350473 -0.283851 -0.170426 0.036615 0.192248 0.199943 -0.059767 -0.223769 -0.247624 0.114218 0.047618 0.729276 0.225187 0.006915 0.175921 0.260036 -0.712564 -0.02064 0.097638 0.251847 0.017143 0.248398 0.054049 0.003061 -0.348988 -0.115118 0.147826 -0.468236 -0.147211 0.305095 -0.132602 -0.134547 0.424379 0.311747 0.006721 -0.059231
Æ -0.170053 -0.088594 -0.466279 -0.165722 -0.768176 -0.396894 0.849044 0.480935 0.001756 0.106017 0.149766 -0.105633 0.495677 -0.110164 -0.243297 -0.405101 0.147264 0.271403 0.16732 0.321406 -0.094788 -0.397432 -0.058847 0.636872 0.042917 0.74517 -0.26111 0.143368 -0.023888 0.118472 -1.020671 -0.277253 -0.089659 0.180344 -0.26222 -0.070767 0.115727 0.064982 0.058546 0.323167 0.655465 -0.283428 0.324972 -0.242418 -0.638997 -0.010031 0.260788 0.019931 0.392678 0.319225
1 -0.252868 -0.2828 0.313191 -0.228196 -0.238158 -0.225785 0.39519 0.027223 -0.268598 0.196731 -0.276335 -0.502617 0.579088 -0.029979 -0.029759 -0.148866 -0.396395 -0.022854 -0.170429 0.3672 0.183767 -0.022875 -0.023058 -0.170886 0.138108 0.869379 0.559376 -0.135864 0.128508 0.145141 -0.820711 0.155132 0.13136 0.419679 0.033242 -0.009567 0.103245 -0.044124 -0.064622 -0.061987 0.173545 -0.395678 0.220864 0.332504 -0.289175 -0.00467 0.451677 0.170848 -0.057859 -0.193091
≤ -0.397572 0.002989 -0.004378 0.049245 -0.407428 -0.501703 1.0597 0.069253 -0.297213 0.455152 0.058998 0.08142 0.881293 0.269607 0.241411 -0.110101 0.092507 0.41447 0.41785 0.695778 -0.480848 -0.613106 0.062057 0.88536 0.275482 0.840534 0.05219 -0.194087 0.079319 0.164645 -0.918116 -0.38392 -0.012317 0.34348 -0.08895 0.281406 0.040779 -0.240578 -0.197312 -0.104638 0.447089 -0.084784 0.340234 -0.109775 -0.131659 0.298899 0.517292 0.246617 0.368243 0.421628
5 -0.250893 -0.261232 0.417105 -0.173705 -0.028985 -0.150796 0.463117 0.039616 -0.144915 0.263897 -0.302035 -0.599819 0.684162 -0.045818 -0.025248 -0.144092 -0.335536 -0.035408 -0.114463 0.272432 0.223262 0.036615 -0.045828 -0.196483 0.106546 0.925054 0.650541 -0.156306 0.146881 0.133878 -0.869859 0.201634 0.07951 0.518018 0.076533 -0.088019 0.079051 -0.018247 -0.01304 -0.147314 0.229106 -0.381003 0.269385 0.33849 -0.300929 -0.062031 0.430861 0.176173 -0.033477 -0.149351
∂ -0.155958 -0.370082 -0.107445 -0.202638 -0.305066 0.106853 0.59085 0.429469 -0.10635 0.103183 0.431036 -0.079009 0.262869 -0.115194 -0.093494 0.038226 0.020671 0.202785 0.278101 0.510393 0.005824 -0.457157 -0.059197 0.391362 0.2323 0.763232 0.020648 -0.012184 -0.121832 0.094189 -1.157726 -0.105265 0.322112 0.18893 -0.230535 0.064833 0.109915 0.088116 -0.006075 0.222849 0.288062 -0.369313 -0.22387 -0.17958 -0.173872 -0.119335 0.312811 0.062378 0.008543 -0.04066
9 -0.375817 -0.301523 0.275594 -0.242097 -0.220167 -0.140354 0.377703 -0.029455 -0.326442 0.177862 -0.218437 -0.459087 0.691197 -0.089983 0.02485 -0.131482 -0.439329 0.007876 -0.123028 0.380468 0.163173 0.021116 0.034927 -0.262824 0.127029 0.890602 0.576011 -0.118298 0.181522 0.179062 -0.888613 0.179588 0.080223 0.399979 0.03897 0.013285 0.05682 -0.079523 -0.01819 -0.094489 0.117095 -0.351955 0.230691 0.285938 -0.369763 -0.067628 0.393357 0.155368 -0.023044 -0.195454
∫ -0.195994 -0.279117 -0.226777 -0.024552 -0.449667 -0.318926 0.722141 0.422878 0.000614 0.233326 0.204221 0.108483 0.529772 -0.215269 -0.205731 -0.272191 -0.1525 0.247803 0.628123 0.519124 -0.338952 -0.403809 0.062876 0.374791 0.202889 0.801073 0.148289 -0.029495 -0.103616 0.045347 -0.948958 -0.209868 0.135983 0.253925 -0.132386 0.092024 -0.082175 -0.128839 -0.088911 0.165985 0.131956 -0.266374 -0.068663 -0.267128 -0.164704 -0.221589 0.236016 -0.052606 0.257218 0.166155
= -1.046077 0.893568 0.626006 0.569726 0.089121 -0.023327 0.986317 -0.122988 -0.103374 0.274914 0.11042 0.386355 0.089393 -0.00887 -0.014415 -0.452883 0.280485 -0.491126 -0.142467 0.169683 -0.818458 -0.411302 0.623195 0.392227 -0.056223 1.377403 0.488404 -0.327168 0.295602 0.388602 0.130965 0.039928 0.140003 0.799043 -0.322267 -0.166003 0.701468 -1.113372 -0.060533 -0.085687 0.927157 -0.573841 -0.120346 0.110264 -0.012272 -0.085549 0.243647 0.158163 0.5236 0.610966
æ -0.488194 -0.205018 -0.097851 -0.061572 -0.356705 -0.094268 0.730176 0.388811 -0.169842 0.020429 0.318485 -0.265898 0.468831 -0.072977 -0.072986 -0.025045 0.003323 0.358949 0.584741 0.629631 -0.236776 -0.415241 -0.089926 0.562104 0.071411 0.885082 0.058305 0.046881 -0.033941 0.113217 -1.070837 -0.27838 0.196369 0.200076 -0.153111 0.228369 0.01958 -0.090584 0.010559 0.194103 0.251418 -0.278034 -0.013162 -0.371429 -0.365223 0.045169 0.272935 0.134128 0.064333 0.052255
¬ -0.427925 0.609152 0.480677 -0.233637 -0.252616 -0.187998 0.633688 -0.323597 -0.262689 0.106843 -0.124054 0.157443 0.234445 -0.188797 0.199091 -0.369529 -0.044675 0.47346 -0.079024 0.251867 -0.047692 -0.524041 0.744458 0.317851 -0.053726 0.602265 -0.01618 0.316496 0.299048 -0.013555 0.124255 0.115763 -0.297809 0.786569 -0.253788 -0.122119 0.344353 -0.405186 0.278018 -0.323778 0.586873 -0.728387 0.046806 -0.258177 -0.475501 0.029705 0.494461 0.229513 0.409514 0.258867
∆ -0.323477 -0.18572 -0.368744 -0.183826 -0.490814 -0.427578 1.099543 0.339299 -0.23622 0.218536 -0.064795 0.243622 0.367693 -0.287712 -0.418438 -0.339217 -0.333059 0.286202 1.092718 0.818001 -0.531257 -0.528344 0.089053 0.383934 -0.189933 0.793298 0.07604 0.01728 0.031753 -0.042022 -0.831741 -0.258632 0.262024 0.869885 -0.000678 0.162516 0.054307 -0.141152 -0.021987 0.389545 0.018287 -0.226097 -0.104844 -0.248602 0.062228 -0.384486 0.108021 -0.237993 0.289735 0.53167
  -0.166495 -0.087138 -0.182133 -0.141641 -0.221315 -0.248969 0.619891 0.393718 0.121276 0.287967 0.238933 0.299559 0.750603 -0.23409 -0.45319 -0.001976 -0.147476 0.048072 0.226729 0.679755 -0.144247 -0.301524 -0.132601 0.296975 0.346861 0.609111 -0.055364 -0.117084 -0.026625 0.013052 -1.185643 0.194793 0.456981 -0.171112 -0.253783 0.132139 0.259294 -0.412824 -0.18032 0.152407 0.399248 -0.233731 -0.322042 0.000604 -0.116025 0.156871 0.064914 0.026696 0.228304 0.161735
Œ -0.421031 0.316823 0.282367 -0.329742 0.179468 -0.331037 1.111118 -0.019481 -0.155122 0.206398 0.245786 0.276386 0.673466 0.107179 -0.148174 -0.185167 0.175598 0.114635 0.526051 0.289187 -0.514881 -0.58085 0.355564 0.587823 0.17782 1.145672 0.022034 -0.030191 0.056227 0.078624 -0.484473 0.235785 0.195226 0.276889 -0.388183 0.136712 0.304614 -0.733744 -0.117426 0.137564 0.594757 -0.530333 -0.034934 0.176935 -0.30387 -0.059343 0.339683 0.561541 0.217499 0.272364
⁄ 0.38614 0.004659 0.42103 0.38936 -0.096776 -1.1034 0.45355 1.2818 1.0904 -0.14649 -0.27181 -0.56918 1.0084 -0.48525 0.17953 0.83267 1.3994 1.2117 0.34578 0.275 -0.31395 -0.86657 -0.85971 1.4262 0.36851 0.38355 0.53922 1.108 -0.14053 0.16672 -1.105 -0.67809 0.72628 -0.56935 -0.38874 -0.62099 0.20124 -0.79035 -0.75328 -1.0193 -0.55059 -0.61036 -0.55899 0.57372 -1.7412 -1.1443 0.2228 0.46449 0.54033 0.86356
] -0.887498 0.664765 0.63891 -0.174147 -0.003229 -0.481434 0.35211 -0.057514 -0.346248 0.152399 0.033652 0.511759 0.543822 -0.300842 0.086471 -0.280888 -0.210018 -0.13283 0.489909 0.486402 -0.398548 -0.359883 0.985688 0.93632 0.467098 0.665858 -0.651006 -0.48132 0.482832 -0.34555 -0.215368 -0.236473 -0.166958 -0.560908 -0.696794 -0.014488 0.706344 -0.797924 -0.094294 -0.124468 1.115328 -1.22424 -0.316618 0.575921 0.022458 0.17492 0.23412 0.398394 0.358486 0.697956
a -0.101148 -0.310647 -0.096601 -0.00876 -0.210423 -0.108728 0.348707 0.223768 0.075731 0.180925 0.101738 0.029495 0.301712 0.032059 -0.25491 -0.063117 -0.044564 0.109051 0.401508 0.223067 -0.166936 -0.116074 -0.099653 0.11578 0.15472 0.594764 0.129492 0.073771 -0.058611 0.034083 -0.863447 -0.097165 0.213651 0.164478 -0.036425 0.092484 -0.046368 -0.0343 -0.086418 0.182126 0.103718 -0.143234 -0.131128 0.026621 0.00886 -0.148526 0.152231 0.092758 0.036486 0.006396
‚ -0.356231 0.107543 -0.1947 -0.357674 -0.242008 -0.311626 0.584606 0.131605 0.060335 0.227054 0.023054 0.352032 0.292518 -0.114906 -0.331155 -0.37373 0.039574 0.134798 0.320096 0.186631 -0.058232 -0.212949 0.217151 0.16755 0.259334 0.853764 -0.291698 -0.08241 0.141993 0.107122 -0.608041 -0.052512 0.048671 0.0399 -0.282116 0.10442 0.210325 -0.128649 -0.053851 0.07402 0.315196 -0.706353 -0.177856 0.107884 -0.241434 -0.12836 0.183196 -0.203169 0.37515 0.161288
e -0.081719 -0.293339 -0.078881 -0.106217 -0.197286 -0.016357 0.286946 0.190788 0.086809 0.182336 0.067023 0.047683 0.253729 0.086953 -0.212345 -0.065997 -0.029122 0.064093 0.353521 0.09743 -0.129331 -0.111388 -0.108195 0.091386 0.13712 0.560199 0.105536 0.094144 0.032141 0.053735 -0.774 -0.070371 0.21821 0.115201 -0.053462 0.095601 -0.032904 -0.002143 -0.105492 0.091135 0.135091 -0.193518 -0.105753 0.119668 0.007497 -0.148859 0.190799 0.110616 -0.025462 0.034644
Ê -1.411535 -0.205215 0.235985 0.38916 -0.652925 -0.590326 1.357586 -0.597739 0.269437 -0.308956 0.220491 -0.273969 0.949087 0.308113 -0.721378 -0.07747 0.062578 1.112747 0.495898 0.301727 -0.115402 -0.625633 -0.42655 0.607665 0.191784 0.475097 0.173509 -0.338073 -0.508208 0.162704 -0.798718 -0.672575 -0.251194 0.321148 -0.388314 -0.092178 0.15652 0.230555 0.130867 0.804437 0.735431 0.403454 0.569778 -0.417581 -0.691544 0.807835 0.145982 0.226163 0.414832 1.070925
i -0.081205 -0.312446 -0.108249 -0.063865 -0.199013 -0.039056 0.368699 0.184825 0.073101 0.223186 0.096261 0.0463 0.282113 0.082216 -0.231042 -0.08776 -0.054083 0.082958 0.398073 0.14761 -0.147656 -0.119478 -0.100834 0.087866 0.158877 0.57201 0.103894 0.068065 0.009621 0.064672 -0.776148 -0.066098 0.208372 0.105228 -0.07012 0.110477 -0.053774 -0.016736 -0.125848 0.148106 0.107112 -0.180589 -0.108395 0.111557 0.023068 -0.16429 0.182445 0.143128 0.016817 0.007189
m -0.107237 -0.289389 -0.05999 -0.040972 -0.203466 -0.076245 0.345838 0.173663 0.091691 0.186985 0.083176 0.038865 0.270626 0.067975 -0.23013 -0.049816 -0.038865 0.098471 0.365486 0.172796 -0.136336 -0.112232 -0.096964 0.097854 0.144916 0.602614 0.12681 0.060547 -0.032933 0.056804 -0.831857 -0.095891 0.201833 0.146911 -0.054068 0.091686 -0.013775 -0.041402 -0.095629 0.136812 0.136095 -0.177209 -0.13903 0.088698 0.016277 -0.140596 0.192403 0.117944 -0.005663 0.029772
q -0.102063 -0.250122 -0.080641 -0.006715 -0.250415 -0.242129 0.375218 0.189671 0.126711 0.211733 0.052893 -0.024794 0.28331 0.068414 -0.282635 -0.125984 -0.073069 0.079051 0.381546 0.192722 -0.214353 -0.135394 -0.059061 0.110712 0.065295 0.588144 0.059839 0.096883 -0.014436 0.079196 -0.764636 -0.077936 0.140292 0.242984 -0.034411 0.073654 -0.043004 -0.014178 -0.089355 0.191506 0.141925 -0.185999 -0.082198 0.115299 0.001582 -0.205667 0.168167 0.099163 0.102777 0.002973
u -0.096724 -0.313756 -0.086795 -0.068944 -0.214699 -0.091863 0.367664 0.218204 0.067057 0.193604 0.072509 0.031485 0.299539 0.053263 -0.240255 -0.085377 -0.035751 0.103101 0.376981 0.175942 -0.160317 -0.131854 -0.089827 0.089563 0.163329 0.577358 0.109132 0.093237 -0.008197 0.046746 -0.824507 -0.07305 0.212001 0.166257 -0.056248 0.10007 -0.042284 -0.025137 -0.107979 0.15178 0.104958 -0.16381 -0.109412 0.06532 0.010805 -0.160886 0.170881 0.110655 0.026806 0.012117
y -0.128188 -0.273865 -0.086344 -0.065877 -0.169548 -0.027959 0.319338 0.205172 0.093312 0.19473 0.049212 0.053317 0.278314 0.072299 -0.247118 -0.013199 -0.045801 0.085973 0.401257 0.17704 -0.134134 -0.080193 -0.091398 0.081407 0.190304 0.536932 0.136679 0.10564 0.010727 0.044986 -0.828384 -0.108043 0.270859 0.124243 -0.010382 0.093877 -0.041229 0.01057 -0.124334 0.122294 0.092502 -0.151974 -0.154202 0.102377 0.04959 -0.148806 0.185792 0.087359 -0.027177 0.048709
} -0.67074 0.69856 0.6963 0.64603 1.2521 -0.42427 1.2962 -0.54202 -0.6257 -0.16579 -0.33556 0.3589 -0.37966 -0.60904 -0.19598 -0.25519 -0.63929 0.13424 -0.32247 0.23696 -0.75892 -0.32055 1.8227 0.27236 -0.36709 0.4829 -0.47975 0.071622 0.90614 -0.20907 1.4331 -0.12763 -0.045574 1.1664 -0.11534 -0.90693 0.21285 -0.49289 0.62188 0.16538 0.79304 -1.2645 -0.15463 0.76799 -0.61665 0.67754 0.39161 0.080127 0.10094 0.92917
