Y 0.273228 -0.422742 0.154817 0.260701 -0.0980259 -0.211214 -0.231156 0.098635 -0.131988 -1.42048 0.296819 0.22757 -0.252008 0.0940139 0.410244 -0.00936539 -0.148364 -1.22507 -0.0715888 0.190617 -0.0474986 -0.00811667 0.151874 -0.207459 0.185884 -0.241934 0.0646508 -0.0804561 -0.350576 -0.167038 -0.176406 -0.251458 0.0530961 -0.0582113 0.0256001 -0.0259313 -0.116083 -0.180181 -0.20367 0.353221 -0.04055 -0.050299 -0.0643419 0.0721474 0.407083 -0.0401198 0.278609 -0.278877 0.0806762 0.0194924 0.0634396 0.203195 -0.236354 0.23058 0.244124 -0.128595 0.318992 -0.346135 0.144452 0.111959 0.0203324 -0.0920697 -0.02784 -0.244591 -0.235814 -0.0857435 0.0164883 0.232046 0.227745 0.327455 -0.234145 0.124084 -0.195631 0.143333 0.161519 -0.0406187 -0.0500657 0.122136 0.356215 0.118454 -0.052973 0.16521 -0.0978034 0.0218739 -0.043792 -0.00808348 0.134504 -0.390658 -0.185923 0.184677 -0.022055 0.258343 0.0428807 0.17899 0.31459 0.411182 -0.110507 0.0558556 -0.337112 0.303737 0.152914 0.0217701 0.0915914 0.257085 -0.0430308 -0.324902 0.355415 -0.383755 0.0627576 -0.190388 0.289252 0.503951 -0.233088 0.188738 -0.48517 -0.0186042 0.0823368 0.0816004 -0.413855 0.246505 -0.0231189 -0.245208 -0.271153 -0.108787 0.316908 -0.206091 -0.0120366 0.0809189 -0.200749 0.424878 -0.236625 -0.214531 -0.0475734 -0.336846 0.0342122 0.0583956 0.0113792 0.0769178 -0.251193 0.12541 0.687179 0.0137081 -0.597457 -0.0952685 0.107251 -0.123227 -0.0669034 0.242318 -0.0730358 0.0597045 -0.215383 0.0245305 -0.150468 -0.0867538 0.0959263 0.0703843 -0.121586 -0.164161 -0.284556 -0.315421 0.142587 -0.0225364 0.125262 0.244728 0.296504 0.408041 0.359443 0.101347 -0.271349 0.0857058 0.368655 0.120178 0.234716 -0.457739 0.0461327 -0.129045 -0.0542913 -0.00240597 -0.0724887 0.26331 0.0371053 -0.248734 0.291676 0.189193 0.350622 0.113569 0.270612 -0.159546 0.0740794 -0.0348403 -0.0285623 0.190564 0.189016 -0.383509 -0.194866 -0.343181 -0.267861 0.137215 0.25375 -0.124499 -0.212442 0.20516 -0.148211 -0.0995658 -0.180864 -0.190831 -0.102183 -0.13119 0.057651 -0.033103 0.230872 0.309492 0.223463 0.119195 0.0291206 -0.095621 0.0995805 -0.273427 0.635907 -0.138081 0.172763 -0.116124 0.396234 -0.18321 -0.0668051 -0.0485386 -0.124531 0.311041 0.00670644 -0.54513 -0.00816306 0.239874 -0.207607 0.033632 -0.107991 0.264811 -0.0704034 -0.0477904 -0.107728 -0.0193663 0.0852454 -0.203177 -0.028578 -0.213157 -0.127573 0.0607251 0.160836 0.0020042 0.498921 0.00023542 -0.230862 0.022167 0.208157 0.0619848 -0.420923 -0.28115 0.147011 0.352333 0.109307 -0.0120332 -0.0595355 -0.483835 -0.0979524 -0.199016 -0.0328546 0.409816 -0.176899 0.277985 -0.608111 -0.0534234 -0.373298 0.0209329 0.0348306 0.422153 -0.319657 -0.044642 -0.155511 0.137939 0.0625065 -0.352055 0.093155 0.123266 -0.130472 0.283717 0.366981 0.364897 -0.089326 0.421994 -0.188589 0.118493 0.052634 0.0584408 -0.058704 0.367522 0.0951249 -0.0683492 0.369782 0.425945 0.193593 0.117144
F 0.181323 -0.367586 -0.148974 0.375991 -0.215051 0.178336 -0.138499 0.142261 -0.067079 -1.40225 0.19917 -0.140868 -0.0680895 0.391228 0.0658926 -0.0469452 0.336706 -1.16456 0.21112 0.459673 -0.267089 0.330568 -0.0239733 -0.194562 -0.388915 0.0892586 0.0414792 0.00536835 -0.101822 -0.29286 0.294356 0.240755 0.0416797 0.562502 -0.16025 -0.181532 0.0268602 0.0196838 0.195483 0.209183 0.184133 0.0814405 0.0631857 -0.0645846 -0.145243 -0.0570184 -0.0978382 -0.0452697 -0.0667391 0.233832 0.105349 -0.192496 -0.0853219 -0.0780681 0.0412666 0.0694489 0.0284339 0.0949413 -0.199618 0.0314374 0.0775029 -0.0654383 0.25072 -0.160872 -0.227864 0.0563717 0.0509413 0.0423587 0.351777 -0.0516549 0.13023 0.323176 -0.24339 0.132728 -0.0799921 0.0907703 0.0294809 0.429692 -0.00796785 -0.0233581 -0.257795 -0.156829 0.315156 -0.0785808 0.113077 0.396254 0.210869 -0.178943 -0.195334 -0.284097 0.0736572 0.0215486 0.338907 0.00705367 -0.0072909 0.062359 -0.42757 -0.141137 0.0990627 0.0823325 0.246951 -0.100012 -0.30618 0.304015 -0.0565938 -0.433008 0.020035 0.00220028 -0.13709 -0.200128 -0.224856 0.505688 0.0603656 -0.0348 0.00544377 -0.0338275 -0.0553999 -0.418488 -0.17251 -0.0431284 -0.121547 0.0476458 -0.0646573 -0.243455 0.180263 0.043294 0.394464 -0.353441 -0.712364 -0.0278541 0.168713 0.26239 0.00867887 0.163803 -0.0363926 -0.0600287 0.165583 -0.194106 0.371136 -0.148312 0.8247 -0.163434 -0.135129 0.221028 -0.069187 0.0859742 0.145038 0.0886666 0.0423489 0.553174 -0.183502 0.13021 -0.541537 -0.110732 -0.0768015 -0.174304 0.026846 -0.0253052 0.249364 0.0387014 -0.244885 -0.205078 -0.243753 0.0392924 0.345237 -0.0180184 0.0705166 -0.0957096 -0.452082 0.0708159 -0.0662071 0.103197 0.36611 -0.284553 0.216056 -0.0898405 0.0951325 -0.193126 -0.282438 0.0958877 -0.423061 -0.399675 0.215833 0.217166 0.231153 0.0102401 0.0780364 -0.572914 -0.292117 -0.24198 0.248412 0.248546 0.15198 -0.224715 0.130453 -0.11615 0.518509 0.0482156 0.280805 -0.117515 -0.456057 0.248823 0.0977158 -0.400019 -0.436797 -0.198814 0.105937 0.143762 -0.102061 -0.175226 0.084777 0.28369 0.186698 0.388156 -0.489864 -0.0778559 0.332956 -0.298626 0.322938 0.0231202 0.258133 -0.228118 0.148529 -0.231907 -0.178156 -0.163201 -0.0771549 -0.0369046 0.169023 -0.317798 -0.0379572 -0.194294 -0.336058 -0.0766741 0.15639 0.224286 0.319952 0.391513 0.210015 -0.235164 -0.216288 0.0571171 -0.134543 -0.0566089 -0.356347 0.441687 0.677745 0.143942 0.0901494 0.384575 -0.0668695 -0.0237228 0.523496 -0.0480187 -0.0799666 -0.57392 0.231489 0.162003 0.240839 0.232023 -0.00315335 -0.274903 -0.267854 -0.491405 0.236686 0.291687 -0.199964 0.0247361 -0.168292 0.114465 0.0396258 0.0245444 0.114152 -0.0422695 0.326608 -0.164494 0.130011 0.118381 0.0291718 -0.343782 -0.409372 -0.0870623 -0.359361 -0.0439144 0.142527 -0.00225151 -0.153862 0.139819 -0.180387 -0.0523852 0.330726 0.066681 -0.213377 -0.0994795 -0.137158 -0.238802 0.186167 0.234342 -0.149586 0.144857
d 0.310747 -0.44868 -0.0329828 0.0726109 -0.245013 -0.0477348 -0.204277 -0.0935042 -0.301948 -1.05966 0.423052 -0.157565 -0.393087 0.168164 0.133573 -0.0629206 0.11583 -0.88163 0.11133 0.261091 -0.286368 -0.00900965 -0.0332385 0.0755033 -0.140738 0.195873 0.0576766 -0.00203578 -0.242814 0.00970358 0.0706169 -0.260157 -0.16393 0.392391 -0.0624398 0.045898 -0.0151932 -0.00439554 -0.0986426 -0.0058753 0.0323047 -0.12148 -0.10748 -0.152248 -0.226612 -0.0348708 0.0772131 -0.0294754 -0.127496 0.185589 -0.0987717 0.0694208 -0.211201 -0.0753198 0.188667 -0.0786474 -0.0466422 0.140784 -0.0468092 0.374348 0.0122764 0.213842 -0.138321 -0.243883 -0.131388 0.278086 0.161967 -0.00486763 0.19295 -0.263554 -0.173287 0.160025 0.156363 0.037995 -0.200558 -0.14354 -0.0869376 0.165327 -0.377298 -0.132603 0.00307677 0.341914 -0.0570274 0.166826 -0.192985 0.273916 0.507052 -0.189697 -0.13428 -0.146905 0.0406364 -0.100123 0.0472507 0.216457 0.0512523 0.247197 -0.163923 0.260139 0.134187 -0.261138 -0.0528301 0.0284441 -0.301843 -0.288677 0.0512213 -0.574883 -0.062616 -0.251912 -0.11505 -0.086121 -0.216858 0.0838613 -0.276335 -0.0951659 -0.0529009 -0.115543 0.238387 0.00126458 0.049965 0.11539 0.122164 -0.244289 0.494465 0.13329 -0.167354 0.105681 -0.262817 -0.0957617 -0.147051 -0.0364248 -0.226408 0.104683 -0.258925 -0.0095446 -0.0213353 0.172413 -0.0528476 -0.0330454 -0.00210296 0.0925915 0.581611 0.0425508 -0.0867017 -0.0848503 0.0698587 0.0204551 -0.0069625 -0.128983 -0.0588751 0.0557412 0.0379992 -0.167348 -0.0223765 -0.114001 -0.163836 0.0621159 0.13734 0.0617552 0.0785929 -0.0641132 0.0420851 -0.304912 -0.0686793 0.403008 0.380253 0.0177989 -0.198949 -0.137942 -0.0863217 -0.0250705 0.392232 0.206115 0.0373908 -0.0193032 0.430078 -0.0716589 0.00566746 -0.131178 0.00525156 0.0970093 0.0181935 0.15051 0.237209 -0.0234499 0.0768707 0.158005 0.154618 0.0297203 0.0253173 0.152486 -0.151936 0.154896 0.0714721 0.00312185 -0.145397 0.059032 0.250173 0.0826228 -0.000925642 -0.296564 -0.147557 -0.00521982 -0.152476 -0.408938 0.170446 0.0609772 -0.131439 -0.0170924 0.0668658 -0.114273 -0.334692 0.148019 0.0227256 -0.335542 -0.273106 -0.357082 -0.0608098 0.211511 0.446749 -0.260934 0.0222667 -0.193566 -0.0395365 -0.0770541 0.0701472 0.167402 -0.0462758 -0.00632992 -0.0372712 -0.20775 0.10972 -0.197092 -0.220778 -0.043986 0.246131 0.09289 -0.108045 0.134835 0.272614 -0.431581 -0.0452758 0.346961 -0.0589501 0.087473 -0.0784508 0.192649 -0.126677 0.181287 -0.0660731 -0.0672873 -0.116361 0.0135331 0.196174 0.0302408 -0.18344 -0.375504 0.109311 -0.207996 0.202513 -0.0492957 -0.0817318 -0.386245 0.212933 -0.318107 -0.0189547 0.347626 0.0495122 0.364924 -0.37391 0.0917515 0.0386651 -0.25786 0.126652 -0.0128122 -0.230514 -0.342933 -0.319793 0.0929755 0.065635 -0.151007 -0.298741 0.0166219 -0.0575868 -0.00364547 0.118965 0.189292 -0.124889 -0.139221 -0.189635 -0.128717 0.253115 -0.076136 0.279359 -0.099269 -0.152493 0.149547 0.0782452 0.120672 0.000842545 0.0811712
N 0.291162 -0.434375 -0.159023 0.0431449 0.0608876 -0.0681778 0.0574885 0.124014 0.118372 -1.53834 0.0394419 0.352695 -0.260658 0.144807 0.255774 0.0667157 0.0352363 -1.0723 0.256418 0.101353 -0.0421885 0.122527 0.382697 -0.160295 0.147506 -0.433422 -0.0120515 -0.137362 -0.236525 -0.280547 -0.377849 -0.0819744 -0.00586242 0.0341689 -0.223323 0.0333133 -0.0202481 0.108348 0.0684649 0.178722 -0.0215156 -0.020731 -0.0661728 -0.0501308 0.201164 -0.0478742 0.30908 -0.349134 0.120264 0.00455598 0.30031 -0.156712 -0.146365 -0.0570163 -0.0503674 -0.31976 0.160286 0.142628 0.0105524 0.0284411 -0.0195566 -0.0275931 0.149945 -0.137088 -0.0381461 -0.124939 -0.139683 0.00919464 0.173995 -0.210937 -0.163423 -0.0233239 -0.277483 0.13491 -0.191472 -0.124729 -0.142222 0.184082 0.130671 -0.0617805 -0.187586 -0.359046 0.526056 0.250677 -0.306261 0.141884 0.284869 -0.39031 -0.31073 -0.279179 0.353208 0.0139471 0.089162 0.0914678 0.0501654 0.200536 -0.197894 0.258342 -0.353805 0.13157 -0.13421 -0.0540475 0.219589 -0.0779111 -0.011755 -0.587861 -0.102423 -0.245534 -0.0588509 -0.147234 0.149792 0.521226 -0.0524632 0.117636 -0.165377 0.141436 -0.197225 0.232586 0.180565 -0.201874 -0.166906 0.285654 -0.283792 0.187573 0.771959 0.101722 -0.0613706 0.0248435 0.0440755 0.308562 0.0256607 -0.0278602 -0.0213169 -0.233052 -0.145142 -0.0330192 -0.126384 -0.0251949 -0.00964793 -0.00821233 0.8293 -0.274858 -0.285102 0.188512 -0.216319 0.0180407 0.0643702 0.168087 0.218436 -0.0515469 -0.0776239 -0.00258956 -0.231027 0.105495 0.512892 0.010876 -0.0334675 -0.103695 -0.178384 0.120396 -0.227364 0.182711 0.115871 0.146065 0.252217 0.308096 0.203467 0.236381 -0.335482 0.0678624 -0.0629316 -0.197874 0.12653 -0.166691 0.330352 -0.00793378 0.291569 -0.0940921 0.00165524 -0.14346 -0.0829446 0.0587277 0.185977 0.295283 0.150576 0.00303932 0.269033 -0.0670812 -0.180088 0.137305 0.105989 -0.0251134 0.173514 -0.259867 -0.267342 -0.362452 0.102807 0.0466502 0.0642642 -0.337775 -0.256883 0.594942 0.104548 -0.412148 -0.514193 -0.148129 -0.180429 0.232444 0.252006 0.0556433 -0.104041 0.102172 0.167452 0.430726 -0.0582295 -0.565095 0.158338 -0.639132 0.623486 -0.113585 0.0485054 0.1285 0.303607 -0.626568 -0.388428 -0.0769128 -0.256687 -0.106396 -0.0415676 -0.493662 0.0318051 0.223821 -0.211112 0.0576398 0.288672 0.193412 0.33897 0.479571 -0.141124 0.0531796 -0.392719 0.0105848 0.020579 -0.170809 -0.0417512 0.352848 0.310637 0.170361 0.277958 -0.0919218 0.186247 0.0697815 0.154752 0.353367 -0.184462 -0.682667 -0.155491 0.234775 0.303058 -0.179318 0.0548961 -0.368741 0.10187 -0.29855 0.00605175 0.0575984 -0.167996 0.084102 -0.474149 0.0911199 -0.155221 0.468497 0.23428 0.204 -0.0299161 0.160973 0.0295833 -0.148852 0.226158 -0.302427 0.0491835 0.0532429 -0.158008 0.286059 0.209788 0.041772 -0.280611 0.316821 -0.35961 0.266354 0.293807 0.216581 -0.157335 0.157873 0.251667 0.282693 0.180125 0.0183858 0.169941 -0.118326
h -0.0848431 0.017307 0.139856 0.0188464 0.0596625 0.0404492 0.0843878 0.0401977 -0.0985024 -1.09029 0.234606 -0.205409 0.0167189 0.0904394 0.160135 0.0908654 0.25951 -1.13698 0.229183 0.131217 -0.0378102 0.104924 0.165588 -0.0455657 0.0940705 -0.207252 -0.0193487 0.153966 -0.0748572 -0.0971516 -0.134483 0.152309 0.0283294 0.132933 0.115449 0.065234 -0.389216 -0.0325015 0.0687195 0.227219 -0.127155 -0.184226 -0.139525 -0.105099 -0.060117 0.177394 0.326303 -0.220676 -0.147018 -0.212714 0.249592 -0.0187719 -0.20875 0.0991355 0.162795 -0.169179 0.138711 -0.156155 0.115403 -0.0993323 -0.0681188 -0.00867739 -0.197525 -0.195517 -0.247656 -0.223062 -0.175775 0.142835 0.183997 -0.122817 0.0207219 -0.0298245 0.0117663 -0.223258 -0.211239 -0.145259 0.0216693 0.115714 -0.0796018 -0.112318 -0.205016 0.102048 -0.0247308 0.295517 0.0143273 -0.206388 0.345369 -0.0818194 0.0737111 -0.176476 0.0949429 -0.0819706 -0.0724808 0.117291 0.0436067 0.20508 -0.232135 -0.294552 0.0121482 0.117061 0.038599 -0.080102 0.18335 -0.0946851 -0.138236 -0.557917 -0.356254 -0.0717145 0.128939 -0.295788 -0.303856 0.152649 -0.0738029 0.240313 -0.0224459 -0.00522536 -0.0988153 -0.252719 0.170184 0.0594306 -0.118404 0.107689 0.0800964 -0.211241 0.0101998 0.127396 -0.188328 -0.11608 0.123558 0.256397 -0.143804 -0.0750244 -0.0146507 -0.0769556 -0.0144469 -0.276941 -0.0806881 0.198255 -0.127925 0.188163 0.305369 -0.0992978 -0.251211 -0.143815 0.119154 0.271036 -0.105534 -0.048232 -0.15347 0.0174681 -0.166296 -0.35813 -0.0993651 -0.0513359 -0.16963 0.374995 -0.197071 0.143677 -0.19378 -0.0469003 0.0999497 -0.224742 -0.133449 0.33118 0.245467 -0.151692 -0.341649 0.0889677 0.0203779 0.0876033 -0.177387 0.0156631 0.173758 0.265171 0.040758 0.0244446 -0.27798 0.0357489 -0.100153 -0.149604 0.0234321 -0.31643 0.0357498 0.238284 -0.0809626 0.320402 0.0133578 -0.0950565 0.0878523 -0.143599 -0.170329 0.0619175 -0.161156 -0.173654 0.0883531 0.093275 0.306083 -0.200483 0.242546 -0.187939 -0.138844 0.00543927 -0.107999 -0.00637482 -0.131853 -0.20622 -0.0697164 0.140669 0.0710982 0.177878 0.330671 0.413053 0.017722 0.00736801 -0.208601 -0.0547906 -0.0339169 0.0555393 0.424692 -0.100377 -0.0320376 -0.549688 0.208342 -0.143034 -0.263409 0.172606 -0.0399704 -0.161257 0.190202 -0.0256098 0.188929 -0.0356427 -0.0468415 0.0986588 -0.0795492 0.0909881 0.149836 0.0760706 -0.0169741 0.431255 -0.285753 -0.0497785 0.0478033 0.17501 0.167629 0.344791 -0.0649688 0.260288 0.343633 -0.282162 -0.0556395 -0.122838 0.0239263 0.134653 0.0647078 -0.11698 0.25931 0.245937 -0.147456 -0.035989 -0.0453901 -0.235197 0.123949 0.0248241 0.0915013 0.380343 -0.0884197 0.0185254 -0.304244 0.133838 -0.268333 -0.0335776 0.136866 -0.0190716 0.110309 0.0401033 0.104143 0.374047 0.387326 0.138867 0.0266917 -0.177873 -0.33706 -0.150794 -0.0277758 0.109722 0.146453 -0.00955451 -0.187048 -0.134294 -0.0335818 -0.00239388 0.214578 -0.0879511 0.135675 -0.0305191 0.00359222 0.424549 -0.114267 -0.0743754
( -0.119791 0.382355 0.25952 0.43219 0.468319 -0.313418 0.155052 -0.0817113 -0.527027 -0.739011 0.351818 -0.0584554 0.0525227 -0.587104 0.190188 -0.00837673 -0.441619 -0.441876 0.454568 -0.0573818 0.0111339 -0.197482 -0.254739 0.250299 0.0810474 -0.0605122 -0.272267 -0.0470318 0.432586 -0.214722 0.879473 -0.529346 0.330509 -0.161025 0.515246 0.597901 -0.306658 0.308806 0.406835 0.00478476 -0.653436 -0.290155 -0.331989 -0.0577573 -0.0978074 0.230244 0.176261 0.663062 0.183317 -0.178064 0.313562 0.0602862 0.38522 -0.181347 0.0327767 0.326124 -0.342104 -0.0300249 0.780757 0.116374 -0.556859 0.238482 -0.0193189 0.356989 0.111837 0.365366 0.330517 0.352086 0.161949 -0.205289 -0.212788 -0.588561 -0.285304 0.0368649 0.233813 0.2801 -0.391703 -0.239799 0.215013 -0.20892 -0.8787 0.000684961 -0.272538 0.129118 -0.0802772 -0.0300186 0.693988 -0.247973 -0.149908 -0.395601 -0.712466 -0.00360663 0.204092 -0.192205 -0.217227 0.471578 -0.49301 0.185188 -0.0867334 -0.0611491 0.597353 -0.376062 0.514454 0.15909 0.379221 0.687233 -0.140222 -0.308838 -0.501952 -0.243628 0.731345 -0.225746 0.211138 0.420457 0.240455 -0.106356 0.429128 -0.647395 0.248701 0.227947 -0.287646 0.405534 0.213051 -0.28702 -0.0716141 -0.20065 0.866678 0.242574 -0.129011 0.202272 0.0796565 -0.0294295 -0.074857 0.11178 -0.498464 0.328857 0.458095 -0.0627604 -0.672936 -0.514918 1.36779 0.369349 -0.539757 -0.0395167 0.340893 0.508462 0.359809 0.0480626 -0.505937 0.176492 0.445077 0.424388 0.240929 0.249747 -0.266346 -0.292798 0.368693 -0.435787 0.175265 0.169758 0.419586 -0.775416 0.421546 -0.119335 0.381623 -0.104179 0.310475 -0.495922 -0.551236 0.210597 -0.433805 0.463288 0.0787742 -0.329106 0.0371543 0.205698 -0.209837 0.110358 -0.647636 -0.0869918 0.099148 0.219955 0.713454 0.0647623 0.188638 0.455419 -0.222045 0.222953 0.327113 0.450796 0.373199 -0.362486 0.472844 0.225307 -0.464249 0.302946 0.295401 0.167513 -0.0624749 0.0349617 0.283787 0.745247 -0.160961 -0.227253 0.103414 0.239925 -0.0458566 0.150675 0.380158 0.0868739 -0.109897 0.0937 0.347593 0.0584865 0.146333 -0.0258466 0.252408 -0.103075 0.0426119 0.445023 0.5978 -0.155742 -0.0794989 0.14472 -0.376525 -0.631387 -0.421814 -0.078039 0.182369 -0.320238 0.195368 0.165584 0.348763 0.190159 -0.0617506 0.24317 0.276402 -0.310153 0.312058 0.194429 0.226145 -0.172845 -0.0586392 0.631761 0.286891 0.378206 0.158102 0.55505 0.296764 -0.0697635 0.0269051 -0.0724758 -0.183083 0.0402969 -0.042385 -0.030537 -0.0728777 -0.660672 0.112686 -0.115087 -0.032257 -0.0177665 0.123507 -0.348359 0.017253 0.237928 0.0800013 0.336666 -0.248342 0.34338 0.0124208 0.702465 0.336398 0.11534 -0.365504 0.451957 0.0146705 -0.213131 -0.699404 -0.802594 -0.0940069 0.13384 0.7176 0.244118 0.363004 0.555909 -0.289843 -0.181629 -0.218274 0.0165136 0.216479 0.107973 -0.0626752 0.534279 -0.194956 0.00213291 -0.139514 -0.271164 0.0454798 0.16489
C 0.104529 -0.499499 -0.101365 0.249708 -0.302233 -0.230812 -0.204295 0.325053 0.196708 -1.43584 -0.0281441 -0.330715 -0.183479 0.281321 0.442991 0.172545 0.126539 -0.925755 -0.213739 0.192825 0.0343265 0.131452 0.045316 -0.0555473 -0.278014 -0.238927 0.107795 0.104435 -0.310393 -0.13519 0.0211487 -0.207075 0.30901 0.0187082 -0.354474 -0.0897501 0.287291 0.152778 0.229046 0.169018 0.226612 0.0904842 0.281208 0.149708 0.0882055 0.151563 0.393114 -0.296989 0.134902 0.0903278 0.0610515 -0.272079 0.260104 -0.426797 -0.421921 -0.0879703 -0.074838 0.000781038 -0.423464 -0.155029 0.0931217 0.428017 0.00684994 -0.314712 0.00348289 0.287156 -0.301483 -0.107188 -0.0709538 0.0323598 -0.144677 -0.192929 0.0564781 -0.0489195 -0.0420762 0.169248 -0.0943203 -0.258494 -0.0680419 -0.253731 0.192449 -0.157134 0.234435 0.0611296 0.257587 0.168178 -0.000937229 -0.000458296 -0.184508 0.0400291 0.0710508 0.333685 -0.0640883 0.0168858 -0.0256965 0.300205 -0.206786 0.14823 0.330721 0.278623 0.107694 -0.429321 0.434568 0.23178 -0.0347311 0.0262713 0.180078 -0.0967114 -0.146707 -0.00161506 0.110746 0.36212 -0.00216274 -0.124427 0.198187 0.24308 -0.169742 0.172904 -0.141628 0.324096 0.158044 -0.203695 0.00686652 0.395408 0.00812475 -0.157453 -0.253685 -0.0990791 0.175668 -0.164812 -0.0161288 0.257288 0.236052 0.0203023 0.153222 -0.176527 -0.155114 0.106282 0.0204477 0.326602 1.00996 -0.161701 -0.510595 0.315333 0.190599 -0.19756 -0.178716 0.200927 0.126715 0.151698 0.0330538 -0.127949 0.0326833 -0.0452144 0.297305 0.268583 0.0927043 -0.141159 0.0916962 -0.090985 0.100481 0.124392 -0.558836 0.410965 0.272786 -0.105459 -0.129866 0.0538817 0.0109357 -0.178974 0.160185 0.0459471 0.153922 0.144296 -0.00769301 0.17453 -0.127239 0.115094 -0.14912 0.185853 -0.172761 -0.00848869 0.0664989 -0.134192 0.366453 -0.182316 -0.0387801 -0.164209 0.00826278 -0.216339 0.0751804 -0.10853 0.115928 0.100658 0.216865 -0.310641 0.0249478 0.130916 0.201386 -0.345993 0.160404 -0.168595 -0.0191108 0.0494793 -0.0176767 -0.20612 0.268856 0.274747 0.00171549 -0.0111615 0.362377 0.358881 -0.045115 0.436297 0.00215962 0.323697 0.259329 -0.0256014 0.249949 -0.277699 0.107982 -0.320845 0.187207 -0.287791 -0.256507 -0.30245 -0.0361469 -0.245431 0.110415 0.0797096 -0.093044 0.212366 -0.31017 0.00747907 0.0521479 -0.112994 -0.200453 -0.307107 0.158906 0.0877512 0.11433 -0.215067 -0.362569 -0.566129 0.0605334 0.0579411 0.227887 0.0233977 -0.0817505 -0.0302019 0.11261 -0.0670169 -0.133973 0.0765426 -0.182122 -0.494934 -0.504888 0.151669 0.123028 0.129836 0.0576558 -0.134731 0.029875 0.215492 0.221011 0.115664 -0.0925476 0.0672608 -0.271553 -0.0238374 -0.136095 0.0885542 0.28089 0.843096 -0.233882 -0.0219055 0.239463 -0.0650395 -0.207089 -0.365492 -0.0191953 -0.267408 0.179106 0.0903489 0.190157 0.085251 -0.174573 0.0602912 0.263265 0.206227 0.189496 0.00586508 -0.085171 -0.159938 0.0263642 0.0858499 0.165632 -0.0283224 -0.397412 -0.152784
w 0.080462 -0.27895 0.0540439 0.16825 -0.00467234 0.329568 -0.334676 0.141931 -0.0376278 -1.15158 0.351833 0.158013 -0.224549 -0.212966 -0.065163 0.388275 0.0641221 -1.0257 0.378002 0.332516 -0.0793868 0.151713 0.0722797 0.141198 -0.0120409 -0.175442 0.355352 -0.0814845 0.0560412 0.252353 0.17477 0.0839922 -0.369649 -0.0660003 0.138335 0.457176 0.0383137 0.186554 -0.0397989 0.259961 -0.199511 -0.386079 -0.323403 -0.341352 -0.251878 -0.0820714 -0.215542 -0.242044 0.0298891 -0.408106 0.0914545 -0.108216 -0.0352354 -0.147464 0.229985 -0.29873 -0.141143 -0.00857065 -0.0127224 0.0127167 0.0190959 0.183047 0.21058 -0.274666 -0.216646 0.149038 -0.131566 -0.230056 -0.253619 -0.0740131 0.48404 -0.0489327 0.0282178 0.136983 -0.421658 -0.0563245 0.0717079 0.142186 0.424685 0.125516 0.159703 -0.15536 0.0137287 -0.481032 -0.160039 0.0200449 0.144657 0.0236088 -0.195285 -0.237591 -0.406834 -0.39062 0.00818486 0.483773 -0.185161 0.422347 0.235952 0.194638 -0.463959 0.00355097 -0.364165 -0.0120644 0.00726419 -0.0266209 -0.0421238 -0.667453 -0.0326631 -0.0911894 0.0285282 0.144872 0.254112 0.131786 -0.0069265 0.279637 0.271879 0.19703 0.272929 -0.256185 0.0813347 -0.205874 -0.101426 0.09858 -0.792751 0.123377 0.330976 0.472596 -0.114672 -0.281835 0.433456 0.040491 -0.170504 -0.143683 0.0345587 -0.0564094 -0.465801 -0.380846 0.0233508 0.248865 -0.253039 -0.0854827 0.45343 -0.13529 -0.322548 0.043437 0.212573 0.18411 0.00915548 -0.138555 0.00798763 0.249048 -0.210736 -0.161724 0.0110964 0.271589 0.209874 0.232086 -0.141307 0.0932497 0.0653888 -0.105908 0.336344 0.0557949 -0.146461 0.570249 0.0425334 0.269043 -0.0326435 0.126546 -0.251663 -0.157405 -0.0480258 0.133485 0.349035 0.0583535 0.245651 0.229401 -0.094013 0.0845842 -0.0598052 0.0915827 0.544094 -0.195954 0.0275714 0.0512827 0.276577 0.0359066 0.260201 0.165776 -0.0577644 -0.195566 0.448359 0.0475095 -0.141685 -0.14414 0.0744765 0.00742196 0.563149 -0.010441 0.524941 -0.397889 0.155172 0.153962 -0.016299 -0.0419035 -0.155229 0.190934 -0.073668 -0.362059 0.0506704 0.213541 0.0245081 0.0195633 -0.350161 0.134588 -0.20949 -0.289873 0.0776259 -0.0297693 0.522498 -0.00711947 0.303874 -0.194156 0.624839 -0.105166 0.0978151 -0.41697 -0.546274 -0.309738 -0.696781 -0.0441633 0.388152 0.0793086 0.276932 0.257909 -0.00547571 -0.0516638 -0.146795 -0.00140719 -0.00642293 -0.281703 -0.0631174 -0.00921594 -0.0904589 0.00450081 -0.0197805 0.0845185 0.13872 -0.14846 0.233767 0.152852 0.114338 -0.041954 0.14183 0.317408 -0.0526166 -0.540794 0.198553 0.185326 -0.446657 -0.343905 -0.304159 -0.457655 0.282179 -0.313206 -0.0219551 0.261842 0.0777195 0.518244 -0.432062 0.48882 -0.213237 0.258039 0.374257 0.0020955 -0.0535176 0.637484 -0.0227007 -0.288724 0.131724 -0.019195 -0.336784 -0.0147015 -0.313986 0.0412132 0.0163124 -0.094883 -0.406405 0.238946 -0.0636179 -0.0486814 0.400838 -0.320107 0.0577636 0.416607 -0.0225134 0.168611 -0.114196 0.285438 0.680982 0.0578169
@ 0.262143 0.133472 -0.0641865 0.383067 -0.521202 0.167345 0.0637421 -0.0931714 0.0292438 -1.48791 0.450746 0.0376681 0.077662 0.0531474 0.0674171 0.113466 -0.347786 -1.06909 0.498755 0.369015 -0.117828 0.638249 0.34868 0.163581 -0.671628 0.0678928 0.289059 0.636817 -0.408794 0.223949 0.188235 0.106118 0.296239 -0.0780114 -0.645171 0.549131 0.385608 0.433482 0.186782 -0.0587083 0.254782 -0.205901 -0.157322 -0.208023 0.11746 0.0577404 -0.493199 0.516632 -0.269724 0.427691 0.337406 0.506558 -0.0607667 -0.699861 -0.0546214 -0.576627 -0.225592 0.5117 0.203733 0.325741 -0.676534 -0.196703 0.0302698 -0.543207 -0.271937 0.575118 -0.0421009 0.43254 -0.00470676 0.067526 -0.308156 -0.541006 0.214319 0.0262785 -0.069384 0.0875097 0.222876 0.0607303 -0.12595 -0.0735647 -0.167105 0.57622 0.217527 0.176789 0.252364 0.44113 0.826337 -0.51289 -0.229663 -0.0551073 -0.00657224 -0.252078 0.203509 0.176367 0.121104 0.580646 -0.439911 -0.0667412 0.366073 0.0481318 0.316321 -0.843073 0.393659 0.232677 0.347384 -0.174851 -0.223883 -0.617592 -0.881955 -0.152622 -0.0287924 -0.19548 0.0975083 -0.112443 -0.275168 0.313272 -0.0156642 -0.551268 0.0590966 0.2341 -0.131731 -0.446478 0.396437 -0.422955 0.228501 0.0697329 0.26625 -0.481036 -0.412403 -0.0388883 -0.0580702 -0.151809 0.145139 0.142076 -0.494072 0.788964 0.159049 -0.0343841 -0.496635 -0.0768709 0.806367 -0.0459761 -0.692576 0.0596648 -0.17751 -0.0486082 0.0750244 0.555455 -0.422618 0.377964 0.123492 0.14469 -0.571739 -0.0345595 0.431892 -0.435933 0.456143 -0.674936 0.523316 0.241042 -0.140615 -0.262913 -0.145046 0.159824 0.269312 0.562013 0.1346 -0.20493 0.186545 0.11893 -0.068259 0.351049 -0.0538834 -0.427696 0.343799 -0.251969 0.432942 -0.295278 -0.32193 -0.542718 -0.377264 0.181297 0.143055 -0.52514 0.362105 0.126207 0.22596 -0.320487 -0.167436 0.375328 0.402789 -0.171994 -0.265706 -0.312388 -0.0732068 -0.334627 0.2278 0.154792 0.00128008 -0.377921 -0.120236 0.263855 0.425794 -0.287422 0.0133159 0.293385 0.627825 -0.252256 0.18171 -0.77024 0.414855 -0.0423567 0.458814 0.27995 -0.403112 -0.395886 0.221607 -0.00272782 0.548491 -0.12932 0.192997 0.458074 -0.0273301 0.0198513 -0.10535 -0.264669 -0.427422 -0.0130167 -0.215952 -0.643721 0.333583 -0.164256 -0.331009 -0.480113 -0.28728 0.76616 0.052931 0.0460101 0.333633 -0.150978 0.218884 0.0465193 -0.259601 -0.191138 0.0512207 0.232414 0.257016 0.449695 0.415205 0.309435 0.326904 0.104064 -0.293994 0.39932 -0.737983 -0.396011 -0.0536592 0.336765 0.0628734 -0.260792 0.0363209 0.152232 0.0157426 -0.799544 -0.393341 0.193838 0.116278 0.434076 -0.0706146 0.252151 -0.145674 -0.173547 -0.220114 0.309574 -0.185103 -0.160037 0.244182 0.0491335 -0.441975 -0.392329 -0.667213 -0.24806 -0.0940022 0.141814 -0.00802829 0.222155 -0.120608 -0.111514 0.0880323 0.542227 0.763857 -0.0725129 -0.193937 0.26024 -0.045939 -0.605646 0.479827 -0.0754609 -0.535565 -0.568861
V 0.245919 -0.320166 0.0205741 0.180891 -0.0441605 -0.143596 0.0779463 -0.0449221 -0.071371 -1.5764 0.684404 0.0316094 0.105152 0.0872989 -0.200637 -0.09389 0.0774146 -1.04285 0.696436 0.204459 -0.412257 0.246522 0.215724 -0.103442 0.0129654 -0.104499 0.158164 -0.206245 -0.0323946 0.0684775 0.020129 -0.00767796 -0.651574 -0.121639 -0.593437 0.138754 0.291396 -0.0425329 -0.295572 0.0270716 0.0132434 0.0751237 -0.488149 -0.36737 -0.221726 0.205319 0.236698 -0.129335 0.0237288 0.00436258 -0.0787689 -0.141183 -0.470544 -0.10125 0.0686254 -0.164531 -0.0807896 -0.0519911 -0.0754322 -0.0710197 -0.0446063 0.105891 0.404221 -0.346213 0.0864488 -0.315353 0.0213912 0.26242 -0.0666462 -0.212046 -0.288138 0.0801184 -0.159696 0.272995 -0.437378 -0.156401 -0.114738 0.145729 -0.103551 0.307774 0.0875685 -0.250371 0.240718 0.177815 0.100077 0.254017 0.338944 -0.18444 -0.22084 -0.246379 -0.132216 0.0405981 0.420131 0.0785066 -0.26368 0.0212599 0.103008 0.147887 -0.306547 -0.0847221 -0.194703 -0.262272 0.273869 -0.237433 -0.119066 -0.20533 -0.26065 -0.365926 -0.180957 -0.174053 0.127324 0.254582 0.289331 -0.203764 -0.162176 -0.211725 -0.164347 0.233672 0.0706434 -0.017202 0.0667045 0.308203 0.0827453 0.277889 0.228671 0.219239 -0.403581 0.161269 0.171506 0.250107 0.375442 -0.00819566 0.0158243 -0.3419 -0.551042 -0.159874 0.0873052 0.316495 -0.0228277 -0.0180818 0.831678 0.141959 -0.626459 0.307685 -0.078549 0.182401 -0.0811347 -0.173733 0.377956 -0.165865 -0.190025 0.0878009 0.19258 -0.175705 -0.00355483 -0.132578 0.0430053 0.0467484 0.136126 0.00714257 -0.358038 -0.0654741 0.103618 0.2087 0.379059 0.363807 0.086672 0.196966 -0.148177 -0.0264437 -0.351329 -0.422428 -0.123929 -0.0172738 0.436135 -0.0404488 0.187981 0.237988 0.0953504 0.00465118 0.116239 -0.0509639 -0.173573 -0.0293315 0.374322 -0.120858 0.064547 0.00173857 -0.516107 -0.14313 0.538661 -0.00652814 0.238128 -0.377225 -0.214811 -0.282933 0.155704 0.0123677 -0.106074 -0.181935 -0.10216 0.123261 -0.115749 -0.257129 -0.530342 -0.37838 0.216337 0.148413 0.0510395 -0.0418015 0.320258 0.138423 0.0819376 0.322444 0.135069 -0.538372 0.252987 -0.47802 0.632854 -0.253318 0.0340616 -0.0280023 0.130631 -0.695317 -0.00088077 -0.0888097 -0.065702 -0.204696 -0.109588 -0.224383 0.441924 0.0579164 0.0721374 0.219958 0.243619 0.254548 0.170365 0.054459 -0.139293 0.0527887 -0.353024 -0.236489 -0.103401 -0.389203 -0.199709 0.268656 0.117061 0.0243571 -0.15482 0.0079878 0.127698 -0.145826 0.360273 -0.163582 -0.416697 -0.795819 0.136266 0.335542 0.090458 -0.452383 0.0358812 -0.564106 0.260161 -0.225699 -0.172336 0.196874 0.203416 0.200076 -0.763149 0.0421677 0.00127578 0.455294 0.344471 0.165572 0.0802721 0.293205 0.0313453 0.0802367 -0.0775037 -0.662911 0.0797854 0.0486161 0.22591 0.236839 0.23838 0.111019 0.00594488 0.284098 -0.292293 0.0936284 0.238255 0.134562 0.0381181 0.388647 0.145591 0.0926058 0.269067 -0.340695 0.0909082 -0.244857
z -0.0643207 -0.113394 -0.174918 0.351298 -0.233671 0.125906 0.0637483 -0.0411032 -0.342783 -1.39831 0.22419 -0.045622 -0.240355 0.480637 0.238413 -0.377948 0.375227 -1.34997 0.321516 0.136706 -0.252205 0.0603271 0.0528632 -0.340928 -0.259769 0.0845208 0.185567 0.146144 -0.0382612 0.246484 0.0377442 -0.567506 -0.004562 -0.172323 -0.240139 0.0308636 -0.364165 0.0788069 -0.135127 -0.22752 0.267078 -0.4143 -0.137659 -0.164955 0.0896877 -0.0467838 -0.0983885 -0.063178 0.0563677 0.172477 0.0332808 0.0495218 0.00691918 0.350485 0.1697 0.0968402 -0.0361356 -0.0138036 -0.155212 0.306551 0.329914 0.266743 -0.187632 -0.171631 0.120537 -0.0704159 -0.332022 -0.298592 0.201719 -0.0886569 0.153224 -0.203929 -0.0812126 -0.12992 -0.180929 -0.428757 -0.135006 0.324337 -0.27207 0.139964 0.180442 0.281592 0.317672 0.178559 -0.239727 0.291137 0.581628 -0.312576 0.103031 -0.0679244 -0.0912898 0.0324352 0.0121174 0.261565 0.0812931 0.720729 -0.47878 -0.146988 -0.224679 -0.0359036 0.538116 0.405808 -0.147275 0.378885 0.14714 -0.465243 -0.104894 -0.385622 -0.1613 0.119076 -0.142485 0.0869228 -0.445611 -0.265302 -0.140551 -0.224685 0.0743655 -0.25819 0.157929 0.295067 0.0872805 0.103419 0.354252 0.144721 -0.0955039 -0.070437 -0.218176 -0.263711 0.198376 0.326964 -0.419465 -0.043139 0.232025 -0.0914144 -0.0525968 0.320863 0.00135745 -0.238893 -0.0586902 0.00123981 0.655636 -0.152767 -0.589681 -0.016417 0.245399 0.322115 0.138913 0.246557 0.113845 0.414699 0.108693 -0.33108 0.199112 -0.300032 -0.00575166 0.178952 0.0518311 -0.0583925 0.12593 -0.312613 0.204435 -0.045555 -0.0652833 0.0545077 0.56497 0.0466235 -0.287544 0.376356 0.263144 -0.275951 0.128267 0.253305 0.0451502 0.0702296 -0.124097 -0.179566 -0.159038 -0.0271909 -0.381293 0.00796656 0.0256228 -0.005321 0.145147 -0.10563 0.139838 0.0700185 0.245084 -0.313101 -0.0823575 -0.0406254 0.326726 0.0579145 0.54044 -0.351972 0.183173 0.136233 0.34861 0.225811 0.330931 -0.841829 -0.497046 0.0259762 -0.217916 -0.228509 -0.144214 -0.0076264 0.0831584 0.202458 0.0577866 0.0628271 0.258466 0.243034 0.148208 0.21918 -0.113358 -0.222786 -0.30767 0.0423804 0.540566 -0.0598233 0.0610341 -0.00679448 0.614412 -0.371438 -0.331851 -0.376737 0.243013 -0.219338 -0.0388791 -0.371599 -0.223788 -0.0376031 -0.117805 -0.652094 -0.160077 0.287505 -0.309182 0.0350845 0.0974991 -0.145658 -0.21361 0.046137 -0.00580024 -0.0374183 0.0102967 -0.169725 0.285312 -0.0778329 0.236131 0.0383962 0.252529 -0.279481 0.091689 -0.185942 0.0919928 -0.327612 -0.173847 -0.163227 -0.266776 -0.633331 0.241994 -0.281318 0.23379 -0.465677 -0.078373 0.168644 -0.0699954 -0.116219 -0.637456 -0.225467 -0.292908 -0.461514 0.121564 0.302103 0.0308911 -0.318588 -0.0925748 -0.127109 0.109126 0.0565153 0.0349118 -0.54464 -0.129496 -0.00944281 -0.192054 0.237284 0.195632 0.140866 -0.0681502 -0.00123997 0.255085 -0.180699 0.0733165 0.11779 0.189421 -0.0562599 -0.357702 0.258449 -0.0706191 0.207871
Z 0.491116 -0.0182894 0.143066 -0.00342799 -0.20131 0.049397 0.0122978 0.224019 -0.135023 -1.57131 0.723799 0.384642 0.086653 -0.0491608 0.192988 -0.16084 0.16057 -1.15014 -0.176954 -0.30554 0.373318 -0.0302955 0.594569 -0.315672 -0.0711962 -0.0165734 -0.0251692 -0.122828 -0.184156 0.111644 -0.117662 -0.0333196 0.0619125 -0.235567 -0.581171 -0.0723071 -0.289433 -0.201871 -0.253061 0.329779 -0.00396108 0.262424 -0.399817 -0.262478 0.128727 0.22859 0.13341 0.0253388 0.141107 0.309793 -0.404169 0.255109 -0.0778302 0.11113 -0.0627495 -0.286617 0.318259 -0.24983 -0.130891 0.314214 0.415705 0.0725328 -0.10589 -0.575857 0.0925851 -0.147276 -0.0753644 0.135464 -0.0449337 -0.0466066 -0.436231 0.0666346 -0.0721282 0.328973 0.017864 -0.451883 0.0693836 0.136436 0.242864 -0.0739484 -0.00203565 -0.585703 0.235012 -0.218958 0.263868 -0.0159128 0.31973 -0.253352 -0.365121 -0.31182 0.0065261 0.197988 0.572641 0.202504 0.0504018 0.366971 -0.0966351 0.127872 -0.154922 -0.0899259 0.23216 -0.13961 -0.349935 0.0886937 0.0655081 -0.579816 0.0251055 -0.430621 0.309819 -0.169864 0.122904 0.534599 -0.134435 0.001312 -0.356919 -0.0367701 -0.336697 -0.0577481 0.164787 0.198911 0.0971408 -0.303393 -0.0680292 0.224591 0.18482 0.0693795 0.00147151 0.306582 0.305643 0.253207 -0.30658 -0.26395 -0.165058 -0.297286 -0.2229 0.120007 -0.223662 0.0904717 0.0856483 0.302992 0.972798 0.0163161 -0.432597 0.00248672 0.0425123 0.324863 0.102892 -0.272412 0.619034 -0.155616 -0.155536 0.339343 0.12872 -0.322465 0.0641447 -0.162077 0.19324 -0.627074 -0.588028 -0.00368317 -0.215855 0.061979 0.0594774 0.483937 0.351062 0.510221 0.31136 0.489912 -0.278899 -0.351999 0.106899 0.0544438 0.399339 -0.311769 -0.0599509 -0.19719 -0.0252795 -0.076726 -0.435017 0.127138 -0.0319227 0.13986 0.285648 0.0431237 0.619114 -0.521673 0.186772 0.0080306 -0.0108131 0.0109883 0.458435 0.314213 0.619132 -0.283862 -0.784305 -0.164318 -0.237183 0.356145 -0.170942 -0.171201 -0.232855 0.456175 -0.351787 -0.462191 -0.0620942 -0.181821 0.298774 -0.233947 -0.147508 0.0408463 0.120338 0.214081 0.0309375 0.286503 0.290286 -0.276953 -0.00563711 -0.39714 0.566689 -0.264066 0.279778 0.314556 -0.109827 -0.322061 -0.313154 -0.342594 0.112943 0.0448467 -0.322873 -0.62879 0.0883109 0.165282 0.0780007 0.0979027 0.256661 0.437755 -0.190863 0.045803 -0.214209 -0.275908 -0.0864183 -0.233614 -0.192327 -0.218387 0.280304 -0.0875238 0.388906 -0.348392 0.449245 0.316424 0.0230031 -0.0481353 0.364576 0.158626 -0.396049 -0.629903 0.253481 0.239481 -0.0413802 -0.368641 0.0461643 -0.397279 -0.287096 -0.136627 -0.239489 -0.00189562 -0.265079 -0.267891 -0.586572 -0.0980136 0.135106 -0.370219 0.10889 0.295885 -0.0447352 -0.118031 -0.218494 -0.141808 0.514777 -0.631478 0.165343 -0.0693941 0.30711 0.151602 0.431525 0.00923302 -0.370852 0.376083 -0.310052 0.371622 0.215765 0.249982 0.0200198 0.204748 0.299593 0.0447592 0.202526 0.10803 0.440956 -0.118999
e 0.0938929 0.0438122 0.180603 -0.211526 -0.1535 0.25801 0.239995 0.117473 -0.0898593 -0.753143 0.226411 -0.109773 -0.0573605 -0.0535958 0.0739606 0.0418029 -0.0680152 -1.09723 0.293644 -0.00839204 -0.0333872 0.0451012 0.20006 0.0140127 -0.123378 0.328976 0.0116332 0.0107122 0.0243885 -0.12451 -0.0649838 0.0425535 0.102614 0.0880838 0.00436495 -0.0236085 0.0612419 0.298157 0.00511234 -0.00247336 -0.200061 0.157561 0.0422123 0.197872 -0.012368 -0.181187 0.187593 -0.0183816 -0.0330786 0.204469 -0.0432003 -0.0442657 0.155718 -0.123926 0.0781035 -0.164564 -0.200335 -0.167405 0.0793642 -0.121576 -0.0957865 0.0135311 0.101564 -0.252187 -0.0299957 0.168765 0.101055 -0.0801818 -0.0478405 -0.0892786 -0.109944 0.151402 0.0765702 -0.115384 -0.0797752 -0.0434167 0.307931 -0.0506271 0.0349057 -0.108749 0.148791 0.0779474 0.00142498 0.00217369 0.167552 0.122136 0.28259 0.0228276 -0.232283 0.0435047 0.147258 -0.227748 0.0163965 0.138719 -0.124391 0.24139 0.0769213 0.0675201 -0.0885802 0.108524 -0.267676 0.0601159 -0.032403 -0.198359 -0.0344364 -0.418066 -0.0867505 0.0191616 -0.274439 -0.317715 -0.0428804 0.194327 -0.16754 0.1313 0.266264 0.185005 -0.0132036 0.131837 0.244171 -0.215744 0.0549577 -0.0677163 0.0210947 0.147846 0.124752 -0.0168355 -0.15389 0.127968 0.0949851 0.217103 -0.208416 0.0459661 0.182691 0.175625 -0.0314087 -0.154071 0.0615992 0.196456 -0.175734 0.124751 0.28007 0.0679942 -0.112197 -0.0565889 -0.144505 -0.0543731 -0.0266588 -0.0658977 -0.0586758 0.0510958 0.228196 0.111898 -0.0783984 -0.225972 -0.0383505 -0.0173358 0.334825 -0.0680416 -0.0862043 0.159505 0.0421828 0.132442 0.0599057 0.047734 0.287171 0.0531176 -0.0402822 0.0868054 0.0904948 0.0187633 0.111082 -0.0572544 0.01935 0.36277 0.0175067 -0.0601589 0.0585271 -0.313839 0.0277396 -0.13356 0.154185 -0.0940542 0.0543505 -0.0276504 -0.0237787 -0.0213557 0.19997 0.139375 0.10175 0.0756522 0.119828 0.161812 -0.0891059 0.116583 0.0468355 0.143625 0.189196 0.0348814 0.0917302 0.0865131 -0.139094 0.000168357 0.0970736 0.0119111 0.0733052 -0.0683933 0.147455 0.0827544 0.136399 -0.221663 -0.0191107 -0.1899 0.103732 -0.0415312 -0.221458 -0.161348 0.0957494 0.152411 0.293593 -0.127295 0.0321077 0.0429621 0.125723 0.0350295 -0.00871684 -0.116514 -0.193863 -0.174224 -0.202054 0.026668 0.450537 0.214073 -0.0531452 0.19081 -0.139795 -0.0470463 0.0424981 0.0494485 0.225188 -0.08834 0.10861 0.0668919 -0.20319 -0.148155 -0.237883 -0.00689361 -0.0453377 0.0996504 0.105487 -0.031059 -0.258276 -0.0149419 -0.0130084 0.162348 0.0772549 -0.388261 -0.0467132 0.0941905 0.178199 0.246494 -0.255802 -0.00127591 0.0143107 -0.0611472 0.0345329 0.134286 0.11375 0.257863 -0.178635 0.261299 -0.0970252 0.0115158 0.160775 -0.0202566 0.119683 0.0410129 0.217721 -0.0598902 -0.0178928 -0.0758813 0.00564036 -0.0726113 0.193857 -0.194418 0.0269626 -0.0611202 -0.0638048 -0.0415881 -0.146958 -0.0225477 0.177558 -0.0247224 0.181428 -0.109558 -0.0917079 -0.121332 0.180425 -0.041553 -0.154244 -0.128963
i 0.315118 -0.194888 -0.106185 0.399666 0.111958 -0.0266824 0.333846 0.181474 -0.06485 -0.945529 0.032739 -0.200394 -0.166566 0.0790137 0.289893 0.0658432 -0.0967318 -1.10814 -0.137787 0.26547 -0.184423 0.118472 -0.328706 0.0979517 -0.279085 -0.045333 0.0841331 -0.262138 0.0911083 -0.157725 0.187271 -0.109564 0.0519614 -0.211293 -0.298974 0.227995 0.331239 -0.0284657 -0.00335967 -0.110978 -0.182307 0.229881 -0.243977 0.242082 -0.0309073 -0.201728 0.00464637 -0.0849722 0.15941 0.0547659 0.112978 -0.33653 0.0685544 0.0802985 0.111602 0.216085 0.0688906 -0.156201 -0.0185842 0.155149 0.0600158 -0.102318 0.0381572 -0.422425 0.224897 0.348546 -0.332876 -0.0854533 0.0086534 -0.0807282 -0.154929 0.145362 -0.465001 -0.195198 -0.0793125 -0.088495 -0.182678 -0.0595129 -0.103471 -0.0626643 -0.101669 -0.156593 -0.135444 0.332772 -0.25263 0.0409849 0.170206 -0.192404 -0.104022 -0.0391379 0.0712972 -0.0664537 -0.365074 0.00177059 -0.145317 0.170236 0.20812 -0.0666499 0.0597194 0.0859742 0.198767 -0.194409 -0.0294474 0.119935 0.174462 -0.754495 -0.0166906 -0.38728 -0.000466764 -0.147013 -0.270307 0.210511 -0.171951 -0.168654 -0.130213 -0.0246165 0.14529 -0.0845106 0.139153 0.114518 -0.28373 -0.118762 0.22549 -0.0772575 0.0979658 -0.082814 -0.185345 0.153512 0.0939334 -0.0403678 -0.125036 -0.156152 -0.012777 0.208591 -0.189739 0.245523 -0.0723928 -0.0765258 0.0744587 -0.222038 0.763308 -0.0363269 0.030647 -0.229542 -0.17993 -0.315128 0.175175 0.256983 -0.0175775 0.275679 -0.0251663 -0.1271 0.14466 -0.027372 0.379621 0.128368 -0.00632908 -0.181528 -0.0789961 0.103475 -0.0226894 -0.158417 0.212613 0.319065 0.215753 -0.0141561 -0.0592237 0.289586 -0.0640098 0.31015 -0.0365294 -0.015468 0.159444 0.185906 0.1008 -0.158896 0.120466 0.124751 -0.390463 -0.251686 -0.197392 -0.0362771 0.212511 0.0894133 0.0531159 0.0788771 0.140556 -0.0292637 0.0335905 0.205588 0.191012 0.00353969 0.167493 0.211498 -0.0979891 0.0597665 0.285034 0.120406 0.196153 -0.109347 -0.0835259 0.118805 0.247285 0.0515751 -0.139959 0.0676471 -0.0985784 0.364498 0.125686 0.0425329 -0.154708 0.0877508 -0.273921 0.25014 -0.115438 -0.287548 0.0442916 0.318534 0.289668 0.100948 -0.0851599 -0.0411322 0.293729 0.190876 0.224382 0.179725 0.135721 0.126807 -0.126513 0.192521 -0.117995 0.150317 -0.324527 -0.0853502 -0.00810679 0.109197 0.325302 0.169514 0.230675 0.0429429 -0.12536 -0.116082 0.129293 0.0199593 -0.0483896 0.127734 -0.033858 0.24547 0.224313 -0.0886457 -0.0178661 0.232056 -0.44026 0.0660958 -0.00959362 -0.197395 -0.204684 -0.0148652 0.000769943 0.187324 -0.310319 -0.180467 0.0306257 -0.0943395 -0.0206834 0.1421 -0.101547 -0.0743218 -0.393276 -0.169392 0.0775916 0.197213 -0.140968 0.336205 -0.221488 -0.0473175 0.0182749 0.0942729 0.321991 0.092176 -0.0280198 -0.0794545 0.0309331 -0.0904776 0.11434 0.287766 0.200515 -0.064825 0.0858123 -0.0154623 -0.0316231 -0.238933 -0.0140678 0.124269 0.194314 -0.0172931 0.0253024 0.303144 -0.0103084 0.0593173
y 0.210711 -0.192484 0.0401261 0.271211 -0.26025 -0.107201 -0.342025 0.120469 -0.0533656 -1.29802 0.302411 0.274047 0.0443012 -0.0325265 0.189578 -0.214596 -0.338857 -1.16866 0.104407 0.208983 0.091867 -0.271941 0.212059 -0.105383 -0.138384 0.0952262 -0.0294383 0.0612378 -0.00666795 0.0310999 -0.162081 -0.294555 0.227768 -0.0346698 -0.116897 -0.0326892 -0.260272 0.072424 -0.360872 0.418521 0.0839673 -0.19602 0.147536 0.294464 0.3771 -0.00545112 0.0347159 0.289452 -0.102442 0.0415111 -0.117335 0.266347 -0.247795 0.152822 0.127689 -0.0712854 0.524562 -0.242552 -0.006768 0.204229 0.114903 -0.0255567 -0.170838 -0.434963 -0.213055 0.0178996 -0.242532 0.402145 0.133442 0.0509473 0.0293289 0.0443344 -0.0690586 0.0602386 0.136216 0.0341795 0.197321 0.257996 -0.0716081 0.261805 0.101265 -0.0683678 -0.00307157 0.139454 0.222632 -0.0965715 0.144728 -0.00072626 -0.109439 -0.192147 0.119652 0.0864441 0.193052 0.207358 0.382752 0.38641 -0.215731 -0.153436 -0.265402 -0.103855 0.258248 -0.0559816 -0.271015 0.182948 -0.150265 -0.540179 0.173865 -0.193671 -0.0782511 -0.110619 0.0137942 0.328052 -0.280685 0.178637 -0.221369 0.172559 -0.00984901 -0.182122 -0.331579 0.236811 -0.0795454 -0.401583 0.0165171 0.0470741 0.194192 0.0145183 0.0684353 -0.251878 -0.0620554 0.316788 -0.241065 -0.195169 0.0932091 -0.228582 0.0928218 0.026166 0.0415918 -0.132591 0.012792 0.011072 0.359457 0.112218 -0.368104 -0.0883562 0.0524899 -0.19394 -0.204717 0.157005 0.128992 0.27523 0.00792091 0.0793005 -0.206673 -0.178482 0.0189093 -0.203434 0.0789685 -0.15701 -0.163036 -0.230638 0.162913 0.0889816 0.0597846 0.223279 0.271003 0.134427 0.0058499 0.230554 -0.0534001 -0.0529326 0.285916 0.484824 0.439553 -0.28006 -0.178672 -0.337118 -0.0952894 -0.21532 -0.262358 0.243775 0.256241 -0.134378 0.40314 0.0378762 0.349161 0.149631 0.195366 -0.198712 0.0544871 0.076432 -0.0133706 0.208441 0.375043 -0.245403 -0.285947 -0.117958 -0.0493158 0.145679 0.382085 -0.273272 -0.0915126 -0.111324 -0.0941245 -0.03903 -0.0527625 0.208222 -0.174507 -0.339289 0.0398205 -0.105523 0.155491 0.222323 0.212825 0.0871449 -0.258712 0.0140071 0.353397 0.0759974 0.69142 0.0255388 0.263282 0.0179852 0.000356677 0.0717537 -0.0150014 -0.0609194 -0.0467376 0.0917597 -0.0548037 -0.378603 0.271696 0.163428 0.0095608 0.0723245 -0.121812 0.429298 -0.119686 -0.412887 0.217519 0.0815722 -0.08714 -0.22636 -0.249483 0.402615 -0.00420015 -0.356592 -0.150446 -0.100797 0.378998 0.0440508 -0.0857994 0.0133886 0.293185 0.214976 -0.0490763 -0.0198632 0.103532 0.0424432 -0.0491354 -0.0957982 -0.1008 -0.00083714 -0.255495 -0.326746 0.258817 0.22492 -0.369093 0.301558 -0.523558 -0.0911132 -0.323394 -0.411966 -0.164819 0.179108 -0.289724 0.02121 0.0347096 0.0723183 0.232926 0.0883246 0.127537 -0.150733 -0.333545 -0.0529866 0.28144 0.099363 -0.242476 0.0727028 -0.317291 -0.0274223 0.0464263 -0.0302705 0.0738542 -0.00241268 -0.144828 -0.189238 0.259282 0.51955 0.10392 0.20384
T 0.563784 -0.453233 0.19423 0.0447773 -0.052464 -0.345424 0.0705833 -0.126393 0.280582 -1.21064 0.0448603 -0.181328 0.0291698 0.0826217 0.224081 -0.0979826 0.169898 -0.979041 0.486936 0.438253 -0.262459 -0.272367 0.290391 -0.177425 0.112934 -0.0638537 0.163838 0.3343 -0.277954 -0.048072 0.242325 -0.238577 0.133157 0.482161 0.103054 0.102747 0.050882 -0.188382 -0.124863 0.142741 0.0322651 0.168426 0.120849 -0.0231288 0.0381446 -0.355962 0.194663 -0.223721 -0.32019 -0.12006 0.316389 -0.238225 0.0826364 -0.223893 -0.218967 0.135063 -0.175722 0.0529259 -0.138597 -0.147143 -0.114738 0.302212 0.127847 -0.0674654 -0.310919 0.166219 -0.104703 -0.292309 -0.0266889 -0.209156 0.103291 -0.0910956 0.275851 0.127282 -0.343862 -0.180832 -0.177566 -0.244725 0.0733281 0.00894241 0.168003 -0.489613 0.147948 0.269959 -0.274212 0.327738 -0.0545822 -0.11863 -0.323186 -0.175054 -0.0546512 0.0551471 0.00691869 0.156154 -0.0706464 0.46533 0.119752 0.21259 -0.0623386 0.376558 -0.119057 0.159687 -0.0193878 0.0852455 -0.067171 -0.112924 -0.148515 -0.016694 -0.273971 -0.124376 -0.0770675 0.269524 -0.169897 -0.110825 0.104507 0.203298 0.140649 0.298713 0.0415784 0.109603 -0.0493956 -0.00913845 -0.166055 0.221901 0.0959925 0.105805 0.302572 -0.0725075 -0.0697 0.3178 -0.0441763 0.142545 -0.00330831 -0.074459 -0.18657 -0.099573 -0.251335 -0.00178079 -0.028757 -0.0407286 0.836609 -0.213223 -0.472292 0.149311 -0.0567058 0.197854 0.0493754 0.0806316 0.468056 0.110291 0.071981 0.215629 0.116788 0.0878658 0.376592 0.034058 0.105795 0.278099 0.1106 0.30833 -0.257592 -0.0949947 -0.0205995 0.00822854 0.13113 0.0142654 0.0137533 0.150575 -0.163763 -0.06712 0.204684 0.211927 -0.0578112 0.243234 0.0431068 0.0390186 -0.271201 -0.0457051 0.0644319 0.0616125 -0.0734224 0.132489 -0.0157597 0.0182723 0.143489 0.0218261 0.221542 0.0600131 -0.233725 0.0236861 -0.106295 -0.0582001 -0.200371 -0.151495 -0.114905 -0.276287 -0.0127782 0.255708 0.0401842 -0.424414 -0.00362202 0.465612 0.000895313 -0.116085 -0.349623 0.0153773 0.0858678 0.0255823 0.260881 0.138462 -0.0934804 0.201736 0.146219 0.428867 -0.181365 0.0133939 0.0190211 -0.554343 0.550638 -0.114822 0.00929258 0.102826 0.163686 -0.143206 -0.292712 -0.375754 0.194716 -0.321602 -0.281954 -0.293162 0.244005 0.16612 -0.101952 -0.305169 0.13839 -0.194157 -0.31519 0.132486 -0.0876124 0.0173998 -0.0380994 -0.251825 -0.0749466 -0.28325 -0.214834 0.17327 0.280828 0.187163 -0.0148163 0.156545 -0.0710278 -0.226726 0.237075 0.0329142 -0.0215532 -0.450213 -0.0814472 -0.138997 -0.00252615 -0.00754768 -0.0167251 -0.291245 0.049429 -0.0133063 0.0483424 -0.0232334 -0.222638 0.179261 -0.0386132 0.26767 -0.215137 0.320416 0.0501222 0.0571838 0.0765454 0.213379 -0.104671 -0.188186 -0.076718 -0.385419 0.205673 -0.0296164 -0.0724988 0.0632523 -0.086099 0.272648 -0.164918 0.14088 -0.0386889 -0.110989 0.358091 -0.350751 -0.0207286 -0.054343 0.120262 0.107871 -0.142889 -0.0795563 0.0368467 -0.0712824
q 0.542025 -0.135666 0.332714 -0.333257 -0.0113793 -0.280202 0.274469 -0.103613 -0.421016 -1.35661 0.533662 -0.356385 -0.300549 0.190698 0.0143003 -0.321162 0.0479881 -0.839245 0.49557 -0.0812322 0.540413 0.522542 0.54996 0.109648 0.147018 0.228719 -0.38429 0.171833 -0.225784 0.251133 0.264134 -0.487728 -0.291729 -0.209751 -0.490141 -0.125145 -0.270465 -0.269579 0.152343 -0.31207 0.236157 -0.301531 -0.53797 -0.123102 0.0419538 -0.080161 0.408985 0.0310676 -0.626382 0.440935 0.251046 0.458184 -0.145115 0.0791147 0.0466103 -0.0424942 0.161562 -0.0271309 0.452186 0.643363 -0.174638 0.457523 0.0326045 -0.115783 -0.384355 -0.24262 0.621007 -0.211076 0.0589056 -0.361359 0.197337 0.00149168 -0.277246 -0.00320124 -0.0325985 -0.731828 -0.077299 -0.0481133 -0.308853 -0.612618 0.0794804 -0.231929 0.0733612 0.0154917 -0.129453 0.446869 0.693372 0.352701 -0.489878 -0.327986 -0.250957 0.131753 0.557512 0.0697321 -0.17717 0.164186 0.0536564 0.558198 0.00353842 -0.181071 -0.164491 0.161463 0.106385 0.4126 0.217667 -0.655791 -0.398494 0.0826792 0.277457 0.169504 0.0557042 0.384562 -0.140152 -0.177472 -0.272637 0.0619393 0.499673 0.375992 -0.0752742 -0.236519 0.1887 -0.164002 0.385464 0.473534 -0.366258 0.0698561 -0.468852 0.568792 -0.343381 0.0248036 0.0137702 -0.254338 0.0883761 0.0167782 0.0527071 0.41506 -0.226889 -0.234892 0.437032 0.438087 0.470291 -0.224988 -0.223235 0.0783112 -0.127914 0.765088 0.34358 -0.00977406 0.182962 0.278544 0.0589698 -0.301292 0.377281 0.572213 -0.0797343 -0.19989 0.227604 0.134135 0.318174 0.236787 -1.03817 0.743335 -0.152591 -0.0951716 0.534871 0.296649 -0.335188 -0.13798 -0.516334 -0.458443 0.383854 0.200373 -0.0110277 0.257051 -0.106395 0.0630956 -0.131981 -0.275097 -0.125418 0.175253 -0.139684 -0.293997 0.1127 -0.134424 0.618235 -0.312887 0.139542 0.167719 -0.245864 0.360718 0.433537 0.119636 0.281781 -0.0114686 -0.121862 -0.218498 0.0135519 0.116275 0.311527 -0.263614 0.231475 0.304841 -0.0273301 -0.143209 -0.220792 -0.23137 0.0366809 -0.134387 0.0303332 0.153208 0.00528161 0.117264 0.416962 0.176416 -0.0899896 -0.162272 -0.491584 -0.391909 0.454348 -0.152222 -0.337708 0.0529993 0.190415 -0.184046 -0.0639148 0.128567 -0.351712 -0.0633979 0.0916176 -0.446146 0.219713 0.160349 -0.0610167 -0.349563 0.119975 -0.107306 -0.318186 0.628939 0.412169 -0.786409 -0.0460788 0.0171563 -0.338419 -0.0848887 -0.196794 0.386221 0.555096 -0.177535 0.10111 0.0408724 -0.254141 -0.183615 0.139998 -0.173752 -0.300164 -0.643608 -0.0214359 0.167865 -0.627849 -0.557215 0.0155687 -0.558758 -0.152453 -0.724555 -0.259837 0.262466 -0.215837 0.0828013 -0.342653 0.140288 0.123018 -0.408403 -0.00463671 0.416584 -0.199758 -0.0154502 -0.551441 -0.2528 -0.409428 -0.430024 -0.497148 0.478912 0.0555879 0.386825 0.304474 0.242366 0.258521 -0.269555 -0.316901 0.326684 0.714812 0.209874 0.235893 -0.043921 0.301024 0.547175 0.0613075 0.239393 0.0207504 -0.207758
+ 0.0732141 -0.317035 0.284357 -0.0118855 -0.232591 -0.14582 -0.00790738 0.11106 -0.327052 -1.81471 0.208522 -0.136574 -0.257976 -0.0674627 0.351181 0.569661 -0.22436 -1.0405 0.265588 -0.114446 0.366963 -0.0189276 0.244445 -0.206871 0.166566 -0.040945 0.0814612 0.0993443 -0.0304763 0.190782 -0.067753 -0.690317 0.314022 -0.389472 0.183684 0.0904854 0.107332 -0.017517 0.368667 -0.0628835 -0.147333 -0.495699 -0.0243689 -0.453563 -0.448419 -0.318821 -0.147022 0.279275 -0.0940126 -0.438013 0.445582 -0.00679592 0.592772 -0.287654 0.0168334 0.294742 -0.22912 -0.222857 -0.221188 -0.339863 0.0470061 0.173811 0.104709 -0.340826 -0.29961 0.370273 0.136545 -0.143252 -0.208688 -0.161387 -0.240453 -0.133064 -0.232453 -0.0195665 -0.171146 0.0571143 -0.201162 -0.00452638 0.0529893 -0.171974 0.167563 -0.414082 0.475999 0.0168072 -0.0753923 0.0198742 0.743154 0.0108053 -0.359752 -0.438281 0.395248 0.0868813 -0.329128 -0.34395 0.012021 0.39653 0.00656329 -0.248554 -0.419042 0.0612852 0.386296 0.0429445 0.248941 0.420705 0.105964 -0.449856 0.00216464 -0.471095 -0.0659388 0.036908 -0.19576 0.0936048 0.0196775 -0.0589945 -0.271031 0.147487 0.0244422 -0.11132 -0.105287 -0.40655 -0.185336 -0.151631 0.150195 0.122003 -0.245899 -0.0776759 0.0774025 -0.337514 -0.167123 -0.068997 -0.361349 0.352243 -0.102116 0.278006 -0.319486 -0.0520695 0.145176 0.205771 -0.13236 0.0608078 0.676984 -0.0806823 0.191446 -0.270593 0.29498 0.01558 0.0806629 -0.243999 0.0210782 0.0137841 0.298971 0.354684 0.360652 0.0294237 -0.223099 0.0131722 0.0407966 -0.169531 0.65033 0.243076 0.204928 0.248456 -0.261174 -0.0519907 0.130981 -0.0790521 -0.546576 0.248552 0.0190916 -0.0420849 -0.0230862 0.416508 0.094616 0.366302 0.503914 -0.352554 0.231228 -0.0049426 -0.576177 -0.444237 -0.102955 0.0307487 0.151094 -0.0165432 0.15487 -0.21162 0.101015 -0.234196 0.291815 0.0843862 0.440538 0.0554747 0.313816 0.0776147 0.233292 -0.158327 0.00825099 -0.124075 0.0556772 -0.610539 0.443138 -0.189363 -0.197127 0.136316 -0.298338 -0.300831 -0.0300039 -0.010789 -0.0887549 -0.228853 0.502709 0.365838 -0.129878 0.28035 0.0764204 -0.0333731 0.440485 -0.4209 0.497925 0.0731922 0.240718 -0.169502 -0.0756026 0.0653087 -0.228619 -0.277132 -0.238984 -0.531539 0.159613 0.147242 -0.392892 -0.461082 0.0900171 -0.160446 0.00211619 -0.277695 -0.126094 -0.0309764 0.399659 -0.0882099 -0.105828 -0.081581 -0.226688 0.19021 -0.111061 -0.0696231 0.344491 0.106104 0.0619663 -0.146892 0.396301 0.335975 -0.213821 0.119881 -0.530692 0.0544735 0.273076 -0.257803 -0.0978452 0.0765869 -0.403197 0.189678 0.146861 -0.18712 0.0366087 0.0724059 -0.177806 -0.0724145 -0.314109 -0.0283937 -0.180861 0.0116055 -0.232961 0.605626 0.00984353 -0.0447899 -0.0563366 -0.259171 -0.0645611 -0.490302 -0.371149 -0.464057 0.0689445 0.170761 0.314149 0.126026 -0.0217391 -0.0575842 0.185084 0.43178 0.589837 0.0165464 0.0148349 0.0608155 -0.158017 0.245382 -0.221984 -0.00112902 -0.094059 -0.388865
O 0.193387 -0.575563 0.138353 0.0179406 0.12015 0.156028 -0.0645084 0.127054 0.176154 -1.59432 0.0824813 0.091824 -0.281516 0.270774 0.572643 -0.0737723 0.343919 -1.00547 0.113204 0.0149929 0.164379 -0.286346 0.0735509 0.0700707 -0.00411139 -0.29052 0.241836 -0.118467 0.00446593 -0.174669 0.152609 -0.295714 -0.0655334 0.116142 -0.0573299 0.27297 0.272153 0.170345 -0.141713 0.504756 -0.117796 0.138173 0.029608 0.04791 -0.0284884 -0.145133 0.198286 -0.531847 0.18158 0.10648 0.10338 -0.0330674 0.145031 0.0900034 0.0223445 -0.0609855 0.0613203 0.151035 -0.230906 -0.267477 -0.0723821 -0.155665 0.210974 -0.218626 -0.391968 0.278972 -0.342031 -0.355809 0.305177 -0.347072 0.00895356 -0.00929221 -0.362399 -0.0383934 0.0213977 0.275069 -0.118703 -0.021949 -0.188404 -0.0859407 0.053159 0.292172 0.33271 -0.188708 0.0226883 0.35126 -0.239977 -0.519793 -0.425299 0.170708 0.25476 0.158323 -0.175159 0.165264 -0.181498 0.0199015 -0.0699133 -0.0847921 -0.017131 0.16944 -0.192936 0.0857546 0.153651 -0.11506 -0.237284 -0.276468 0.0683406 -0.0914502 0.047404 -0.119168 -0.051485 0.474431 -0.454154 0.23788 0.036514 -0.0942215 0.153584 -0.405207 0.0073751 0.242844 -0.238555 0.226134 -0.0542549 -0.184221 0.172042 -0.0706853 -0.338142 0.220983 0.0287407 0.47324 -0.0989241 -0.40923 0.105526 0.000713916 -0.127698 -0.159609 0.0746162 0.104139 0.171565 0.104647 0.798661 0.0513455 -0.0397722 -0.0342389 -0.119006 -0.183392 0.204316 0.212586 -0.0357319 0.152719 -0.130813 0.130623 -0.0426522 0.377832 0.326829 0.270749 -0.0530561 -0.0970895 -0.0695298 0.0358934 0.055743 0.0494437 -0.235347 0.178143 -0.221698 0.429162 -0.211143 0.436336 -0.240923 0.193591 -0.281291 -0.0544727 0.169277 0.259912 0.213953 -0.225121 0.145434 0.241595 -0.169824 0.0595719 0.310233 0.0247443 -0.313142 0.472165 0.245555 -0.162333 0.516002 -0.27936 -0.0905559 -0.235588 0.0659318 -0.0303015 0.11215 -0.170924 -0.139799 -0.33268 -0.0861095 0.198718 -0.190336 -0.050107 -0.244676 0.208887 0.0255134 0.00919591 -0.180176 -0.105952 -0.175199 0.0300135 0.404691 0.413627 0.125519 0.118204 -0.136285 0.64356 -0.0273737 -0.333181 0.183104 -0.471247 0.41011 0.100979 -0.0533342 0.0491277 0.081648 -0.16246 -0.115472 0.14836 -0.0496912 0.154526 -0.372958 -0.389952 -0.0539881 -0.0367809 -0.350599 -0.299354 0.533633 0.2653 -0.358249 -0.162147 0.0836476 -0.261918 -0.353474 -0.0761814 0.162882 -0.554471 0.0976771 -0.121414 0.0104642 0.263163 0.259373 0.209218 -0.00668888 0.26166 -0.134818 -0.324486 -0.0774189 -0.357744 0.0828903 0.189747 -0.0762476 -0.423005 -0.191039 -0.379066 0.146973 0.35082 -0.131818 0.325161 -0.082 -0.234763 -0.31739 -0.0208099 -0.155106 0.133427 0.148461 0.224824 -0.0787138 -0.175702 0.0410004 -0.302945 0.18316 -0.260124 0.0896909 -0.175847 -0.389235 0.236232 0.11252 0.291241 -0.378614 0.0918052 -0.155449 -0.0594402 0.13429 -0.568905 -0.383335 0.0589337 0.070774 0.0849642 -0.0128169 0.190359 -0.0582853 -0.272067
l 0.127801 -0.414942 -0.0232123 0.240314 -0.00291704 0.330871 -0.0512159 0.175896 -0.466281 -0.940346 0.577407 -0.0800536 -0.0600402 -0.0629722 0.0895724 0.222051 0.135387 -1.08993 0.113773 -0.138511 -0.140138 -0.112453 -0.16134 0.118083 0.216365 -0.0818443 0.414593 -0.253836 0.133094 0.144413 0.0385378 0.0263729 -0.0228274 -0.129135 -0.0328799 0.0196362 0.0327123 0.0645125 -0.104273 0.0579237 0.0652729 0.133785 -0.340416 -0.345077 -0.23884 -0.0174244 -0.0296925 -0.0278653 0.212565 0.0766836 0.38405 -0.0629306 0.0146313 -0.186653 0.353458 0.399612 -0.0356213 0.0721165 -0.0572191 0.126226 0.00555225 0.348442 0.171755 -0.157022 -0.128196 0.260642 0.0784329 7.76973e-06 -0.0720629 0.129551 -0.259351 0.0854856 -0.200154 0.186189 -0.265137 -0.124605 -0.0711673 0.170542 -0.0645099 -0.0468044 0.0611013 -0.0310038 0.162799 0.0574303 -0.0657032 0.142504 0.226008 -0.0563556 -0.30218 -0.250149 0.0349981 0.126933 0.0643948 0.0884657 0.00466168 0.157711 -0.0338726 -0.285906 -0.221967 0.0795356 0.162307 0.161418 0.0769572 0.219451 0.278806 -0.620655 0.134741 0.120648 -0.112155 0.0653673 0.0589735 0.12821 0.00759073 -0.106084 -0.219703 0.075528 0.0788032 0.0384974 -0.176709 -0.375676 0.104113 0.348372 -0.0953489 -0.00568994 -0.161088 -0.110519 0.161697 0.161986 0.0897881 0.183892 0.0237871 -0.0327441 -0.204907 0.140812 -0.426179 0.0252242 0.132821 -0.119357 -0.103178 0.142189 0.564384 -0.019505 0.145 0.106132 0.203523 0.168182 0.181824 0.110056 -0.218318 0.20436 0.0153225 -0.25374 -0.177783 0.24071 -0.262145 -0.054846 0.0554162 -0.156633 0.0291862 -0.412654 -0.00626305 0.313359 -0.00309561 -0.00322722 0.187991 -0.0316127 -0.180281 -0.14803 -0.150642 -0.112136 0.189031 0.0874449 0.328506 0.0205212 0.212525 -0.0166347 -0.091867 -0.17847 -0.0259061 -0.164622 0.143265 0.0341796 -0.206926 0.210237 -0.215118 -0.102582 0.134011 -0.0197308 -0.100672 -0.196923 -0.0486393 -0.0532131 0.175156 -0.0232055 0.0694366 0.148854 0.0536731 0.113997 0.381234 -0.0866405 -0.143039 -0.0966329 0.0488314 0.0853882 -0.241814 0.0112752 -0.173535 0.0402031 -0.164993 -0.301945 0.0629297 0.169735 -0.028376 -0.0421307 -0.394747 -0.308645 -0.00724842 0.156188 0.364672 0.115795 -9.26337e-05 -0.221215 0.447641 -0.279754 0.119855 0.0606472 -0.0742473 0.0365627 -0.286613 -0.19814 0.198486 0.0666792 -0.0740108 -0.165294 -0.113171 0.460092 0.234151 0.0664328 -0.0922575 -0.242716 -0.328945 0.338898 0.0733403 0.046484 -0.130357 0.153639 0.16532 0.210244 0.123491 -0.260776 0.0546035 0.0336864 0.100696 0.2254 -0.180148 -0.0692947 0.11052 -0.021569 -0.0667456 -0.000994949 -0.254404 -0.328002 0.096554 -0.169216 0.253124 0.525786 0.120363 -0.0553789 -0.290208 0.175915 -0.38553 -0.207609 0.229828 -0.14588 0.295189 0.244441 0.033378 0.217658 -0.168009 -0.182491 -0.093403 0.179837 -0.00132036 -0.0684324 -0.035337 0.0123578 0.153899 0.131336 0.0910607 0.172339 0.185415 -0.090702 0.0255222 0.378923 -0.00612823 0.286812 -0.177315 -0.106916 -0.0719687 0.445694
] -0.0230016 -0.329185 -0.120352 0.0641323 0.117187 0.28592 -0.0525555 -0.134321 0.416329 -1.3192 0.461491 -0.23525 -0.14625 0.45133 0.343274 0.178839 -0.0961413 -1.00595 0.0664648 0.324975 -0.182654 0.262705 -0.187538 -0.175528 -0.580629 -0.136674 0.228791 -0.387006 -0.0770732 0.0678283 0.100982 -0.29834 -0.0185782 0.0713249 -0.249927 -0.2332 0.106906 0.223647 0.338615 0.130002 0.303865 -0.390951 0.298271 0.348862 0.188732 -0.0395662 0.174723 -0.319228 0.303995 0.25195 -0.346972 0.247203 -0.15809 -0.202152 0.139222 -0.21581 -0.00627608 0.110429 0.309355 0.000793102 -0.149703 -0.25055 0.273843 -0.223774 0.284612 0.669716 0.111524 -0.494369 0.151904 -0.288623 0.208189 -0.330391 -0.2229 0.0975291 0.498061 0.13178 -0.453302 0.121676 -0.455496 -0.405709 0.0317899 0.0936363 -0.435102 0.270589 -0.339906 0.270757 0.276622 -0.271192 -0.304414 0.173651 0.128925 -0.206977 -0.199728 0.207255 -0.162733 0.0822031 -0.240905 -0.309606 -0.0327647 0.171697 -0.106551 0.357492 0.658085 -0.220196 0.0781425 -0.253157 0.438443 -0.0978604 -0.640688 0.0446811 0.156698 -0.199933 0.106829 0.0972494 0.225377 -0.0586686 -0.0652843 -0.120133 -0.303355 -0.0831851 0.0574394 0.0962599 -0.412498 0.0438877 -0.09042 -0.412285 -0.0980123 0.0657579 0.208292 -0.0799524 0.239825 0.0181292 -0.0733073 -0.0735262 0.301081 -0.261497 0.162951 -0.770786 -0.136346 -0.356687 0.314055 -0.300847 -0.421192 0.0980109 -0.0783061 -0.484034 -0.196913 0.272844 -0.495155 0.498595 -0.181287 0.198965 -0.052484 -0.421819 0.123914 0.359738 -0.0727989 0.382894 0.465968 -0.0622899 0.183704 -0.0450751 0.14508 0.0335393 0.284141 0.230565 -0.0200711 -0.312279 -0.322452 0.0845653 -0.21488 0.176467 -0.00721055 0.0425052 0.108768 0.19457 0.309876 0.174842 -0.152644 0.0995433 -0.137269 0.104926 0.270859 0.137267 0.0422191 0.415258 -0.0659238 -0.00487036 -0.486677 -0.0975773 0.0851616 -0.458377 0.285059 -0.377649 0.442568 -0.240735 0.318794 0.280009 0.286483 -0.154744 0.217034 -0.621669 0.402613 0.144161 -0.426259 0.233976 -0.0240866 0.0692772 0.086413 0.133656 0.59635 0.0570298 0.365492 0.209737 -0.282928 -0.737807 0.21722 0.160002 -0.117064 -0.166611 0.0226548 -0.0935724 0.165618 0.0417812 0.0428383 -0.0836813 0.00338962 -0.0358448 0.260357 -0.198447 -0.0136531 -0.354373 -0.39012 0.000668738 -0.299788 -0.0364978 0.310579 -0.0828388 0.148857 0.0206506 -0.108647 0.0448045 -0.220973 -0.131902 -0.373448 0.353065 -0.190153 -0.172605 0.0359331 -0.375454 0.0731201 -0.408837 0.0881182 -0.281386 0.164062 -0.388035 -0.299095 0.411698 0.225292 0.431315 -0.0981684 -0.436112 0.083827 -0.391882 -0.00576671 0.153722 0.256282 0.373066 -0.404056 0.0193867 -0.337874 0.501967 -0.121089 0.301976 -0.204423 0.183996 -0.0420584 -0.189176 0.0611789 -0.193001 -0.346707 -0.122927 -0.0767103 0.183104 0.375118 0.545874 -0.125197 0.318867 0.0187185 -0.122608 0.228731 0.237583 -0.174354 0.173304 -0.117087 -0.0563107 0.0903781 -0.190475 -0.327861 0.179932
8 0.168806 -0.104446 0.248297 -0.169172 -0.287095 0.203052 0.113039 0.103025 -0.0495838 -1.68137 0.359517 -0.0129043 -0.139241 0.0336437 0.326567 -0.089614 0.010548 -1.09837 0.345023 0.197964 0.134749 0.117502 0.329653 0.0693125 -0.00571953 0.0500797 -0.116457 -0.180928 -0.231944 0.147213 0.103865 0.139526 0.0472479 0.0718229 -0.341337 -0.0401278 -0.100501 0.219789 0.180558 0.643309 -0.238165 -0.336518 -0.168699 0.226911 0.0242514 -0.0115945 0.296063 -0.102251 -0.0279948 0.0581868 -0.0148177 0.440708 -0.141215 0.0190263 0.0273043 -0.164507 0.234414 0.0197533 0.324108 0.254371 0.133614 -0.251403 -0.209241 -0.504122 -0.277715 0.222569 0.19959 -0.164946 -0.00258705 -0.361634 -0.135307 -0.117376 -0.374627 -0.0387737 0.0394328 0.103876 0.153994 0.336537 0.134753 -0.33977 -0.216577 0.0140056 0.231653 -0.123915 0.0859538 0.184794 1.10736 -0.122375 -0.331242 -0.119351 0.265857 -0.0705813 0.218814 0.0843375 -0.0456136 0.1329 -0.28505 0.0181483 -0.148273 -0.00697178 -0.045014 -0.208306 0.232672 0.212616 -0.0960267 -0.479095 -0.0142346 -0.200365 0.117019 0.0472104 -0.00920005 0.217074 -0.0880841 0.210421 -0.0494141 0.163003 -0.172541 -0.238552 0.155784 -0.142518 -0.0861003 0.132883 -0.0380795 0.0578148 0.186313 0.0429008 -0.0322576 0.360017 0.0906084 0.0930382 -0.0760723 -0.149791 0.193288 -0.18835 -0.251293 -0.0183037 0.0161631 0.287292 -0.0533901 0.274765 0.973848 0.174477 -0.362541 -0.0225238 0.150142 0.447455 0.116188 -0.208041 0.0459894 0.0526026 -0.0174163 -0.0876148 -0.0587853 -0.11521 -0.361295 0.313135 0.305674 -0.164458 -0.00710067 0.238349 -0.0995234 -0.189497 0.0514497 0.30723 0.228412 0.371757 -0.131065 0.118141 -0.292606 0.0506273 0.118823 -0.0998286 0.109267 -0.0505972 0.145742 -0.130832 -0.160543 -0.0753684 -0.343803 0.0919338 0.09418 -0.032955 0.334858 0.100785 0.229607 0.0843691 0.0444149 0.00177864 -0.0133175 0.20331 0.393088 0.255024 0.223078 -0.305783 -0.0888085 -0.395705 -0.0160079 0.0149809 0.142564 -0.360098 0.0928153 0.148748 -0.150327 -0.176427 -0.208526 -0.38068 -0.0386091 -0.0296401 0.0243985 0.159664 0.359247 0.0231251 -0.0788405 0.313496 -0.0268677 -0.200539 0.127821 -0.112639 0.302499 -0.160398 0.211638 -0.262601 0.076432 -0.366126 -0.154372 -0.103509 0.143031 -0.360049 0.083509 -0.373669 0.0488156 0.0571254 -0.184255 -0.0318192 0.0506703 0.185242 -0.0514315 0.0347577 0.207202 0.00638651 -0.128725 -0.158568 -0.190883 -0.135113 -0.212741 0.0729759 0.0899787 -0.0158091 0.520689 0.0937449 -0.350605 0.188563 0.0706684 0.238518 -0.0626329 -0.435415 -0.0669505 0.175386 0.0877684 -0.0996732 -0.141 -0.306236 0.060336 -0.0180252 -0.21573 0.207607 0.0984713 0.0012962 -0.760492 0.149765 -0.170237 -0.00706237 0.140838 0.489313 -0.206001 -0.120551 0.0506059 -0.134569 -0.15786 -0.160369 -0.251112 -0.252998 0.0305549 -0.130836 0.304322 -0.0590159 -0.183923 0.113943 -0.357426 0.430665 0.448895 0.112891 -0.230992 0.12776 -0.153594 -0.0515466 0.0610521 0.406475 -0.0373067 -0.234025
[ -0.28568 -0.436638 0.171577 0.142233 -0.168159 -0.186036 -0.0221575 -0.0711565 -0.0548965 -1.17537 0.400776 0.148031 -0.0160961 0.149202 0.124571 0.329296 0.321308 -0.901197 0.17761 -0.135159 -0.0672803 0.17201 0.0384456 -0.226429 0.053274 -0.0791578 0.0586334 -0.0792569 -0.0371492 -0.135245 -0.111277 -0.0846277 0.0828718 0.135566 0.0366981 0.158273 -0.00678067 0.352774 -0.121371 0.474096 -0.140827 -0.251003 0.473459 0.46555 -0.23599 0.107751 0.21895 0.0445116 0.106041 -0.0894924 -0.281287 0.102425 -0.246212 -0.0904102 0.166363 -0.314296 -0.045613 0.352652 -0.0570919 0.0321398 -0.374372 -0.243144 0.357646 -0.225778 -0.173806 0.234308 -0.179283 -0.00573062 -0.174358 -0.221094 0.0473924 -0.197315 -0.208684 0.225545 0.558181 0.408838 -0.0910669 0.0654505 -0.170173 0.0103247 -0.201561 -0.0937052 -0.150069 0.15956 0.00510373 0.440793 0.275976 -0.371673 -0.234451 0.0839324 0.124457 0.0304263 0.086832 -0.0137833 -0.121411 0.22261 -0.287712 -0.339407 0.0648737 0.190791 -0.272745 0.166808 0.477616 -0.153136 -0.0216287 -0.0770524 0.2668 -0.115417 -0.033521 0.153973 0.147053 -0.00859542 0.16875 0.113829 0.184133 0.184762 -0.0341764 0.104488 -0.161804 -0.0915743 -0.177824 0.0251187 -0.0914999 -0.217387 -0.179478 -0.168778 -0.517049 0.0432933 0.228479 0.109716 0.201658 -0.193348 -0.183205 -0.143899 -0.0336002 -0.137143 0.0840277 0.120902 -0.205887 -0.326635 0.41266 -0.151716 -0.102348 0.13041 -0.241523 -0.202248 -0.112597 0.138686 -0.284422 0.369801 0.00458435 0.113822 -0.404496 -0.440906 0.226171 0.0803462 -0.224813 0.104923 0.114017 -0.132848 0.289714 -0.0799416 0.0372051 -0.15455 0.0410858 0.222564 -0.10126 -0.131396 -0.292437 -0.219403 -0.176707 0.0336194 -0.1006 -0.0734139 0.123355 0.0582744 0.336397 0.00958662 0.207693 0.0198574 0.176629 -0.0517571 0.209396 0.144037 0.368106 0.252679 0.104743 0.050768 -0.358727 -0.0274277 0.0356969 -0.35228 0.182821 -0.231606 0.233288 -0.135064 -0.0453284 0.106149 0.159112 0.055376 0.234402 -0.207477 0.20876 -0.0116644 -0.33055 0.0449672 -0.122252 0.0729401 0.0760178 0.160842 0.160426 0.00136536 0.106246 0.246095 0.0194289 -0.438919 0.108014 0.040013 0.103866 0.0831246 0.0571414 -0.0900485 0.133951 0.0597176 -0.120195 -0.101783 -0.0779814 -0.26269 -0.0691995 -0.0687477 0.115093 -0.346974 -0.00760822 -0.0358299 0.0118093 0.017697 0.13947 0.203548 -0.0234368 -0.197848 -0.220768 0.0545816 0.125232 -0.267753 -0.297668 0.12366 -0.0918729 0.220167 0.11373 -0.371271 0.159568 0.124197 -0.0786623 -0.165218 0.282275 -0.361553 -0.0497407 0.0108752 0.239045 -0.142203 0.261168 -0.122853 -0.0704698 0.0462172 0.103731 -0.00165531 0.0934238 -0.23389 -0.135569 0.13292 -0.31129 0.13541 -0.0798871 0.108466 -0.0305067 0.0832624 -0.0470972 -0.279203 -0.0989768 -0.235004 -0.0494251 0.0973513 -0.160734 0.232075 0.0954123 0.296218 -0.155964 0.012575 -0.018727 0.184509 0.137772 -0.0358838 -0.181633 0.13763 -0.136172 0.0510613 -0.0577529 0.0533977 0.0997825 0.0690741
u 0.264171 -0.263408 0.187362 -0.0561234 0.0754537 0.270098 0.314504 -0.036238 0.0578911 -1.11469 0.0336811 -0.126355 0.182749 -0.196449 0.397432 0.0926005 0.225561 -1.06535 0.00453135 0.133798 0.213877 -0.10543 0.00617766 0.0994546 -0.0896764 -0.245245 0.215333 -0.223804 -0.141629 0.077119 0.276015 -0.139302 0.179426 0.139036 -0.112999 -0.0412413 -0.0818647 0.0514927 -0.0483966 -0.0386487 -0.170842 0.0564054 -0.115245 -0.308938 -0.0448184 -0.329385 0.0716972 -0.36365 -0.121758 -0.168234 -0.149039 0.101113 0.152747 -0.114188 -0.184578 0.0676097 0.185525 -0.0673809 -0.0759571 -0.191661 0.0251779 -0.132314 -0.192908 -0.44615 -0.0742068 0.217655 -0.269101 -0.120594 -0.161205 -0.178761 -0.207554 0.352765 -0.0320793 0.0263144 -0.298159 0.0662334 -0.245629 -0.145483 -0.140978 0.0971077 0.0555161 0.255334 0.0473202 0.0643172 -0.0289828 0.223707 0.31931 0.168698 -0.356649 0.163013 0.234107 -0.0755732 -0.0458564 -0.205584 -0.129236 0.350955 -0.142181 0.050736 -0.17835 0.237662 0.0116205 -0.340024 -0.0483419 -0.0945416 -0.121666 -0.500838 0.146341 -0.0579059 0.0217663 -0.00731374 -0.0893321 0.0296477 -0.186125 0.0256374 -0.158895 -0.164311 -0.774129 0.219504 0.213021 0.16534 0.362963 -0.0267589 0.048358 0.130654 -0.152792 0.112378 -0.0366962 0.130702 0.306401 0.106759 -0.103997 -0.23686 0.273656 0.23123 -0.113699 -0.435563 0.0619555 0.00831098 -0.241681 0.227125 0.603829 0.170079 -0.277384 -0.27005 0.134753 0.201992 0.421576 0.0524831 0.0454475 -0.406699 0.184123 0.313844 0.119379 -0.113389 -0.188747 0.504773 0.449392 -0.557542 -0.0434504 -0.0859061 -0.104588 -0.0477645 -0.0660968 0.215961 0.184927 0.0740132 0.0544915 0.47147 0.105121 0.238012 0.180093 -0.304367 0.0480264 -0.102877 -0.00176156 -0.136676 -0.138138 0.170895 -0.507805 -0.175432 0.14038 -0.0388089 0.00757316 -0.226425 0.102581 -0.163519 0.112424 -0.371367 0.0868095 -0.169777 0.18854 0.145681 0.121071 -0.0676292 0.0731876 0.0186019 0.111833 -0.019158 0.166626 0.153413 -0.127219 0.058589 -0.0706313 0.167088 0.0122315 0.0562357 0.189346 -0.0482746 0.214556 -0.274878 -0.0379929 -0.0111882 -0.155613 -0.153099 0.140044 -0.218544 0.245249 0.185514 0.251365 -0.00969308 0.0777569 0.0406163 0.092348 -0.0864909 -0.194561 -0.0690585 0.458074 -0.0222665 -0.356234 -0.200602 -0.306363 0.102827 -0.0371486 -0.0121117 -0.0570221 0.248621 -0.227647 -0.296015 -0.154066 -0.0804015 0.110447 0.121691 -0.0135187 -0.169754 -0.212206 -0.217292 -0.16222 -0.413514 0.339818 -0.0261441 -0.186082 -0.155385 0.00119566 0.0427141 0.145585 -0.207735 -0.0294352 0.273232 0.261626 -0.251092 -0.251286 -0.154735 -0.0212058 0.31869 0.0206475 0.260806 0.241366 -0.127088 -0.391175 -0.282283 0.120912 -0.198882 0.184698 -0.0607292 0.0107491 0.091095 0.31235 -0.0846847 0.116295 -0.190423 0.00706833 -0.365113 -0.00264512 -0.459901 -0.0695433 0.198994 -0.000503014 0.0140953 -0.409429 -0.154875 0.0299392 -0.180978 -0.222552 0.169665 0.350202 -0.176511 -0.266568 0.102937 -0.0347916 -0.139893
' 0.132551 0.0539957 0.266238 -0.550504 0.22198 -0.198739 0.635331 0.018048 -0.111066 -1.01564 0.39162 -0.128969 0.248374 -0.224985 0.385056 0.365639 -0.03481 -1.27422 0.57082 -0.0928877 -0.0290494 -0.250158 0.286794 -0.0302474 0.853705 -0.151108 0.179243 0.27518 -0.358384 -0.0345524 0.0410521 -0.361287 0.60582 0.0361449 -0.107975 -0.0677572 -0.413796 -0.098184 -0.285491 0.140026 -0.477889 0.126297 0.227044 0.26882 0.175279 -0.501485 0.582547 -0.558318 -0.263817 0.0764858 0.607776 0.256669 0.115859 0.0697206 0.187549 0.195022 0.199395 -0.44517 0.435863 0.289449 -0.144645 -0.0514766 -0.289376 -0.459689 -0.262045 -0.098552 -0.0869671 -0.387821 -0.045319 0.212718 -0.157791 0.102065 -0.317954 -0.0273787 -0.0196898 -0.388275 0.196403 -0.11241 -0.0240859 -0.504314 -0.0804359 -0.532168 -0.196374 0.639955 -0.287911 -0.0146531 0.17028 -0.297593 -0.176718 -0.156171 0.375655 0.0629168 -0.2356 -0.0745562 0.00405482 0.246158 -0.0734386 -0.173477 -0.261689 0.420968 -0.0135901 0.665293 0.285841 0.0237285 -0.478115 -0.364005 0.00274648 0.210499 0.363906 0.0988182 -0.196668 0.101037 -0.0472709 0.217955 -0.0820371 0.306019 -0.0986809 -0.244569 0.0445533 0.201991 -0.138923 -0.0777895 -0.159145 0.422078 -0.21064 -0.161679 0.101582 0.413746 0.384542 0.126702 -0.384415 -0.180749 0.39096 0.0966615 -0.282442 0.0489943 -0.416753 0.244927 -0.635626 0.743937 0.444895 -0.206996 -0.0895747 -0.155677 -0.210579 0.0473146 0.221828 0.348149 0.0971399 -0.217803 0.28151 -0.369528 -0.00559249 -0.24268 0.217689 0.489022 -0.264246 -0.369074 -0.186377 0.322292 0.0146856 0.241192 0.197536 0.190355 0.109339 0.429215 -0.713836 0.394724 0.00954963 -0.190302 0.373392 0.0025332 -0.164512 0.475129 0.156722 -0.0522885 -0.208589 0.336317 -0.28314 -0.447597 0.0422861 -0.462609 0.0575408 0.16987 0.226484 0.00244553 0.311827 0.387985 -0.0616089 0.227842 0.0129564 0.368299 -0.210385 -0.054962 -0.0141812 0.134822 -0.198439 -0.490975 0.504363 -0.00704221 0.367131 0.714407 -0.124354 0.260341 -0.605246 -0.467252 -0.151773 0.130187 0.205433 -0.120542 0.625429 0.245911 -0.257745 0.302809 -0.11594 0.100228 -0.246286 0.122021 0.40473 -0.199451 -0.330065 0.0677549 0.123028 -0.0073617 0.194668 0.0565478 0.311485 -0.351965 -0.214133 -0.027636 0.120268 0.15078 -0.310473 -0.541635 -0.181045 -0.0320635 -0.365839 0.247961 -0.22624 0.568271 -0.0481273 0.16095 0.191675 -0.15761 -0.221011 0.0114347 -0.0163874 0.248407 0.371891 -0.0646396 -0.160304 -0.0506686 -0.368533 0.482824 0.0874714 -0.306334 -0.103265 0.0789333 0.051393 -0.354014 -0.293304 -0.479668 0.026801 -0.0107474 0.43541 0.274305 0.181222 -0.490434 -0.460006 -0.290406 -0.132984 -0.303775 -0.0222099 0.517307 -0.307558 0.31348 -0.113594 -0.532104 0.213588 0.344128 -0.0569714 -0.490962 0.271736 -0.0657697 0.203731 0.27852 0.440395 0.248805 -0.0253488 0.0557904 0.605748 -0.195773 0.350095 -0.136909 0.559372 0.248425 -0.107376 0.237339 0.442424 -0.491228
H 0.0425675 -0.432849 -0.0762223 0.0347355 0.101611 -0.0902261 0.0779917 0.17833 0.169379 -1.35952 0.298469 -0.0874626 -0.220679 0.150091 0.237252 -0.0886422 0.061305 -1.15148 -0.0412758 0.0401182 0.136345 0.627326 0.235854 -0.0255373 -0.183445 -0.126605 -0.0588867 0.0242399 -0.128092 -0.174016 0.158059 -0.0264897 0.0324443 -0.0580758 -0.15197 -0.100707 -0.243571 0.299669 0.1957 -0.15931 0.15822 0.0554926 -0.15106 0.000557033 -0.00547046 0.139004 0.057314 -0.432332 -0.0755121 -0.0498983 0.112879 0.166322 -0.206157 0.279262 -0.0694868 -0.048891 0.356593 0.15168 0.127312 0.0829378 0.0370552 0.125718 0.151883 -0.447986 -0.0973493 -0.182563 -0.0892836 -0.309513 0.263695 -0.166697 -0.00752826 0.244296 -0.166329 -0.0951768 -0.0554843 -0.0725644 0.0516111 0.175381 -0.556249 -0.328185 -0.249056 -0.138902 0.233727 -0.0727533 0.117064 0.238824 -0.0191081 -0.0560714 -0.323442 -0.0945756 0.171683 0.316787 -0.0418599 -0.062382 -0.120611 0.0959477 -0.0755969 0.0273141 -0.0934619 0.108491 0.394817 -0.183762 0.143487 0.256422 0.162742 -0.27368 -0.177925 -0.149891 0.19707 -0.188437 -0.0961434 0.427515 -0.000212801 0.21889 -0.18659 -0.0932104 0.155356 -0.118955 -0.0555461 0.128108 0.0190946 0.118346 0.168565 0.0471163 0.115005 -0.0579529 -0.135668 0.0370957 -0.285848 0.143711 -0.0761874 -0.0217495 0.342915 -0.086409 -0.108726 -0.236909 -0.186541 0.0487017 0.279693 0.0663218 0.891752 -0.411989 -0.105372 0.152286 0.0740806 0.588759 -0.113287 0.356841 -0.0135511 0.0452742 -0.372563 -0.252091 0.00215582 0.30566 0.132691 0.265811 -0.0533073 0.0952863 -0.0715123 0.0709475 -0.287742 -0.0314185 -0.100388 0.209213 0.409707 0.363068 -0.184765 0.121309 -0.272124 0.0310469 -0.134925 0.00243257 0.192801 0.00455184 -0.0482024 -0.0197178 -0.185175 -0.0250194 0.081399 -0.105231 -0.185315 -0.251445 0.130545 0.200778 0.305515 0.00576371 0.238822 -0.350282 -0.251886 0.186375 0.0446289 -0.179565 0.214569 -0.442278 -0.0036857 -0.282114 0.0288367 0.0331948 0.30166 -0.588929 -0.190571 0.119825 0.125571 -0.180058 -0.290027 0.0472423 -0.0037154 -0.045973 0.260582 0.153921 0.334368 0.36263 0.231442 0.295312 0.0393797 -0.0925629 -0.0334188 -0.272205 0.283817 -0.0534025 -0.0717589 -0.349087 0.211025 0.091905 0.149641 0.328867 -0.0289727 -0.0809473 0.203638 -0.19973 -0.0693505 0.0126346 -0.214613 -0.127691 0.0667082 0.320073 0.144379 0.0449698 0.200713 -0.0103966 -0.348137 -0.222047 -0.0708338 -0.243885 -0.0750911 0.270627 0.133086 -0.0740324 0.733608 0.0291873 -0.159026 -0.116267 0.0331698 -0.240755 0.0216845 -0.229489 -0.061581 0.441543 -0.369755 -0.415551 0.322682 -0.196335 0.137068 -0.144758 -0.0717095 0.597735 -0.338011 -0.142408 -0.536345 0.0565892 0.0244909 -0.144742 -0.0716267 0.277914 0.12808 -0.113711 -0.15446 -0.198914 0.126481 -0.113481 0.100483 -0.193001 -0.576524 0.143012 0.139787 0.410836 -0.0520078 -0.17176 -0.447931 0.340935 0.318215 0.196131 -0.0321637 0.161852 0.276665 0.452686 0.0151842 0.524597 -0.0695447 -0.17803
. -0.0620653 -0.352671 0.407978 0.095589 -0.269395 0.25341 0.289226 0.197692 0.410935 -1.38776 0.0999382 0.150904 -0.64867 -0.0497298 0.35097 -0.120158 0.186509 -0.959156 0.186356 -0.0432086 -0.171232 -0.311706 0.0127775 0.281117 0.0676824 0.328619 -0.0297369 0.0799567 0.0768481 -0.14795 0.225648 -0.327024 0.213696 0.193655 -0.170923 0.0888263 -0.185814 0.372586 0.3281 0.319465 0.130577 0.00176418 0.230165 0.275962 -0.282521 0.11312 0.166003 -0.283723 0.0596754 0.275259 0.360692 0.161896 0.173208 0.257234 0.325989 -0.343387 -0.310546 0.124107 0.163931 0.013991 0.0950478 -0.812904 -0.307256 -0.382528 -0.416347 0.359551 -0.0218078 -0.440303 0.116914 -0.217851 -0.173806 -0.233092 0.0354016 -0.403404 0.486914 0.335081 -0.0435268 0.282014 -0.28258 -0.211925 -0.204619 0.216193 -0.25017 -0.34182 0.271272 0.110105 0.673256 -0.111567 -0.0378636 0.199374 0.0716721 0.103847 0.0151591 0.0897662 -0.375308 0.366773 0.0966753 -0.0519493 0.204079 -0.0770265 -0.345606 0.0427121 0.22746 0.299446 -0.0780921 -0.383488 0.252106 -0.159919 -0.375138 0.0749536 -0.136936 -0.14504 -0.0179719 0.377859 -0.0515072 0.177168 0.253505 -0.0814372 0.180407 -0.0931161 -0.492732 0.133755 -0.464037 -0.157643 -0.595348 -0.22485 -0.264735 0.246143 -0.107047 -0.0610815 -0.423867 -0.266373 0.174605 0.282574 -0.0778389 0.107158 0.243463 0.436443 -0.484846 0.162497 0.810025 0.0345135 -0.275328 -0.195494 0.379598 0.0567176 0.141125 0.194003 -0.398981 -0.00523805 -0.0810748 0.0818982 -0.445289 0.219636 -0.148381 0.584182 -0.0259771 0.0151737 0.449276 -0.0923522 0.43852 -0.612806 -0.275694 0.0892324 0.0953652 0.682749 -0.337755 0.345276 -0.407271 -0.0873317 0.130294 0.150695 0.411335 0.267569 0.302424 -0.057578 -0.0311847 -0.210672 -0.236825 -0.132414 -0.17344 0.297102 -0.0693188 0.364855 0.255345 0.631866 0.201462 -0.401128 -0.282477 0.563547 -0.115095 -0.0909641 0.101614 -0.0648605 0.0764751 -0.0658882 0.350434 0.129862 0.0495862 -0.338963 0.299391 0.0546193 -0.0566422 0.0226464 0.0348618 0.178728 0.253305 0.061804 0.392642 0.294725 0.342144 -0.297121 -0.304612 0.23508 0.183613 0.0770146 0.156589 0.355078 0.048173 0.30362 -0.0668746 -0.420944 0.0493132 -0.0928011 -0.309558 -0.273011 -0.0313136 -0.325313 -0.171789 -0.176497 7.28677e-05 0.0159441 -0.0800307 -0.163459 0.206053 0.0580549 -0.0650643 0.350425 0.372996 -0.44691 0.000248352 -0.016857 0.179884 -0.13916 -0.0119504 0.033844 0.093056 0.139848 0.360888 -0.107862 -0.382223 0.60585 -0.0758181 -0.130623 0.0953399 -0.435321 0.108721 0.0043574 -0.168543 -0.0378379 -0.103347 0.01594 0.337229 -0.697006 0.0498198 0.0477767 0.159964 -0.393633 -0.473314 0.186811 -0.361569 -0.346238 -0.283163 0.635859 0.0195975 -0.510766 0.113073 -0.32084 0.109788 -0.242666 -0.075491 -0.602831 -0.0777894 0.195446 0.00243758 0.158247 -0.539173 -0.204575 -0.20632 0.225929 0.0527328 -0.217609 0.0338692 -0.147624 -0.0414809 -0.117048 -0.105902 0.331735 0.221364 -0.240773
} 0.190925 0.100645 -0.286713 -0.182226 -0.0539985 0.474907 -0.455956 -0.0244252 -0.352638 0.240423 -0.654413 0.254392 0.434484 -0.278438 0.474845 0.403691 -0.305702 2.42493 -0.529342 0.352822 0.109811 0.436116 -0.38704 0.0763933 -0.0917498 -0.210115 0.123753 0.348227 -0.0828626 -0.361447 -0.308831 -0.00928232 0.293531 0.231323 -0.0461627 -0.209743 0.308901 0.304572 -0.0889657 0.829674 -0.168423 -0.522714 0.237395 -0.0725326 -0.0637062 -0.0808842 -0.171231 0.640914 -0.124127 -0.651627 -0.0109776 0.560203 -0.105329 -0.145272 -0.0426341 -0.04507 0.269397 0.204877 -0.0788397 0.389278 -0.0510971 -0.215177 0.330765 -0.0357524 0.149509 0.634319 0.292852 -0.144994 0.221752 0.143465 -0.151054 -0.0764184 -0.381478 0.223886 0.493479 0.119283 -0.187028 0.187384 0.314493 -0.258212 0.0205091 0.146809 -0.0987072 -0.0442474 0.344777 0.0174769 0.641534 -1.40822 0.286057 0.251117 0.462464 -0.185193 0.4014 -0.64671 0.0223198 0.402236 -0.270897 0.120331 0.367459 0.156521 0.0111515 0.0973316 -0.397922 -0.556389 -0.0516046 1.32107 0.629782 0.397845 -0.306441 0.395016 -0.41725 -0.181467 -0.247419 0.439009 -0.473403 0.0637706 -0.281469 -0.336964 -0.228591 -0.0895052 -0.0142507 -0.466304 0.148241 -0.418307 0.0397006 -0.0524193 0.377177 -0.187182 0.13878 -0.0419159 -0.0262217 0.544748 -0.275048 -0.0541465 0.257531 0.249556 -0.397423 0.0399154 -0.0340769 0.276769 -0.825034 0.539886 -0.0451431 -0.271453 0.0730503 -0.296546 0.197477 -0.503644 -0.476585 0.00832757 0.513155 0.181554 -0.203383 -0.257768 -0.220541 0.0178614 0.198827 -0.153114 -0.304841 0.00035431 0.14164 -0.0221218 0.271999 -0.142349 0.0199107 -0.329052 0.245962 -0.444624 0.105535 0.554894 0.407009 0.871813 -0.102744 -0.325197 0.222201 -0.489951 0.726868 -0.323007 -0.246867 0.102652 0.0877867 -0.511103 0.533119 -0.144886 -0.692198 0.398351 -0.524768 0.363962 0.332933 0.123479 -0.607672 -0.269117 -0.417032 0.693301 1.10217 -0.0614132 -0.231752 -0.621231 -0.559604 0.23963 -0.77177 -0.376073 -0.00368804 0.093352 0.109227 -0.305646 -0.360982 0.0262648 0.0401749 -0.0865318 -0.0788477 -0.305768 0.39164 -0.53579 -0.187022 -0.222694 0.35182 0.672306 -0.348371 -0.0415829 0.325437 0.520662 -0.136984 0.162648 0.0404144 0.616473 0.000832454 -0.574437 -0.155059 -0.296214 -0.144216 -0.795918 -0.121524 -0.263124 -0.407935 -0.484588 -0.0369987 0.0273672 0.0227889 0.0348143 0.0314482 0.0956888 0.0228953 0.633073 -0.204158 -0.837922 -0.0974179 -0.604444 0.157672 -0.289287 0.32117 0.157393 0.087654 -0.792009 -0.409902 0.149671 -0.0055825 0.319533 -0.011461 0.218103 0.0836574 0.31192 0.0462633 -0.0137428 -0.191006 0.323627 0.56966 -0.0188481 0.445691 -0.434683 -0.578937 0.156513 0.0529989 -0.298763 0.153224 -0.586307 -0.343598 0.701338 0.0815279 0.107902 0.329578 -0.385246 0.280196 -0.498131 0.150612 -0.451596 0.195771 0.453572 0.0249561 0.252922 0.203673 -0.142616 -0.0777412 -0.242591 -0.311745 -0.334699 -0.135709 -0.0658754 -0.590484 -0.14802
f 0.0812605 -0.0895577 0.0787053 0.0182994 -0.0453066 -0.0254087 -0.241826 -0.0101766 -0.235547 -1.14155 0.235332 0.150472 -0.13347 0.315518 0.0854779 0.343182 0.426311 -0.840785 0.00567271 -0.117993 -0.125278 -0.0642011 0.07367 -0.248408 -0.425316 -0.0302706 0.219307 -0.10093 -0.203569 -0.227263 0.229972 0.16685 0.0224598 0.246567 -0.0480941 -0.0270301 -0.283789 -0.213076 0.239841 0.0568634 -0.109172 -0.175569 -0.132695 0.168387 0.101497 -0.0857132 -0.0413319 -0.113919 -0.21637 0.165101 -0.101364 -0.154337 -0.0722483 0.168609 0.063932 -0.162916 -0.0823141 -0.0691899 -0.105975 0.0147433 0.130989 -0.183557 0.00919106 -0.253873 0.0789511 0.0241378 0.232143 -0.0636764 0.0985822 0.0565736 0.379685 0.251568 -0.284555 0.042343 -0.0825652 -0.131256 0.0449566 0.283961 0.276755 0.289637 -0.419228 0.129044 0.202659 -0.281288 0.0104182 0.324764 0.561219 0.0478587 0.016693 0.0110388 -0.0825469 -0.287212 0.179997 -0.13234 0.0146764 0.355383 -0.453657 -0.227747 -0.0175173 0.207207 0.0086989 0.0276558 -0.297063 0.0961645 -0.343113 -1.05489 0.296582 -0.184714 -0.176037 -0.156377 -0.0835771 0.283329 0.129627 0.263119 -0.0288459 0.106014 -0.271773 -0.248139 0.0233904 0.0111786 -0.0895316 -0.303903 -0.127009 -0.285246 0.208565 -0.211405 0.202302 -0.437325 -0.120224 -0.305864 0.061403 0.169141 0.15254 0.0212075 0.147865 -0.0212085 0.0244426 -0.203133 -0.0488026 -0.334333 0.368586 -0.0826227 -0.0378488 0.0993539 -0.122505 0.0185488 0.239961 -0.137032 -0.0907111 0.335364 -0.189391 -0.209817 -0.0626787 -0.333609 0.0240299 -0.0846199 -0.100445 -0.613914 0.109157 0.0237974 -0.10776 -0.168353 0.120074 -0.0118603 0.265227 0.0108001 0.0643902 -0.138665 -0.325801 -0.134912 -0.530477 -0.204749 0.304894 -0.0755849 0.00227151 -0.187034 -0.114789 -0.193722 -0.516103 0.0526381 -0.37026 -0.278422 0.162831 0.0146691 0.143272 -0.2108 0.0973698 -0.539274 -0.0139607 -0.324093 0.368893 0.48874 0.106929 -0.178718 0.166705 0.0836266 0.497808 -0.16238 0.164618 0.000443814 -0.339657 0.165203 -0.135924 -0.250769 -0.286301 0.062926 0.268832 0.0716893 0.118756 -0.0536154 -0.0217919 0.470438 0.237592 0.106049 -0.160844 -0.0906442 0.0249509 0.0613004 0.227052 0.254133 0.607937 -0.172553 0.216514 -0.110046 -0.282544 -0.250122 -0.0186433 0.188341 -0.223807 -0.370571 -0.290088 -0.0767584 0.0945956 0.0513718 0.0628689 0.187549 0.251012 0.323732 0.029912 -0.307551 0.427521 0.0369009 -0.171233 -0.0617222 0.0181013 0.397615 0.280698 -0.0545435 0.49933 0.29011 0.000845489 0.0381647 0.323393 0.162033 -0.129611 -0.534813 0.278074 0.00871154 0.0623066 0.185827 -0.100121 -0.109459 -0.466594 -0.233144 0.294231 0.170423 -0.177092 -0.0453298 -0.169881 0.0209913 0.124079 -0.207924 0.208479 -0.210506 0.0920528 -0.00793695 0.0217572 0.136059 0.221663 -0.286416 -0.450848 -0.20082 -0.353 -0.296217 -0.0285455 -0.144654 -0.170729 0.386533 -0.135005 -0.0673639 0.16189 -0.144675 -0.148673 -0.120965 -0.0987433 -0.262655 0.190249 0.287279 -0.168681 -0.0872082
; 0.282022 -0.444479 0.0417275 -0.02331 0.0760168 -0.0907 -0.100291 0.21866 0.270734 -1.62172 0.308377 -0.43061 -0.38513 0.611686 0.749279 -0.364591 0.108044 -1.22814 0.320021 0.397089 -0.195398 0.550833 0.285382 -0.0294512 0.0870827 -0.627141 0.161599 0.318176 -0.282388 -0.394775 -0.303802 -0.0268246 0.24858 0.319691 -0.0031645 -0.0849821 0.179006 0.218128 0.0933406 0.43891 0.033212 -0.0940515 0.439025 -0.173275 0.201537 -0.0439938 0.475789 -0.680181 0.0781342 0.109939 0.132351 -0.15373 0.0832812 -0.311954 0.177732 -0.297438 0.066751 -0.330315 0.197634 -0.208769 -0.0362708 -0.0704738 0.0214328 -0.730391 -0.446693 0.509386 0.0826732 -0.216348 0.53531 -0.463333 -0.0737043 0.0418247 0.383537 -0.0138085 -0.0132306 -0.112593 0.127334 0.206983 0.0527894 -0.492427 -0.231224 -0.122948 0.177672 0.292176 -0.143732 0.166033 0.397854 -0.748109 -0.414268 -0.275464 0.171752 0.038229 0.0695942 0.474497 0.0196179 1.08354 -0.078784 0.3004 0.110888 0.194627 -0.0237516 0.0332573 0.362453 0.000279279 -0.243304 -0.383275 0.23261 0.169639 -0.484763 -0.320232 0.167447 0.417447 -0.176787 -0.024673 -0.0785466 0.258611 -0.118981 -0.479024 -0.0935955 0.146896 -0.0682726 -0.383186 0.0634052 -0.187576 0.456513 0.138993 -0.0456835 -0.213163 0.272575 0.0419938 -0.565118 -0.18556 -0.0787844 -0.117825 -0.0887677 -0.0637008 -0.0450259 0.0196327 -0.0329486 0.174299 0.668467 -0.0241158 -0.198181 -0.0025955 -0.125884 0.171589 -0.0736649 0.179205 -0.00844678 0.453284 -0.245797 -0.274749 -0.332104 0.000745861 0.227931 0.232373 -0.210838 -0.0643896 0.359703 -0.286515 0.111519 -0.232058 -0.34116 0.707711 0.727321 0.536062 -0.240603 0.0879053 0.225244 0.332103 -0.0812102 0.0258784 0.0640802 0.270567 0.222383 -0.110676 0.0807423 0.229091 -0.130888 0.0356274 -0.176634 -0.39181 0.112099 0.329567 0.530435 0.230418 0.624038 -0.180933 0.1649 0.155925 0.193385 -0.108325 -0.172298 -0.390926 0.350449 -0.382715 0.495023 -0.275076 0.397187 -0.675202 -0.28212 0.49336 0.172994 -0.254792 -0.697572 -0.215342 0.0610832 0.0446949 0.158266 0.178564 -0.022001 0.3765 0.557573 0.459385 -0.575016 -0.278628 0.232354 -0.293324 0.876577 -0.173204 -0.171997 0.0341119 0.402678 -0.457562 -0.251051 0.0701819 -0.148832 -0.324773 0.0751413 -0.613707 -0.104909 -0.532656 -0.270173 -0.381394 0.24002 0.319023 0.23728 0.0729895 -0.16644 0.196141 -0.155414 -0.327416 -0.139987 -0.296193 -0.0370934 0.046987 0.40944 0.130216 0.381205 0.41731 -0.382887 0.141769 0.143738 0.074004 -0.38915 -0.333281 -0.020189 0.307936 -0.00804779 -0.135387 -0.336217 -0.297945 0.0100388 -0.380641 0.0670586 0.458737 0.177224 0.0253541 -0.308995 0.194987 -0.50151 -0.0173818 -0.0757762 0.591923 0.0539833 0.0869669 0.211922 0.0955246 0.185781 -0.143393 -0.00096255 -0.367 -0.327808 0.139553 0.452655 -0.32214 -0.05089 0.580269 -0.376896 0.0987561 0.829502 -0.158081 -0.162417 0.109547 0.305179 -0.363949 0.353813 0.466311 -0.15595 -0.147625
| -0.25303 -0.0730864 0.537565 0.0251795 0.067865 -0.177148 0.12728 -0.563573 0.13833 -1.50869 0.281456 -0.117737 -0.193543 0.393553 -0.122851 0.343034 -0.0678448 -0.565539 0.170828 -0.171604 0.441728 0.128914 -0.041825 -0.143087 -0.093012 -0.427326 0.403151 -0.0101867 0.0140957 0.199853 0.0477775 -0.648801 0.443655 0.485618 0.115929 0.83192 0.502216 0.375819 0.325573 0.301173 0.151835 -0.105756 0.509659 -0.0165597 -0.0380427 -0.549921 0.0411506 0.0583812 -0.312712 0.198214 -0.288317 -0.0437294 0.463109 -0.323255 0.554571 0.0914537 -0.60914 0.198627 0.302703 -0.503412 -0.719113 -0.426747 0.172271 -0.610417 -0.545098 0.553561 -0.408287 -0.087872 0.0902924 -0.181335 0.519788 -0.144152 0.13078 0.0267716 0.23624 0.873754 -0.280101 -0.143034 -0.614032 -0.276878 -0.464844 0.30209 -0.181981 0.302514 0.182383 0.84325 0.746326 -0.866256 0.10383 0.442058 -0.343694 0.0348707 0.00727162 0.0696134 0.112995 0.304171 -0.682569 -0.135759 0.273442 0.0136962 -0.20139 -0.398688 0.710215 -0.124635 0.734599 0.168287 -0.079585 -0.265954 -0.236993 0.127211 0.48521 -0.549665 0.143175 0.0635469 -0.130925 0.400919 0.113692 -0.205756 -0.0337401 0.0105724 -0.307671 0.193963 0.48054 -0.129504 -0.123387 0.224704 0.277993 -0.21353 -0.294583 -0.0301319 0.0904988 -0.300247 0.327579 0.3697 0.320417 0.0398665 -0.256977 -0.221934 -0.590999 0.124204 0.0685181 0.726206 -0.00193819 0.137078 -0.565568 0.477127 0.390621 0.246009 -0.668333 0.386301 0.424237 0.129002 -0.48558 0.517455 0.139123 -0.31659 -0.182538 -0.584393 0.63882 -0.169855 -0.388952 -0.365057 -0.239934 -0.0368395 0.341228 0.132154 0.0249257 -0.0431704 -0.221977 0.382193 -0.187832 -0.243729 -0.404571 0.125162 0.0632438 -0.468243 0.535516 -0.0912863 -0.139448 -0.139381 0.128275 -0.337633 0.386866 0.0865608 0.100373 0.42546 -0.00295443 -0.810213 -0.203246 0.354915 -0.306985 0.303516 0.202248 -0.522911 0.394236 -0.231475 0.694176 -0.244347 0.19 0.0944824 -0.115558 0.351199 -0.220338 0.0138096 -0.151877 -0.393763 0.433997 -0.495171 0.364754 0.0110973 -0.154194 -0.192459 0.826476 -0.121357 0.0690912 -0.260459 0.141334 -0.514329 -0.132461 0.0138845 0.128457 0.427818 -0.338164 0.0518239 -0.171659 0.0215098 -0.254246 -0.0986958 -0.144512 -0.329686 -0.330982 -0.728583 0.279714 -0.924002 0.191863 0.110066 0.133192 0.211196 -0.0736889 -0.342747 -0.0742685 -0.258837 0.191551 0.0102445 -0.158062 0.146123 -0.377943 -0.0114541 0.366364 -0.0322243 0.222969 0.270679 0.130549 -0.497017 -0.077482 -0.366759 -0.423194 -0.0810076 -0.286319 -0.228882 -0.114173 0.355077 0.036122 -0.306023 0.383045 -0.287722 0.184995 0.0749833 0.325866 0.317085 -0.0929602 -0.635221 -0.0633679 0.10904 -0.202178 0.240689 0.317373 -0.19534 0.0151334 -0.498223 -0.154943 -0.450018 -0.164235 -0.229926 0.419473 -0.0833431 -0.330507 -0.208658 0.0153918 0.295898 0.567329 -0.349372 -0.699254 0.139054 0.15713 -0.0123183 -0.567888 0.222488 -0.0383699 -0.441025
M 0.137832 -0.60878 -0.222073 0.27607 -0.0973136 0.118595 -0.144372 0.151419 0.122623 -1.39936 0.631972 -0.00582762 -0.316798 0.45846 0.108362 -0.243253 0.171015 -1.31114 0.272941 0.315749 -0.0571201 0.134715 0.00397485 -0.00779773 0.0491596 -0.530133 -0.0234572 -0.279617 0.0191174 0.0340622 -0.108809 -0.454288 0.0152888 0.0296639 -0.461922 -0.390816 0.374074 0.189885 0.183515 0.204995 0.181767 0.0445763 0.190017 -0.073354 0.100014 -0.0511899 0.332755 -0.284989 0.0050783 0.0387791 0.342057 -0.127295 0.00686647 -0.21718 -0.0842629 0.217623 0.156964 0.187939 -0.381915 -0.0361702 -0.0576054 -0.0147153 -0.11903 -0.344104 -0.052874 0.0261077 -0.0855609 0.030089 0.23444 -0.179592 -0.226716 -0.226193 -0.26225 -0.0591853 -0.136113 0.0786558 -0.155843 0.252251 -0.231018 -0.115749 0.0641826 -0.288031 0.243975 0.327193 -0.0676601 0.313745 0.197749 -0.379319 -0.429835 -0.0975902 0.312948 0.473888 -0.139134 0.286868 -0.100337 0.103596 0.11243 0.23757 0.000126894 0.136661 0.249212 -0.195496 0.411521 0.142414 0.210836 -0.128974 0.143169 -0.017248 0.0252005 0.114738 0.174862 0.122508 -0.218539 -0.155876 -0.35203 -0.00650962 -0.0330401 0.0430874 -0.0352882 -0.0805359 0.0250265 0.233467 -0.162476 0.192043 0.227567 -0.186556 -0.149578 -0.0126974 -0.0572632 0.167665 -0.0753596 0.0407191 -0.0680761 0.0917768 -0.15939 -0.184081 -0.0707102 -0.314706 0.154009 -0.177798 1.07298 -0.323076 -0.466952 0.283093 0.156285 -0.0976488 -0.00953515 0.300436 0.215317 0.168012 -0.126029 0.00178024 -0.362146 -0.145654 0.0695457 0.205704 0.0468801 -0.0278235 0.255541 -0.0537476 -0.225308 0.202935 -0.311137 0.276604 0.379859 0.14903 -0.180224 0.264119 -0.254306 -0.14162 -0.0420738 -0.105116 0.145077 -0.197829 -0.0374212 0.109807 -0.0377521 0.125693 -0.194532 0.10828 -0.168352 -0.0661995 0.171043 0.61923 0.000432393 -0.00122323 0.046668 -0.184273 -0.348094 -0.164337 0.118498 -0.078732 0.346876 -0.542566 -0.0475931 -0.66942 0.38955 0.292779 0.140257 -0.169256 0.124267 -0.0312795 0.22312 -0.248903 -0.49341 -0.121179 -0.12403 0.237338 0.0107436 -0.0520986 0.304814 0.211986 0.013849 0.489543 -0.182879 -0.320841 0.651354 -0.380889 0.523198 -0.139231 -0.0624104 -0.11469 0.238434 -0.668706 -0.0756672 -0.217413 -0.00709859 -0.043638 0.345786 -0.386057 0.116605 0.0531567 -0.413318 0.0324446 0.307195 0.144284 0.247377 0.074719 0.147305 0.0167797 -0.374993 -0.0613082 -0.0422142 -0.222627 -0.314887 0.1821 0.486478 -0.164018 0.116814 -0.0808685 -0.111526 0.0832252 0.255639 -0.10366 -0.0975287 -0.625665 -0.429983 0.442002 0.0358832 -0.213601 -0.0773927 -0.35617 0.172596 -0.239386 0.155675 0.268229 0.0284402 0.00313308 -0.521591 -0.167393 -0.20985 0.253255 0.273229 0.437417 -0.0877043 0.344732 0.355224 -0.341287 0.164571 -0.515853 0.00702705 -0.17284 0.214162 0.0346209 0.237465 0.204383 -0.33949 0.396103 -0.293825 0.378996 0.374621 0.146315 -0.164516 0.148108 0.259638 0.274904 0.136455 0.0132167 -0.286693 -0.00493726

 -0.176543 -0.0607547 -0.159691 0.0870273 0.0403995 0.0213324 -0.134438 0.0131233 0.233211 0.0763511 -0.275441 0.0458893 -0.106578 -0.12377 -0.0448412 -0.0693199 -0.0708979 0.000363698 -0.192967 0.0353816 -0.241297 0.0529075 0.00781091 -0.0455715 -0.0746754 -0.0352847 -0.146932 0.0350808 -0.0588486 0.0629856 -0.0381179 0.0571695 0.0692242 0.111967 0.0602836 -0.205904 -0.140617 0.0649097 0.0896599 -0.267585 0.167491 -0.00889326 0.100823 0.0463486 0.253137 -9.36498e-05 0.0171682 -0.118872 0.161531 0.0713038 -0.0655475 0.0491769 -0.0258469 -0.175087 -0.0317595 -0.00616647 -0.0297475 -0.0767706 0.179969 -0.0762899 0.0981422 -0.0697932 -0.0371107 0.194316 0.128052 0.121752 0.155514 -0.110224 0.134749 0.146176 -0.031349 -0.0920243 0.112921 0.0253724 0.0982931 -0.1142 0.190937 -0.00298471 0.102337 0.0983477 0.100156 0.0999328 -0.169477 -0.257284 -0.282906 -0.115447 -0.144638 -0.0396769 0.042055 0.0590306 -0.0278806 -0.114516 -0.224144 -0.0606429 -0.00479375 -0.0865487 -0.0303819 0.117908 -0.00772063 0.190453 0.190746 0.216155 0.121008 0.123382 0.111172 0.0316783 0.13883 0.00584096 -0.118011 -0.00605616 0.264351 -0.0649584 0.0640562 0.0377098 0.115598 -0.0770371 -0.0608966 -0.056877 -0.164213 0.100969 0.115951 0.172744 -0.259987 0.0118905 0.115986 -0.150342 0.207787 -0.023525 -0.0435967 -0.191336 0.066022 -0.121246 0.176364 -0.0200994 0.0691643 0.0399331 0.179246 -0.192231 0.00388809 -0.035855 -0.115061 -0.139529 0.10366 0.0565507 0.0326943 -0.142955 -0.0780179 0.278346 0.0278197 -0.0126296 -0.0726072 -0.0614755 0.0426798 -0.138147 -0.112716 0.0568294 -0.168618 0.265012 0.033327 -0.114757 0.0507342 -0.100955 0.0578076 -0.086494 -0.0886674 0.0786155 0.227202 0.00955266 -0.0769165 0.0129948 0.152545 -0.174545 -0.0570267 0.0730677 -0.199741 0.149883 -0.0039327 0.147841 0.0703948 -0.0228497 0.0248481 -0.0827813 0.116289 -0.240787 0.11094 0.14764 0.0161272 0.117578 -0.191075 -0.0580784 -0.0175128 -0.0323518 -0.0330317 0.0410192 -0.0257612 0.0331436 -0.145723 0.0680157 0.00460107 0.183973 0.141303 -0.0453994 0.165678 -0.0046626 0.119377 0.255351 0.169385 -0.000926748 0.0888705 -0.122845 0.0831758 -0.0432517 0.0273171 -0.015605 0.0253562 0.0602814 -0.242462 0.00482047 -0.191988 0.0284575 -0.0291627 -0.160862 0.171021 0.100181 0.144803 -0.130775 0.144658 0.217604 0.183184 0.0724929 -0.186559 0.130221 -0.110112 -0.034052 -0.209297 -0.00991707 -0.0839472 -0.116955 -0.00948219 0.0262753 0.0883498 0.106988 -0.0806311 -0.0961951 -0.0613732 0.0649068 0.198319 -0.0181362 -0.173524 0.0448095 -0.152533 -0.0312916 -0.037296 0.13225 0.181769 0.0670578 -0.0750775 0.0659797 0.260367 0.140271 0.0433508 -0.0584682 -0.00818736 -0.0169781 0.133877 -0.0249976 0.128818 0.242973 0.0161869 0.00363661 0.138618 0.192183 -0.0600959 0.0907058 -0.148384 0.0193868 0.126714 -0.096257 -0.0489912 0.103686 -0.0226556 -0.00973416 0.113775 0.14051 -0.105299 0.100975 0.0453782 0.00118724 0.258311 -0.197558 -0.126998 0.187927 -0.0463225 0.146717 -0.129229 -0.107391 -0.0301714 -0.0325654 0.176127 0.185211
* 0.334812 0.00238931 0.148103 -0.0756576 -0.373296 0.0724101 0.223694 -0.0962949 -0.0546622 -1.69622 0.295174 -0.0538452 -0.0231163 0.0701405 0.303008 0.193832 0.271314 -1.02971 0.377056 0.235556 0.0362288 0.145681 0.372357 -0.0701118 -0.0765419 -0.154416 0.076905 0.204208 -0.210089 0.0709753 0.547624 -0.183881 0.037941 -0.0349355 -0.0331118 0.0522 -0.0637681 0.137051 0.201702 0.741636 0.00350162 -0.300382 -0.00930812 -0.164549 -0.144736 0.239269 -0.0128504 -0.100996 -0.28492 0.282586 0.0216073 0.283626 -0.0750004 0.0838047 0.038289 -0.41664 0.064477 0.0192818 0.293357 0.0332716 -0.118266 -0.271139 0.0674835 -0.435974 -0.594194 0.379078 0.213444 0.0652121 -0.172204 -0.0454197 0.390199 -0.0569614 0.355778 0.220411 0.202749 -0.0895715 -0.353467 -0.0266374 0.0452791 -0.276856 -0.364517 0.200714 -0.635995 -0.10537 0.0833553 0.195911 0.528133 -0.830796 -0.142093 0.134451 -0.236344 0.31808 0.466055 -0.0195857 -0.0421747 0.666107 -0.186499 0.386301 0.193478 -0.196906 -0.529448 0.189095 0.238002 -0.122852 -0.161534 -0.369133 0.404879 -0.279951 -0.225916 -0.0120716 0.107736 -0.145447 0.179765 -0.248234 0.251061 0.503658 -0.202306 -0.116858 0.0135768 -0.0590861 -0.0278518 -0.25279 0.0175481 0.0853527 -0.122202 -0.342785 -0.203311 -0.0577564 0.0758131 0.227229 -0.0654613 -0.352823 -0.406098 0.0169519 -0.416073 0.501483 -0.219397 0.22074 0.0579972 0.220417 0.917669 -0.0597323 -0.267161 -0.236289 -0.0417147 0.330717 -0.23937 -0.244959 -0.141914 0.243492 -0.11152 0.211467 -0.211651 0.114477 -0.0965955 0.218157 0.263889 0.0414887 0.393358 -0.0339927 0.306732 0.033919 -0.113766 0.433319 0.34946 0.53522 -0.406734 -0.110045 0.0689779 0.0122711 0.0881213 0.692936 0.194961 0.0848987 0.471874 0.160242 -0.13964 -0.282218 -0.252736 0.195715 -0.0677185 -0.13639 0.171175 -0.164609 0.465402 0.00936957 0.0941106 -0.209594 0.0272551 0.194988 0.0884814 -0.467986 0.282634 -0.320769 0.187705 -0.0245847 0.408888 0.0965995 0.484917 -0.577389 -0.0421989 -0.0881063 -0.217629 -0.323433 -0.0433979 0.0115934 0.0968765 -0.189994 -0.00855101 0.169852 0.0204619 0.0262694 0.400464 0.553562 -0.283879 -0.13841 -0.102071 -0.215057 0.335647 0.0531686 0.102626 0.0334749 0.3619 0.28937 -0.566349 -0.386432 -0.218393 -0.302781 -0.271145 -0.554057 0.203295 -0.0855766 -0.419206 0.169963 -0.0216351 0.50384 -0.0496147 -0.0891787 -0.237963 -0.0445499 0.0344987 -0.228978 -0.188841 -0.131643 0.0978715 0.140058 -0.213692 -0.0921677 0.32574 0.543929 -0.495534 -0.00208695 0.0253734 -0.314043 -0.508272 -0.49358 0.0287977 -0.177165 -0.364822 -0.189112 -0.2659 -0.150686 -0.00385188 -0.796636 -0.483454 0.22178 -0.121713 -0.129277 -0.0942888 -0.164322 -0.429099 -0.172021 0.0125677 0.129527 -0.186277 0.209759 -0.323301 -0.042127 -0.260831 -0.219781 -0.45224 -0.079292 -0.3088 0.0137456 0.44488 -0.103961 -0.403927 0.150317 -0.210861 0.276003 0.73231 -0.321055 -0.145398 -0.0611695 0.206884 -0.197085 -0.145278 0.541391 0.0263086 -0.23809
